%YAML:1.0
---
opencv_ml_ann_mlp:
   format: 3
   layer_sizes: [ 256, 10, 26 ]
   activation_function: SIGMOID_SYM
   f_param1: 6.6666666666666663e-01
   f_param2: 1.7159000000000000e+00
   min_val: -9.4999999999999996e-01
   max_val: 9.4999999999999996e-01
   min_val1: -9.7999999999999998e-01
   max_val1: 9.7999999999999998e-01
   training_params:
      train_method: BACKPROP
      dw_scale: 1.0000000000000000e-03
      moment_scale: 0.
      term_criteria:
         iterations: 300
   input_scale:
      - 2.8918003181113483e-02
      - -2.6542595776950589e-01
      - 2.8182367889187300e-02
      - -2.8954027962343620e-01
      - 1.8250069340889980e-02
      - -3.9237649082913456e-01
      - 1.4767166613039348e-02
      - -4.2156744688176617e-01
      - 1.1831972345498997e-02
      - -5.7568179733398095e-01
      - 1.0907111380861105e-02
      - -7.1220840385741868e-01
      - 1.0000739311003976e-02
      - -9.3625968978256269e-01
      - 1.0750269484188692e-02
      - -1.1482311644302494e+00
      - 9.4876292970965462e-03
      - -1.0847522829680385e+00
      - 8.9956479680447440e-03
      - -9.7206543578502547e-01
      - 9.3625603769500344e-03
      - -7.8901862986225346e-01
      - 1.1435994930251514e-02
      - -5.9834759188637388e-01
      - 1.4478623291791377e-02
      - -4.5383589437246064e-01
      - 1.8595584647783856e-02
      - -3.7766746915618166e-01
      - 1.9462179497897292e-02
      - -3.3525921111258783e-01
      - 2.0675929794858640e-02
      - -2.7518677988871382e-01
      - 1.8121913676251052e-02
      - -4.1270501026986028e-01
      - 1.4907732097474306e-02
      - -4.0534833465037279e-01
      - 1.1654529255099582e-02
      - -5.3832825606888546e-01
      - 1.1878256041507180e-02
      - -6.0324571753654321e-01
      - 1.0779929186578318e-02
      - -7.0197872203075473e-01
      - 1.0958304379731257e-02
      - -1.0890467257380541e+00
      - 1.0728985877529419e-02
      - -1.5864849236284870e+00
      - 1.0033463998220655e-02
      - -1.4168684517487311e+00
      - 9.4622757234887524e-03
      - -1.2699725774596691e+00
      - 9.2176353040209040e-03
      - -1.2054252835079717e+00
      - 9.0154669277705910e-03
      - -1.0994576572390706e+00
      - 8.9254989235341368e-03
      - -1.1329008276514401e+00
      - 8.5102923612554900e-03
      - -1.0522368626666609e+00
      - 8.7771906933002720e-03
      - -8.9746774838995280e-01
      - 1.0117096519713983e-02
      - -6.0702579118283895e-01
      - 1.2988348835290622e-02
      - -4.0093795868938792e-01
      - 1.0397899757609443e-02
      - -6.2375020093564271e-01
      - 9.4644420784402196e-03
      - -6.8560869103938971e-01
      - 1.0010428777081361e-02
      - -7.1300470682473560e-01
      - 1.0726531371215696e-02
      - -8.6208111056044245e-01
      - 1.0683207829448604e-02
      - -1.1062207345302852e+00
      - 1.1387268010512614e-02
      - -1.6678280753968655e+00
      - 1.0715153552467084e-02
      - -1.7157001819128843e+00
      - 1.0293922625006269e-02
      - -1.5054861839071669e+00
      - 1.0180424316329904e-02
      - -1.3667219644672897e+00
      - 9.4463761058418191e-03
      - -1.2138593296006737e+00
      - 8.7128296714793167e-03
      - -1.1500935166352697e+00
      - 8.7392300069445168e-03
      - -1.0875139436022743e+00
      - 8.8030277901363328e-03
      - -1.0099378430183792e+00
      - 8.8154691616216928e-03
      - -9.2772318319923530e-01
      - 1.0017566017849675e-02
      - -6.4446341381499572e-01
      - 1.2109435550338542e-02
      - -4.7471870556267637e-01
      - 9.8345967292690836e-03
      - -7.2834555062836870e-01
      - 9.0134515136717202e-03
      - -8.8879070104455793e-01
      - 9.9082703942876688e-03
      - -1.5348382663151325e+00
      - 1.1448890484207870e-02
      - -1.6096594835535112e+00
      - 1.2117334303557567e-02
      - -1.9810399046518579e+00
      - 1.1471940671486694e-02
      - -1.8461630237756801e+00
      - 1.0899438545246333e-02
      - -1.7232790871359114e+00
      - 9.5535953479759603e-03
      - -1.4726184829237230e+00
      - 9.5519934356977001e-03
      - -1.4471270055082015e+00
      - 8.9871837679622035e-03
      - -1.2585266983635641e+00
      - 8.8645580835390314e-03
      - -9.7520691964266892e-01
      - 9.3540620948364111e-03
      - -9.8941478229311319e-01
      - 8.5193562243370234e-03
      - -9.5224089988452754e-01
      - 8.8227072957524459e-03
      - -8.8594685761514147e-01
      - 9.5095933009142208e-03
      - -7.2895561029269840e-01
      - 1.6337447585383497e-02
      - -4.1504896603819502e-01
      - 9.8474197627344273e-03
      - -8.6833140693540367e-01
      - 1.0489206587251439e-02
      - -1.2699432260993706e+00
      - 1.0868607645483282e-02
      - -1.6450414000556481e+00
      - 1.2783583475015410e-02
      - -2.1628605755585597e+00
      - 1.1651968473622114e-02
      - -2.0027514383590010e+00
      - 1.2398743055665408e-02
      - -2.0429881265888681e+00
      - 1.0436722607765047e-02
      - -1.7050374326947588e+00
      - 9.2874454625213911e-03
      - -1.4126867937456644e+00
      - 8.9734789754653908e-03
      - -1.2562870565651547e+00
      - 8.6244647591317142e-03
      - -9.9807645147046897e-01
      - 8.9646113134761313e-03
      - -8.1172421012261253e-01
      - 8.8567992777144854e-03
      - -8.6111285358445488e-01
      - 8.6753989031230667e-03
      - -8.7177431120549775e-01
      - 8.8297883497543330e-03
      - -7.4927061139343920e-01
      - 9.8241883461023215e-03
      - -6.6500398733259281e-01
      - 1.6640414535593902e-02
      - -4.2373627013851617e-01
      - 1.1311848686403975e-02
      - -9.2703293282386856e-01
      - 1.2022193950557850e-02
      - -1.7888738355716971e+00
      - 1.2776737250068729e-02
      - -2.2356248107322640e+00
      - 1.1658489363494753e-02
      - -2.0514777533549520e+00
      - 1.3026354139224606e-02
      - -2.3596310069338284e+00
      - 1.0986500376025147e-02
      - -1.8491326466219464e+00
      - 9.9854950555320014e-03
      - -1.6254959451112450e+00
      - 9.5084059387936133e-03
      - -1.3724931191413401e+00
      - 8.4546340042526476e-03
      - -1.0719268112534608e+00
      - 8.9976665844433285e-03
      - -8.6516848812558045e-01
      - 9.3134374537349549e-03
      - -7.6736072163451929e-01
      - 8.8355200415486390e-03
      - -8.2580556959759954e-01
      - 8.5308110298896889e-03
      - -8.8344672796440959e-01
      - 8.5869730454927358e-03
      - -8.3436754758704423e-01
      - 9.8268627740050237e-03
      - -6.8928423171949516e-01
      - 1.5025443337051409e-02
      - -3.6651349282878970e-01
      - 1.2138762418261513e-02
      - -9.7124550253732889e-01
      - 1.2105167651275221e-02
      - -1.8726982574800179e+00
      - 1.1710371730555787e-02
      - -2.0313312676896236e+00
      - 1.1862485798639390e-02
      - -2.0547520044071801e+00
      - 1.1913725972091525e-02
      - -2.1097223075578744e+00
      - 1.2492106958820448e-02
      - -2.4975290984098879e+00
      - 1.0580572076426056e-02
      - -1.9204997910627153e+00
      - 8.9412806294777991e-03
      - -1.3560942288041329e+00
      - 8.5440936991380764e-03
      - -1.1026966641947129e+00
      - 8.4422834100974231e-03
      - -8.7086173510112108e-01
      - 8.8136438406308561e-03
      - -8.3288934293961592e-01
      - 8.6212401141857447e-03
      - -8.3769716442838160e-01
      - 8.5577860611170935e-03
      - -8.5689926857209375e-01
      - 9.1425341792019804e-03
      - -7.7755076400260659e-01
      - 9.8493832425790399e-03
      - -7.5336056349488489e-01
      - 1.3355855880868711e-02
      - -4.1069256833671286e-01
      - 1.3279439806656995e-02
      - -1.5737717056579807e+00
      - 1.2323561290946980e-02
      - -2.1060085991850466e+00
      - 1.1745204903478024e-02
      - -2.1475547870537972e+00
      - 1.1695241664876489e-02
      - -2.0831453070224053e+00
      - 1.1194278449514896e-02
      - -1.9903160552798209e+00
      - 1.1770296990818697e-02
      - -2.2967492616251102e+00
      - 1.0713379398939337e-02
      - -1.9146339468675873e+00
      - 9.0389746296195787e-03
      - -1.3278684158274476e+00
      - 8.6550701379395859e-03
      - -1.1693617975651949e+00
      - 8.6217309579298042e-03
      - -9.7415295859180684e-01
      - 8.6627838148741095e-03
      - -9.1227363840924258e-01
      - 9.2661666611812601e-03
      - -8.0968646777464814e-01
      - 9.5144306925533089e-03
      - -7.2253039747378045e-01
      - 9.3042532487210994e-03
      - -8.2386947219032791e-01
      - 8.5933769145947834e-03
      - -9.0158846128956938e-01
      - 1.2428892314806331e-02
      - -6.3579702710384289e-01
      - 1.3230101454305709e-02
      - -1.5622544800625990e+00
      - 1.2127492657821566e-02
      - -1.9769256781375084e+00
      - 1.1700804993525257e-02
      - -2.0181102707880232e+00
      - 1.1027067285816705e-02
      - -1.9204162776691973e+00
      - 1.0487960586142238e-02
      - -1.7356326203328960e+00
      - 1.0107939738604414e-02
      - -1.7297813540766482e+00
      - 1.0230490254661186e-02
      - -1.7229850670558546e+00
      - 8.7636691371604548e-03
      - -1.2501791341737347e+00
      - 8.7826405241605756e-03
      - -1.3306745946546625e+00
      - 9.1732438494005267e-03
      - -1.2789030800039234e+00
      - 8.6845343352201093e-03
      - -1.2003267099036365e+00
      - 8.8487663566766839e-03
      - -1.2177587986093150e+00
      - 8.9035990954330034e-03
      - -1.2553014772287270e+00
      - 8.8336470212858047e-03
      - -1.3359839495049388e+00
      - 8.8208075885196947e-03
      - -1.3527338494679846e+00
      - 8.9956858819806636e-03
      - -1.3311473275359482e+00
      - 1.2642141466931326e-02
      - -1.3230603051880152e+00
      - 1.2263548933577952e-02
      - -1.9691755716202313e+00
      - 1.1121951294316567e-02
      - -1.8720627303612138e+00
      - 9.8258250211389724e-03
      - -1.4089531235668920e+00
      - 1.0235897699223737e-02
      - -1.8185778245620838e+00
      - 9.7917743879418935e-03
      - -1.6923450067159573e+00
      - 9.6413400267312266e-03
      - -1.6305342430921881e+00
      - 9.6451138126380283e-03
      - -1.6336985634073080e+00
      - 9.8055895548376966e-03
      - -1.5683106627291008e+00
      - 9.7208544898735351e-03
      - -1.3896192942190646e+00
      - 1.0055463137210431e-02
      - -1.6419134808330746e+00
      - 1.0088631465800791e-02
      - -1.8045439020673439e+00
      - 1.0351823126562808e-02
      - -1.9473751076898274e+00
      - 1.0680756366942058e-02
      - -2.0246390908430758e+00
      - 9.7562396966445891e-03
      - -1.6913138388397442e+00
      - 9.4264824814980011e-03
      - -1.4933119331106415e+00
      - 1.2162381618722209e-02
      - -1.6643640084191880e+00
      - 1.2540143734994730e-02
      - -2.2024373871711576e+00
      - 1.0978299965128465e-02
      - -1.9870722936882523e+00
      - 1.0886644211008392e-02
      - -2.0737761192898247e+00
      - 1.0579359855470130e-02
      - -1.9128490176771469e+00
      - 9.8126676354275133e-03
      - -1.6824052295884173e+00
      - 9.8391277421192077e-03
      - -1.5708635970185796e+00
      - 1.0727356613314037e-02
      - -1.5758997691463716e+00
      - 1.0564358002326911e-02
      - -1.3628021823001715e+00
      - 1.1007916971404502e-02
      - -1.3392965648542143e+00
      - 1.0702859290025374e-02
      - -1.4066615066890491e+00
      - 9.6067460062664121e-03
      - -1.4932771738550066e+00
      - 1.0495469313040604e-02
      - -1.7188829921368998e+00
      - 9.7835134629039467e-03
      - -9.6251137211235971e-01
      - 9.0000708815771539e-03
      - -1.0010435981735162e+00
      - 9.3441138923608565e-03
      - -8.8746834087208237e-01
      - 1.0591018195293579e-02
      - -1.5370845573669527e+00
      - 1.1505416247007119e-02
      - -1.9151039281625422e+00
      - 1.2204914214442418e-02
      - -2.3420358597928255e+00
      - 1.1171489007000469e-02
      - -2.0640655879600867e+00
      - 1.0953138342399582e-02
      - -2.0915278453820156e+00
      - 1.0881410362293654e-02
      - -1.8151228809102222e+00
      - 1.0399699936905095e-02
      - -1.7928339855514606e+00
      - 1.0899750521383438e-02
      - -1.4892432944514014e+00
      - 1.1109230983647871e-02
      - -1.4422162366271434e+00
      - 1.0675731411004105e-02
      - -1.0527033723493691e+00
      - 9.7427063552601931e-03
      - -9.9642369402428943e-01
      - 9.3371531832500305e-03
      - -9.8006761448470847e-01
      - 1.0026216469286437e-02
      - -7.9171302191401105e-01
      - 1.1003631733078023e-02
      - -7.8427075221354903e-01
      - 9.5782578706977619e-03
      - -7.9317097319730512e-01
      - 1.1869084641376690e-02
      - -6.1041006727080127e-01
      - 1.0397762105324466e-02
      - -1.4265977174269582e+00
      - 1.0942845698018998e-02
      - -1.7212835739038692e+00
      - 1.1800967561659029e-02
      - -2.0061644854820351e+00
      - 1.0688743232110127e-02
      - -1.8408815278444906e+00
      - 1.0658041209116974e-02
      - -1.6389275987876659e+00
      - 1.0732520381666083e-02
      - -1.7869646435474029e+00
      - 9.5011486293359714e-03
      - -1.4540150670251655e+00
      - 9.5722804283906032e-03
      - -1.0955702861731815e+00
      - 9.5300901229274041e-03
      - -1.0888127965444558e+00
      - 8.7080157273045217e-03
      - -1.0384308754810643e+00
      - 9.1240922179959185e-03
      - -8.4321818914645619e-01
      - 9.2080059128721980e-03
      - -7.9309431880512327e-01
      - 8.8562929765873752e-03
      - -8.1730932326792072e-01
      - 9.3789900527829519e-03
      - -6.5954397906891538e-01
      - 1.1121965625187111e-02
      - -5.1637697545511596e-01
      - 1.6707225407096255e-02
      - -3.2240967124884556e-01
      - 1.0304775896873668e-02
      - -1.4380069412280134e+00
      - 1.1585680111372705e-02
      - -1.7317833271237584e+00
      - 1.0939150388985453e-02
      - -1.6510303408518758e+00
      - 1.0377706162539708e-02
      - -1.5470194829443122e+00
      - 1.0473308094514897e-02
      - -1.4687567780164938e+00
      - 9.2462649357598053e-03
      - -1.2385592030615398e+00
      - 9.3484659167974854e-03
      - -1.2238699962740707e+00
      - 9.4656990455566081e-03
      - -1.1248405699136435e+00
      - 9.7532520096076779e-03
      - -9.2063732362118189e-01
      - 9.1886662326318164e-03
      - -8.6668812572787957e-01
      - 9.3788305118555643e-03
      - -8.6396893453259949e-01
      - 1.0078536638214532e-02
      - -7.1389634520686263e-01
      - 1.2561427010565110e-02
      - -5.7139538818296765e-01
      - 1.4584155587868393e-02
      - -3.8700098577807912e-01
      - 1.7164757430801508e-02
      - -2.9323127277619243e-01
      - 8.4263864103521477e-02
      - -2.6783871090047895e-01
      - 1.0682120385492705e-02
      - -1.5133003879447997e+00
      - 1.1349435311403477e-02
      - -1.6403987394732096e+00
      - 1.1025890810166753e-02
      - -1.5169788106321092e+00
      - 1.0873437118686763e-02
      - -1.2205433165725892e+00
      - 1.0359663181285969e-02
      - -1.1970344147328764e+00
      - 1.1255299825524322e-02
      - -9.7787116817472031e-01
      - 1.0740449215566630e-02
      - -8.8902789756946154e-01
      - 1.0216431962261118e-02
      - -8.6559936042157593e-01
      - 9.9855577784259703e-03
      - -7.6686706224554690e-01
      - 1.6045299025672248e-02
      - -5.3694447096624631e-01
      - 1.3352064255863588e-02
      - -4.6605062378800044e-01
      - 1.5189319366770194e-02
      - -3.6400118911081430e-01
      - 4.5999879798090199e-02
      - -3.5649906843519902e-01
      - 2.5440929206929901e-02
      - -2.5864944693712066e-01
      - 1.0884518788298782e-01
      - -2.6174676133766117e-01
      - 1.1702388187643983e-01
      - -2.3962032955651963e-01
      - 1.2394369249109038e-02
      - -1.9221600977159934e+00
      - 1.1749086607139062e-02
      - -1.5717200738621624e+00
      - 1.1301319919512188e-02
      - -1.4536995444086809e+00
      - 1.2426287443367460e-02
      - -1.1433663767831796e+00
      - 1.2150797218415534e-02
      - -8.4881997711502799e-01
      - 1.1880135861586281e-02
      - -8.0487920462247053e-01
      - 1.2977187891912630e-02
      - -6.6940660875782654e-01
      - 1.3692280961806132e-02
      - -5.3073889061477098e-01
      - 1.6520446160589515e-02
      - -4.2225473698554394e-01
      - 2.2421420795909162e-02
      - -3.3605439026249562e-01
      - 2.3205153893990863e-02
      - -3.2404339901965812e-01
      - 4.9567650536928208e-02
      - -2.6141034747451425e-01
      - 2.5598429138194538e-02
      - -3.0200051518989030e-01
      - 3.2977775357598195e-02
      - -2.0297035547474129e-01
      - 1.0958822504730759e-01
      - -2.6483821053099332e-01
      - 1.2892112013020085e-01
      - -2.5477268978111123e-01
   output_scale:
      - 1.
      - 0.
      - 5.2631578947368418e-01
      - 4.9999999999999994e-01
      - 5.2631578947368418e-01
      - 4.9999999999999994e-01
      - 1.
      - 0.
      - 1.
      - 0.
      - 1.
      - 0.
      - 1.
      - 0.
      - 1.
      - 0.
      - 1.
      - 0.
      - 1.
      - 0.
      - 1.
      - 0.
      - 5.2631578947368418e-01
      - 4.9999999999999994e-01
      - 1.
      - 0.
      - 1.
      - 0.
      - 1.
      - 0.
      - 1.
      - 0.
      - 1.
      - 0.
      - 1.
      - 0.
      - 1.
      - 0.
      - 1.
      - 0.
      - 1.
      - 0.
      - 1.
      - 0.
      - 1.
      - 0.
      - 1.
      - 0.
      - 1.
      - 0.
      - 1.
      - 0.
   inv_output_scale:
      - 1.
      - 0.
      - 1.8999999999999999e+00
      - -9.4999999999999996e-01
      - 1.8999999999999999e+00
      - -9.4999999999999996e-01
      - 1.
      - 0.
      - 1.
      - 0.
      - 1.
      - 0.
      - 1.
      - 0.
      - 1.
      - 0.
      - 1.
      - 0.
      - 1.
      - 0.
      - 1.
      - 0.
      - 1.8999999999999999e+00
      - -9.4999999999999996e-01
      - 1.
      - 0.
      - 1.
      - 0.
      - 1.
      - 0.
      - 1.
      - 0.
      - 1.
      - 0.
      - 1.
      - 0.
      - 1.
      - 0.
      - 1.
      - 0.
      - 1.
      - 0.
      - 1.
      - 0.
      - 1.
      - 0.
      - 1.
      - 0.
      - 1.
      - 0.
      - 1.
      - 0.
   weights:
      -
         - 1.3890073879815244e-02
         - 2.5688296378338429e-02
         - -1.6801964430412618e-04
         - 4.7994444821769934e-02
         - 1.2563807786334985e-02
         - 1.3900464592565373e-03
         - -1.7695904422366585e-03
         - 1.5741806480162556e-02
         - 5.5151308939242687e-02
         - -1.3563653260047879e-02
         - 2.4696575929903843e-03
         - -4.1229828724859922e-03
         - 7.8791068983977905e-03
         - 4.6968320428366281e-02
         - -4.7974319824864806e-03
         - -1.1890015730814763e-04
         - -5.8857656139464599e-03
         - -7.3361280774288081e-03
         - 2.3373400129479339e-02
         - -4.1308509267367552e-03
         - -5.9589291881889106e-03
         - -5.0486697846496981e-03
         - -1.0319338845197635e-03
         - 2.4408647572703682e-02
         - -1.0050984836132324e-02
         - 1.6175333591714541e-03
         - -1.0498488128539310e-02
         - -4.1641429195764549e-03
         - 9.8916999023872156e-04
         - -1.8427683008677325e-03
         - -1.6558518793088450e-03
         - 8.3415811319101450e-03
         - 2.5963899815992131e-03
         - 3.2320550975776523e-03
         - 4.8395479518318742e-03
         - -7.7713242210624019e-04
         - 1.8956240536929670e-03
         - -1.4608824313894300e-03
         - 5.7172316724545700e-03
         - 4.1751452728805297e-03
         - 5.5032516964933064e-03
         - 1.7001436641846314e-02
         - -3.0771931838274400e-03
         - -2.0731414226174156e-02
         - 6.0239408948847559e-03
         - -6.7894890409767007e-04
         - 8.5966704831604204e-03
         - 2.9296764363304518e-02
         - 9.6857753405141522e-03
         - -1.1255923841947625e-03
         - -9.4721999862879772e-03
         - -8.9841093605427195e-03
         - 7.5658454608628668e-04
         - -1.2376790190628444e-03
         - 1.0950599800922365e-03
         - -2.7152302693904573e-03
         - -3.1559374339717471e-03
         - -9.6264938504751051e-03
         - -1.2046576265997718e-02
         - 6.6919341046398559e-03
         - -2.7685831683450122e-03
         - -7.9675526570536382e-03
         - 1.0234395247884795e-03
         - 2.1856977914738699e-03
         - 5.4841122249870101e-03
         - 9.2280815863285718e-04
         - 1.2207453116703721e-03
         - -1.3121632143789023e-02
         - -6.1214424977085059e-03
         - -1.6435388468642117e-03
         - -9.3356683020810217e-03
         - -1.2660878726181395e-02
         - -4.0389093710417809e-03
         - -3.4409309641464146e-03
         - -5.0169280765987763e-03
         - -6.6605775136936501e-03
         - 2.3667749478349896e-03
         - -8.8622472561094966e-03
         - -2.9200795902984165e-02
         - 2.1457516330953171e-03
         - -4.5906221311998133e-02
         - -6.4700299730599500e-02
         - 8.0925893489224524e-03
         - 3.6690601912274863e-02
         - -2.0709905396987891e-02
         - -8.7349773338828551e-03
         - -2.2280814084286785e-02
         - -9.2344622064775686e-02
         - -6.1809430192360598e-02
         - 1.0529426264629948e-02
         - -1.3572267009382208e-02
         - -1.9967041283538770e-02
         - -3.3425954058544640e-03
         - -6.0244038569938693e-03
         - -5.4054714230712111e-03
         - -5.8726948659045012e-03
         - -3.0392633846602722e-04
         - -1.7930860684178498e-02
         - -5.0938311455056236e-02
         - 1.0909846237502054e-02
         - 1.6229532504574359e-02
         - 2.3938254002759028e-02
         - -3.5633164396076228e-03
         - -5.7407501952166512e-02
         - 1.1405413739459963e-02
         - -2.2180182382230189e-04
         - 1.2732459331162148e-02
         - 4.1421668016844347e-02
         - -1.5341871460821286e-02
         - 1.5353364404729344e-03
         - 5.2278649067080963e-05
         - -8.3981210015218102e-03
         - 1.7030252154126150e-03
         - 2.5025386259441607e-02
         - -7.3445702985241376e-03
         - -5.8646223987381674e-03
         - -4.3802456714114754e-04
         - -1.6456868078751376e-02
         - 4.9959238858640689e-03
         - -9.9219054323780673e-03
         - -2.2887756126750609e-02
         - -2.8577541977686263e-02
         - 4.2547205898923581e-03
         - 3.3410713620492388e-02
         - -4.7721575437693082e-03
         - -1.5379574849095816e-03
         - -1.8380712741078286e-02
         - -5.6826968712917134e-02
         - -2.9923841501530509e-03
         - -6.3268386613449874e-04
         - 5.3692815463835730e-03
         - 1.3922460708553904e-02
         - -9.6998269744826005e-04
         - 1.2968428983019363e-02
         - 9.6375879031313037e-03
         - -1.3226040436434762e-03
         - -1.4374242529949066e-03
         - 1.7423661220735766e-02
         - 2.2752080143188132e-02
         - -4.2812680028213564e-03
         - 1.2559865653658565e-03
         - 3.9460159491327340e-03
         - 5.4921586904640831e-03
         - 4.0398869406749367e-02
         - 3.1348992161833985e-03
         - 1.2050339805050698e-03
         - -9.0699766769561704e-03
         - 1.2784613089592222e-03
         - 2.2219309832983189e-02
         - -7.9204488535552075e-03
         - -1.6522076434922487e-02
         - -1.6325559089647890e-02
         - -1.1490298958525390e-03
         - 1.2295725512561612e-02
         - -4.8694917528527906e-03
         - -3.6389524320836098e-03
         - -6.9826673376549955e-04
         - -2.7830649400228297e-02
         - -2.2054026933080173e-02
         - 2.6585075907941667e-03
         - -1.8616503682738317e-02
         - -3.2740492749566308e-02
         - -3.8318040032164977e-03
         - 1.5710659844376418e-02
         - -9.8472575660257973e-03
         - -1.0072548592922075e-02
         - -3.3217897348388030e-03
         - -3.7100387908567761e-02
         - -2.8626458429907211e-02
         - -3.2121521617818421e-03
         - 2.5529166604999112e-02
         - 4.1275452462497225e-02
         - 5.5541923480535386e-03
         - 2.1572987544912790e-02
         - 7.3494721272166184e-03
         - 1.8328131736970279e-03
         - -6.2326579436177733e-03
         - 4.8483831598437804e-02
         - 6.7194434418302085e-02
         - -1.1189860418948467e-02
         - -1.5903099276875620e-02
         - -2.8126634834946634e-02
         - 5.5457590985103587e-03
         - 1.2818362733719960e-02
         - -2.6281842356728801e-03
         - -1.0829613467511837e-03
         - 1.1302378815696160e-03
         - -3.1558345855246216e-02
         - -2.5369546892997585e-02
         - 4.1447876937472858e-03
         - 2.1424691812013424e-02
         - 3.8473363824687155e-02
         - 1.3245090047516921e-03
         - -1.6620350459350782e-02
         - 1.2218866100460628e-02
         - -4.4114823723111054e-05
         - 7.5134164151217679e-03
         - 6.0028884730861265e-02
         - 4.1955292596569410e-02
         - -2.6894712286034297e-03
         - 8.8393758961552733e-03
         - 9.4317516250364813e-03
         - 5.9620081181628668e-04
         - -4.9121407995493631e-03
         - 4.2847322991659683e-03
         - -5.1968815363460192e-03
         - -8.8015219279544386e-03
         - 1.1363311914573092e-02
         - 7.6011022995151264e-03
         - -6.5554836419561722e-03
         - -3.3236030036580193e-03
         - 5.5485581234151300e-03
         - -6.7269467521740862e-04
         - 1.9364078399270419e-02
         - 3.0047533291411924e-03
         - 3.9534049816499738e-03
         - -3.5640963355414332e-05
         - 1.5934734376551452e-02
         - 2.9627979847307306e-02
         - 6.9855071719431190e-04
         - -2.2435453191130536e-02
         - -2.7464818669321479e-02
         - 2.6980431617630966e-03
         - -7.4517632895066506e-03
         - -1.1370832819666018e-02
         - -2.9081361550231466e-03
         - 2.6729273865341518e-03
         - -4.0379566558527487e-02
         - -5.6275424547229974e-02
         - 8.2832766911046067e-03
         - -1.4855653646550946e-02
         - -2.5156211167846932e-02
         - -1.4373441557279426e-03
         - 1.1583818168141295e-02
         - -2.2968731697706381e-03
         - -4.8584301377404418e-03
         - -1.4591323996055434e-02
         - -3.1471734252011871e-02
         - -1.9057034206753684e-02
         - -2.3967905984944209e-03
         - -5.0313684602173005e-03
         - -1.0716739422266433e-02
         - 6.4271704829906170e-04
         - 2.0081357204114546e-02
         - 3.8603719592351878e-03
         - -5.8355273797047703e-03
         - -3.4099162176024289e-03
         - -2.0203095384960401e-02
         - -1.2754984603337809e-02
         - -3.5684524268361144e-03
         - -5.2171841531941914e-03
         - -1.8034674671603206e-05
         - -3.9295038205155114e-03
         - -2.9932558072707467e-02
         - -6.1075524262566546e-03
         - 6.3648378754515332e-03
         - 5.5970417281383565e-03
         - 2.8340511727176169e-03
         - -2.0945070669836273e-02
         - 1.0178779228340666e-05
         - -2.0917621713518519e-02
         - -2.2309443721490255e-02
         - 1.5578787231671463e-03
         - -2.6183014019031071e-03
         - -3.2063645279378247e-03
         - -4.1062803213041121e-03
         - -7.1393125234642625e-03
         - -3.2067620286621835e-02
         - -4.4238102966718477e-02
         - 7.9967374605200616e-03
         - -2.3986217308381453e-02
         - -2.5832149638018994e-02
         - 2.5253533187439814e-03
         - 2.1944137971328739e-02
         - -3.9804217774563186e-03
         - -6.8373003852290851e-04
         - -9.7733877645142068e-03
         - -2.8388201427362626e-02
         - -2.3881900588338972e-02
         - 7.4161946725781729e-04
         - -5.8760889628840171e-03
         - -1.8948238707538378e-02
         - -3.7435886114937779e-03
         - -1.5184389821838663e-02
         - -8.3519953919309470e-04
         - -4.6580971508647928e-03
         - 5.1588680984603909e-04
         - -2.1121528355042933e-02
         - -3.9320888277222368e-02
         - 1.1701887351571379e-02
         - -1.1925971020685596e-02
         - -1.1993300432582165e-02
         - -6.2685289578924804e-03
         - -1.4657708048026663e-02
         - -3.4008208215905513e-04
         - -7.3299539076448162e-03
         - 3.8723762453121719e-03
         - -1.8485593020927595e-02
         - -3.3566776939224406e-02
         - 4.5520545366183164e-03
         - -2.9378785809842305e-02
         - -4.1253468433758961e-02
         - -1.2926509950480307e-03
         - -1.9899378465585559e-02
         - -5.2589392258822450e-03
         - -7.5094729920793767e-03
         - 6.7855466440653800e-03
         - -4.3871232540659562e-02
         - -6.8427533970224427e-02
         - 1.3832917914664213e-02
         - -4.4651617711932733e-02
         - -6.5640965377524563e-02
         - -1.8060539546474458e-04
         - 3.4026262408824441e-02
         - -1.7037167874332248e-02
         - -9.6096179439442691e-03
         - -1.7855948640205416e-02
         - -9.6254461292648114e-02
         - -8.1898373539692676e-02
         - 1.3076188402029641e-02
         - 1.4901722488905202e-02
         - 2.8753786930142692e-02
         - 1.3269377974225109e-03
         - 1.4036892176130212e-02
         - 7.6981582680276080e-03
         - 1.2879693937432074e-02
         - -3.9053628969652663e-03
         - 3.1991237072114966e-02
         - 4.5595542951324654e-02
         - -7.3881253027626992e-03
         - 6.2197929240979059e-03
         - 1.8738288930423173e-03
         - 4.2543342715617829e-03
         - 5.1594139303566509e-02
         - 5.9516403756437724e-03
         - 3.9538993949434142e-03
         - -1.4778506631885704e-02
         - -5.9332478565908989e-03
         - 4.2840012154092916e-02
         - -4.5639730114890725e-03
         - 1.9657842747968002e-02
         - 2.2790922070502657e-02
         - 1.7805820383683362e-03
         - 3.1516378499456862e-02
         - 4.0825952854488638e-03
         - -1.6273779464890286e-03
         - -6.7509117851885167e-03
         - 2.5206558845763720e-02
         - 6.1312663351243551e-02
         - -1.4315862597802710e-02
         - -7.2570536540810830e-03
         - -3.5473764248700407e-03
         - -3.5196729501228767e-04
         - 4.1692741548183608e-02
         - 9.4411797911581876e-04
         - 2.5906624270979586e-03
         - -1.2026313911979981e-02
         - -1.1358064298045829e-02
         - 9.4332206779609677e-03
         - 2.1483113991814635e-03
         - 1.8996230242710035e-02
         - 3.1402939861710298e-02
         - 5.2601593846797563e-03
         - 8.0370992753392399e-03
         - 1.2157984504292913e-02
         - 6.2452291380062910e-03
         - 6.7521784296346579e-03
         - 4.5922673289381280e-02
         - 3.9992743722355679e-02
         - -8.9700993016951572e-03
         - 1.8006276689424304e-02
         - 1.8793758727669686e-02
         - -3.1527854070241063e-04
         - 9.4694009405029873e-03
         - -2.8984605470015507e-03
         - 3.4920717894776406e-03
         - 3.8306643533759290e-04
         - 3.0270088425146679e-02
         - 3.2733382240718853e-02
         - -3.3166435597849417e-03
         - 1.5579297399901599e-03
         - 5.2192850477834831e-04
         - -4.7914398216457408e-04
         - 1.3605616830822833e-02
         - 3.7911141692622942e-03
         - 3.3538290466887167e-03
         - -3.3632781525376172e-04
         - -1.4150688118797004e-03
         - 3.4790782701642196e-03
         - 7.3099058288588993e-03
         - -4.8265391452238819e-03
         - -1.1824633679368753e-02
         - 3.8484891565253158e-03
         - 3.7626870824204774e-02
         - -1.1298387160153533e-02
         - -9.3444251663166722e-03
         - -9.2311717923595146e-03
         - -1.8550794290624711e-02
         - 1.4072547026057440e-04
         - 2.9714416811907271e-03
         - -2.2516867233609763e-02
         - -2.3878326867964952e-02
         - 1.7351571709795770e-03
         - 2.0176532348116588e-02
         - -5.5696009733969118e-03
         - -4.4155369722519017e-03
         - -1.4546462323408629e-02
         - -3.8495554928669858e-02
         - -3.1882501781023125e-03
         - 2.5801663700458031e-03
         - -2.2148149671327548e-02
         - -3.3932958226373031e-02
         - -8.5309329438135835e-04
         - 4.3245349217134656e-03
         - -5.0604030181118651e-03
         - -1.8173952161371055e-03
         - -1.1186361257054526e-02
         - -4.2575095845517108e-02
         - -3.6088411274360271e-02
         - 2.4509524974575814e-03
         - -8.6152166217383919e-03
         - -9.4932187936967258e-03
         - -2.2116395595143125e-03
         - -2.1847940912688078e-02
         - -1.5644656863485458e-03
         - -8.9374099189398967e-03
         - 8.6005940628432979e-03
         - -1.7457685477269544e-02
         - -4.0107668281209395e-02
         - 6.7343800861609090e-03
         - 1.2419510913938982e-02
         - 1.4388798383303160e-02
         - 9.1673024468358873e-05
         - -1.6066611833294529e-02
         - -2.0139737359937868e-03
         - -1.9512117635949908e-03
         - 7.9839940356286263e-03
         - 1.9389385160790001e-02
         - -1.3456207175509598e-02
         - 4.3861951946892680e-03
         - -1.3056137930153436e-02
         - -1.1755782118294086e-02
         - -2.3409056763043913e-04
         - -1.9184879679862267e-03
         - 2.9857690498928933e-03
         - -6.5224222603236636e-03
         - -4.3364929076921558e-03
         - -1.1143360946367397e-02
         - -8.2077310124045837e-03
         - 8.2061085549127791e-03
         - 7.6311595856014651e-03
         - 1.4488259062786367e-03
         - -5.2405405273544840e-03
         - -6.6205785022223481e-04
         - -1.9533317470518934e-03
         - -3.4020957109586825e-03
         - 2.3159386655154336e-03
         - 4.2135691789244633e-03
         - -2.1900035218286065e-02
         - -3.8907361451427533e-04
         - 1.1541573735736280e-02
         - 1.6166628767987971e-02
         - -1.7780408207497308e-03
         - -2.9942756091517329e-02
         - 8.6244439093679723e-03
         - 5.4818888230633185e-04
         - 9.1519494839122691e-03
         - 1.9516446802061549e-02
         - 1.1812593326142591e-03
         - 8.0826452977069904e-03
         - -9.1273979393596111e-04
         - -1.1930577879501628e-03
         - -3.1976000294488727e-03
         - -1.7829213198735875e-02
         - -5.8262620629282334e-03
         - 2.2187198197769699e-03
         - -2.2478432541839870e-03
         - 6.8263646369939529e-03
         - -2.1473657097030676e-03
         - 2.6554144651405793e-03
         - 3.5745409093879674e-02
         - 4.2172083261573748e-02
         - 8.1012097965945853e-03
         - 2.7000520303951728e-02
         - 1.2351016218515136e-02
         - 9.6368341937629835e-03
         - -6.1469830127822605e-03
         - 5.7626051349929854e-02
         - 8.0141108768473884e-02
         - -2.0413619360542864e-02
         - 1.5204487659511497e-02
         - 2.1278500147380315e-02
         - 2.2830354483990459e-03
         - 1.0808578465351418e-02
         - 3.8675945662273638e-03
         - -4.5576957373735690e-03
         - 4.0890261157163583e-03
         - 2.9877419929323870e-02
         - 2.8712620578202667e-02
         - -7.2842622148220799e-03
         - 2.5659929022911383e-02
         - 4.4857684586288922e-02
         - 2.8154503379334119e-03
         - -3.1060614703138440e-02
         - 1.3724007368596216e-02
         - 4.2163870458501174e-03
         - 4.5262705056259541e-03
         - 4.9277587152040156e-02
         - 5.2050983921152330e-02
         - -8.6996473374460429e-03
         - 1.6777293383230304e-02
         - 1.7111742388453807e-02
         - 3.3808275977828539e-03
         - 2.8679033482713564e-03
         - 7.6195609245467083e-03
         - 1.2433519602425074e-03
         - -3.9212103220469634e-03
         - 3.4134903869147581e-02
         - 2.3340893769851313e-02
         - -7.0992514565711741e-03
         - 3.7356486913457565e-03
         - 5.8398132664453277e-03
         - 4.6875854450663503e-03
         - 6.4588187665054796e-03
         - -8.7430313240839108e-03
         - 3.2231366538015265e-03
         - 6.7410618261972105e-04
         - 7.9113292244594909e-03
         - 3.3582120197823955e-03
         - 3.9652120274532195e-03
         - 1.6039382972438964e-02
         - 2.4017682758201445e-02
         - -2.9384338857307616e-03
         - -1.2057322565831703e-02
         - 3.8201622481477638e-03
         - 7.9760501448708152e-03
         - 6.6953779217991281e-04
         - 3.9643234579525358e-02
         - 8.5881194916819469e-03
         - 3.8765558035523374e-03
         - 1.7991085263491708e-02
         - 3.8052419362080592e-02
         - -5.7252622775460834e-03
         - 3.1522436093929023e-03
         - 8.1829429124729985e-03
         - 6.7323366841261813e-03
         - 5.5982083699997387e-03
         - 5.3904745344028997e-02
         - 4.8634732237035030e-02
         - -6.4759872625641743e-03
         - 7.4238995644212782e-03
         - 1.7140504346448576e-02
         - -4.5268456246336469e-04
         - 1.6794540601255915e-03
         - 7.1941440332446366e-03
         - 3.7107238724600499e-03
         - 2.7707870426757391e-03
         - 1.0412150232245915e-02
         - 1.7729205050061651e-02
         - -1.1097077241606813e-02
         - 4.1914642290697855e-03
         - 7.3185321832552981e-03
         - -3.1035337537575784e-03
         - -2.3406241943037802e-02
         - 6.8042215644722424e-03
         - 1.7332448167519630e-03
         - 5.8818803268073190e-03
         - 1.6182733602236609e-02
         - 6.8970520701369014e-04
         - -4.1785389178527316e-04
         - -1.1591287450457852e-03
         - -8.2406888791981808e-03
         - 6.7591736682646427e-03
         - -7.5571934096874257e-04
         - 4.7912721244310270e-04
         - -3.7158136336342580e-03
         - 5.0335820572338747e-03
         - -3.2826762863616466e-03
         - -1.4595802506541145e-03
         - 3.7227049953207064e-03
         - 5.9454045442326429e-03
         - 4.8283033145969777e-03
         - -6.6705980454860323e-03
         - -2.4846996855339792e-02
         - -4.6024309169373648e-03
         - 4.3075719808173705e-03
         - 5.4252409102073743e-03
         - 8.9067617661073230e-04
         - -3.1649025643965441e-02
         - 4.9083002630013585e-03
         - -4.6651599172577041e-03
         - -7.1331478510760910e-03
         - 2.2178599458738978e-03
         - -2.6339500667074578e-02
         - 9.5910780902780639e-04
         - 1.7574010168220149e-03
         - 2.2827763940574653e-03
         - -1.2777760665985531e-02
         - -1.7891279492338912e-02
         - 3.8844104691599843e-03
         - -8.9888262781185526e-03
         - -2.7080675858616052e-02
         - -5.8074871122598890e-03
         - -3.5276974429822347e-02
         - -4.0466778346966220e-03
         - -9.1590659897276237e-03
         - 1.1492020078897915e-02
         - -1.4721921933352830e-02
         - -6.8526101751436058e-02
         - 1.9708003891373494e-02
         - 5.8521423369408947e-03
         - 1.9825894586854173e-02
         - 1.0155865541404839e-03
         - -3.7629636050968668e-02
         - 3.3504504591371303e-03
         - -1.2166091702586191e-03
         - 6.8682039872113871e-03
         - 2.7121800011286869e-02
         - -4.0582721348146533e-03
         - -4.0925338767586550e-03
         - 1.5112047642823772e-02
         - 2.7660492571997323e-02
         - -7.3859315954938262e-03
         - -6.7620588612479007e-02
         - 1.0020312036313482e-02
         - 1.4361073578820242e-02
         - 1.3006308561191589e-02
         - 4.7077647372906956e-02
         - -5.1508697403143382e-03
         - 5.2769692908907770e-03
         - 1.7177167265265747e-02
         - 2.3233032859357836e-02
         - -1.0651664605769284e-03
         - -2.7609823644802980e-02
         - 8.2462390677977247e-03
         - -3.1668261477085582e-03
         - 1.1646530154985634e-02
         - 2.7468161452562204e-02
         - 2.3049768812162551e-02
         - -6.3839451099607664e-03
         - 1.9396075900440450e-02
         - 3.0280935971246380e-02
         - -2.0848312651899040e-03
         - -7.9014745091059973e-03
         - 1.7116295641976056e-02
         - 6.6346578158293116e-03
         - 4.9284026833934860e-03
         - 3.8717174613181360e-02
         - 4.0604980713860470e-02
         - -5.2912117942457461e-03
         - -4.2036875206275518e-04
         - 3.7858995845371276e-03
         - 3.3021523175818628e-03
         - -5.5073457386534803e-04
         - 4.8067469320546797e-03
         - 2.3664931809553140e-03
         - 3.8930705252868941e-03
         - -2.0069672657453833e-03
         - -1.6851825157501439e-03
         - 1.8368672290240493e-03
         - -1.6904150695787974e-03
         - -9.5989480192079115e-04
         - 4.8753435793042563e-03
         - 2.7417072395399474e-02
         - 1.0813506849005328e-03
         - -1.0721949751144142e-04
         - -3.6777688681407347e-03
         - -1.9359729363638586e-03
         - 2.2237612853561781e-02
         - -1.4604575556599105e-03
         - 1.5016231685930834e-02
         - 2.2252300801203082e-02
         - -4.2173871035043851e-03
         - -2.9470483039432543e-02
         - 1.0154992846194038e-02
         - -1.8521228266606330e-04
         - 1.1661935598983078e-02
         - 3.6670338599880871e-02
         - 1.7488099165274856e-02
         - -3.8933863361401539e-03
         - 3.4543584863330222e-02
         - 4.8241698780853486e-02
         - -9.0258978012599869e-03
         - -4.5575177046684526e-02
         - 7.4743916026973577e-03
         - 9.2002035495315319e-03
         - 1.3241466316039450e-02
         - 8.0089022519062539e-02
         - 5.2663940713972519e-02
         - -8.3680632661303628e-03
         - -8.0362812649534444e-05
         - 2.2291865187980126e-03
         - 9.3082137569539002e-04
         - 4.1342471071303469e-03
         - 5.8469264706595696e-04
         - 2.3664776325857491e-03
         - -3.1316320767224466e-03
         - 1.2855932032112426e-02
         - 1.4442417459500503e-02
         - -1.1089924912216598e-03
         - 1.0881664067764326e-03
         - 5.8706454980911619e-03
         - 6.1486125084232127e-03
         - 7.0295520731555351e-03
         - -3.1965691896620888e-04
         - 1.6183167159541210e-04
         - -2.3309565230227791e-03
         - 5.7192683568649599e-03
         - 3.2165140750236382e-02
         - -1.1055898712350644e-02
         - -1.1099567728510664e-03
         - 1.2562896831570700e-03
         - -1.6813231703668788e-03
         - 1.4071478451208961e-03
         - -2.0786114727286623e-04
         - -1.9292186475807012e-03
         - 6.5162734244213216e-04
         - 1.4508656350877574e-02
         - -4.1427573321016226e-03
         - -5.3593696311274855e-03
         - 1.9377992644878751e-02
         - 2.5958546838637565e-02
         - -1.6043699564652407e-04
         - -7.7123281938581457e-03
         - 1.1668592299460585e-02
         - 1.0122579316985132e-02
         - 6.7675079138293931e-03
         - 3.8735755645973348e-02
         - 2.2428220990908521e-02
         - 2.2521845067450014e-03
         - -6.8648710872312576e-03
         - -1.2494186218836009e-02
         - -2.4138778059411893e-03
         - 1.1955418450740980e-02
         - 2.7977289940786645e-04
         - 4.7525148422004867e-03
         - 4.1402877882450555e-03
         - -1.4293301497799356e-03
         - 2.4470474700521733e-03
         - 3.4977842181117980e-03
         - 1.5722888419100866e-02
         - 2.8865418469580299e-02
         - 3.3633847773619895e-03
         - -2.4013238332167904e-02
         - 2.3281660464255192e-03
         - 1.9797949282905195e-03
         - 1.2871022525609097e-02
         - 4.2241431299249704e-02
         - 4.0117928411694093e-02
         - -7.9647083115956855e-04
         - 3.8969773094118610e-03
         - 1.0988032434477752e-02
         - -9.7000525467969157e-03
         - -1.8266020567935609e-02
         - 4.5368337472324761e-03
         - 6.4342183200939715e-03
         - 1.2007782792452825e-02
         - 2.4218610604214538e-02
         - -1.3404716707727169e-03
         - 8.5960587029284012e-04
         - 1.7429707333956695e-02
         - 2.8168514464345495e-02
         - -4.3796860212666306e-03
         - -6.1197517905330019e-02
         - 1.2482276868205699e-02
         - -2.1232986306194291e-03
         - 1.4405594457354617e-02
         - 3.4249662072686052e-02
         - -1.0657839899873107e-02
         - 1.8875160204793543e-04
         - -1.4307109316885877e-02
         - -9.1161027028856187e-03
         - -1.5746891352581453e-04
         - -9.9128269047979879e-03
         - 1.1987567670855457e-03
         - -3.2987057778497723e-03
         - 1.9300488246965738e-03
         - -1.7016360132293695e-02
         - -2.7430059175162478e-02
         - 6.9253519439189193e-03
         - 6.9245071867250390e-03
         - 7.6260089133363155e-03
         - -4.1543044722991557e-03
         - -4.0519282155107403e-02
         - 4.2733882171570852e-03
         - 5.4518843314315026e-03
         - 1.6336110730781870e-02
         - 1.4936474578593095e-02
         - -1.6493639945834082e-02
         - 1.7729500858794135e-03
         - 1.9451370482706447e-02
         - 3.0123079141497193e-02
         - -1.2981245425868747e-02
         - -7.6370189050643897e-02
         - 2.1285628325457811e-03
         - 9.8511593492160831e-03
         - 1.5951932029206851e-02
         - 5.3588582918397937e-02
         - -1.2543121467467994e-02
         - 6.1108651613057501e-03
         - -3.2904276421392153e-03
         - -1.4423352925748954e-03
         - 2.5105553806679961e-03
         - 1.9679709042009341e-02
         - -4.2460101689776675e-03
         - -2.5594933734853654e-03
         - 7.7491151850586472e-03
         - -4.9445635438616917e-03
         - 1.5613295042683549e-02
         - -6.2136416165699251e-03
         - 7.7221814176316721e-03
         - 1.6823373354793045e-02
         - -1.1611298477873870e-02
         - -3.3563545500123582e-02
         - 4.9925586521919474e-03
         - 3.9735773276883355e-03
         - 7.5380666118652481e-03
         - 3.1113486619932122e-02
         - 2.7736588053200771e-03
         - 9.5924278832934598e-03
         - 2.1742620874806492e-02
         - 3.6565501346266197e-02
         - -5.1667981605056784e-03
         - -4.6655129729613075e-02
         - 8.5494656988980081e-03
         - 5.3677278090804165e-03
         - 1.4703021614655011e-02
         - 5.7126410022918232e-02
         - 2.9385935639113285e-02
         - -2.6184500850889585e-03
         - 1.6246980458647548e-02
         - 2.8180934664336511e-02
         - -2.8150740527503964e-03
         - -2.0286990711257932e-02
         - 7.6031456603732131e-03
         - -1.2280364656689772e-03
         - 6.3723377466166327e-03
         - 4.1230063515525849e-02
         - 2.6470013679290628e-02
         - -8.5083464083598025e-03
         - -6.5820832899823609e-03
         - 6.3751178490978134e-03
         - -3.2959349383928139e-03
         - -2.3869795672402331e-02
         - 1.4471747777389827e-03
         - 3.2240182470156791e-03
         - 4.5169815877338319e-03
         - 1.4744588456499810e-02
         - -6.0793945655137765e-03
         - 5.4081075089512931e-03
         - 2.4553229738092999e-02
         - 4.5439800747105505e-02
         - -2.0638590402707281e-03
         - -2.5632396096918978e-02
         - 1.2730615070539060e-02
         - 1.0125259640359723e-02
         - 1.1778162605153611e-02
         - 5.4644755465901799e-02
         - 4.0310968738704843e-02
         - -1.3480406668411375e-02
         - -1.1214455007348365e-02
         - -1.9230562658268089e-02
         - -1.4186541062774249e-03
         - -1.3266352771635875e-02
         - -1.1509497206799146e-02
         - -6.2801498339878940e-03
         - -1.7841803907606190e-03
         - -2.9099413896035289e-02
         - -3.7856523810799930e-02
         - 1.0500800202605950e-02
         - 2.1485960789524626e-03
         - -3.5394259089374495e-04
         - -8.2556470641088099e-03
         - 3.3114110608585732e-03
         - 2.0319876049286517e-03
         - 6.6917917049704925e-03
         - -4.4376168359043597e-03
         - 5.0662842718249045e-03
         - -2.1873433732333787e-03
         - 7.4934612511125894e-04
         - 2.3165236558537781e-02
         - 3.6982679246141265e-02
         - -4.0637460949843555e-03
         - -5.8830823513312452e-02
         - 6.7708535680431033e-03
         - 5.9739891032935004e-03
         - 1.9788782637081573e-02
         - 6.3422912696224548e-02
         - 1.5381222962511997e-02
         - -6.6108275352303311e-03
         - 2.2449500099950611e-02
         - 4.0010364351279797e-02
         - 2.0966669008215476e-03
         - -1.9657056729415118e-02
         - 4.9767165365969110e-03
         - 4.2529054621722713e-03
         - 4.8683024592169480e-03
         - 4.4229198198526623e-02
         - 4.1703036888540476e-02
         - -7.2856697798991945e-03
         - 4.1056463145779524e-03
         - 6.5666861343161948e-03
         - 1.1912165241079690e-03
         - -1.6704013734125844e-02
         - 2.1931583655105851e-03
         - -1.2950031838615519e-03
         - 3.4022360842801348e-03
         - 1.8794187349463275e-02
         - 4.4403939997118315e-03
         - 3.8563404999712326e-03
         - 6.7339036952169867e-03
         - 1.1683427134429766e-02
         - -3.9132417688886346e-03
         - -4.0491128434262273e-02
         - -6.8418555637509012e-04
         - 3.2980109546232829e-03
         - 9.2320962034414603e-03
         - 1.4896886147470850e-02
         - -1.8779941892269801e-02
         - 7.2746569330911963e-03
         - 1.5705749588518250e-02
         - 2.6838072188917927e-02
         - -8.0632405349503194e-03
         - -7.4092637486921104e-02
         - 2.8027276429663716e-03
         - 6.9200961102506790e-03
         - 2.5004921449927733e-02
         - 4.6931270502506311e-02
         - -8.3867464099174043e-03
         - -3.5475787343018485e-03
         - -1.0094826654174174e-02
         - -7.4421584522500134e-03
         - -8.8250053880649711e-03
         - -7.0978996650438567e-02
         - 2.5194882020814478e-03
         - -3.0186884588974377e-03
         - 1.6325107664251055e-02
         - 3.5733833329995102e-03
         - -6.9718659835676947e-02
         - 1.4084980450830190e-02
         - -1.1619727981002222e-04
         - -3.9342565225658945e-05
         - -1.0164022593359768e-02
         - -5.1910634567624257e-02
         - -9.3275472189736463e-04
         - -2.8039064696184588e-03
         - 1.1338428738791758e-02
         - 3.6720129820984543e-03
         - -1.7069208219013664e-02
         - -1.8927736196222430e-03
         - -2.9650047923646380e-02
         - -3.5861753505286087e-02
         - 5.0434982723444452e-03
         - 4.7475461409272248e-03
         - -9.8527300136804323e-03
         - -7.1823027147643985e-03
         - -1.2593433340070919e-02
         - -5.1173118994809391e-02
         - -5.5481765253669012e-02
         - 1.4321225220653643e-02
         - 1.3376606330728657e-02
         - 2.4625255429046543e-02
         - -1.3052481370609426e-03
         - 4.3390416389116553e-02
         - 8.9679922891231587e-03
         - 9.5697085698964279e-04
         - -7.0989350129329401e-03
         - 3.3195972270852081e-02
         - 4.6289424636070151e-02
         - -4.2114478540909942e-03
         - 1.2609688775901054e-02
         - 2.3870616937047884e-02
         - -6.4653924810689099e-03
         - -2.3568526663846723e-02
         - 9.1005288665350036e-03
         - 3.6523124140660896e-03
         - 1.6294002772771089e-02
         - 2.6192155398694329e-02
         - 1.7900834947402967e-03
         - -1.0686045105153638e-03
         - -1.0025259685607663e-02
         - -9.8184658801760104e-03
         - -4.5665912072485647e-03
         - -4.4322497878454256e-02
         - -1.5931534630821778e-03
         - -1.5298960185362634e-03
         - 9.4882692660319921e-03
         - -5.5053025661144801e-03
         - -4.6179021251876638e-02
         - 9.2655903639458255e-03
         - 6.5051302665549270e-03
         - 5.3148128738796279e-03
         - -5.2827425358381886e-05
         - -2.7676937879811406e-02
         - 7.2577703698036376e-03
         - 4.9394388761264951e-03
         - 1.1475975174778868e-02
         - 1.1631425250269230e-02
         - -6.2476663861334965e-03
         - 7.3087579832379727e-03
         - 2.0830696834107598e-02
         - 2.6330048940566356e-02
         - 3.4782946009989163e-03
         - -2.2646870876796135e-02
         - 5.6540968324156997e-03
         - 8.0539938981869508e-03
         - 1.4373856981625221e-02
         - 3.3980825516693881e-02
         - 3.4299655929885632e-02
         - -4.0134085913385254e-03
         - 1.0145673524168522e-02
         - 7.7769155358885416e-03
         - 2.3481464779820426e-04
         - -6.0855178989095747e-03
         - -1.4643323812709899e-03
         - 2.0479251055774616e-03
         - -1.8964287508584591e-03
         - 5.6083344412328302e-03
         - 9.4502098719454319e-03
         - -6.9361818397071923e-03
         - 8.3315567294893947e-05
         - -3.1180938657429267e-03
         - 1.9532833521175440e-03
         - 2.0208992804435999e-02
         - 3.8602515836206760e-03
         - -3.2722826196052959e-03
         - -6.3600427086668689e-03
         - -4.1517487908779259e-03
         - 5.5734655267094821e-03
         - -4.3661417819265561e-03
         - 1.7923965126241035e-02
         - 2.5144040507968500e-02
         - -1.2757838376366004e-03
         - -8.5718856587231173e-03
         - 8.2506790302505021e-03
         - -9.3368240337355669e-04
         - 3.4195326495410254e-03
         - 2.3561673092820503e-02
         - 3.1475563691274473e-02
         - 2.3005421800644001e-03
         - -1.5420972115263736e-02
         - -1.6062819964160192e-02
         - 3.6256667035067833e-04
         - 5.5915795127375392e-03
         - -2.0283103230112924e-03
         - -3.9644759316103079e-05
         - -2.0808542054746486e-03
         - -1.7044851051132445e-02
         - -5.6469960898896318e-03
         - 3.0037921528406155e-03
         - -5.5885811208205597e-03
         - 2.3607010059336574e-03
         - 3.4553799397251191e-03
         - 2.2061747013597068e-02
         - 1.8863955348086294e-03
         - -5.0974402629040683e-03
         - -6.9157808593963278e-04
         - -4.7138382449551447e-04
         - 6.2151227743940463e-03
         - 4.4643547492657460e-03
         - 7.1182668491622872e-03
         - 1.1673617928243066e-02
         - -6.8537276894753175e-03
         - -5.5577404138199664e-02
         - 3.8158596444986389e-03
         - -4.3907663316770122e-03
         - 5.1482152273286909e-03
         - 3.3351249912065895e-02
         - -1.5928207384834497e-02
         - -1.9993655853390332e-03
         - 4.1082999306044886e-03
         - 1.1889565798969571e-02
         - -1.7556646799377761e-02
         - -8.9423719005784719e-02
         - -1.0004098900897884e-03
         - 9.0745399196312058e-03
         - 1.5324619101304338e-02
         - 1.9348527794075244e-02
         - -5.0815505393963428e-02
         - 1.4653417462226960e-02
         - 5.9231397813886612e-03
         - 8.4162832738392344e-03
         - -9.9817691988135920e-03
         - -5.6297853403665561e-02
         - 2.7949898590376859e-03
         - 3.5911988444991207e-03
         - 2.2355049751452687e-02
         - 2.6025901761389202e-02
         - -2.5627817275783924e-02
         - 3.1032592372545738e-03
         - 1.8257303625511780e-02
         - 2.1765892785847622e-02
         - -9.6798504826170594e-03
         - -6.4631271285230579e-02
         - 5.6762404754530900e-03
         - 7.5393032468000481e-03
         - 2.0084880569910920e-02
         - 3.1002028619170036e-02
         - -5.7039571710501410e-03
         - 1.2463746954483423e-03
         - 3.4689930483964579e-03
         - -6.7073954736795234e-04
         - -8.2624310445584392e-03
         - -4.3578159616854052e-02
         - -2.1000068541395210e-03
         - 6.6591905656877681e-03
         - 4.6300224256706031e-03
         - -1.0308490340037516e-03
         - -2.0114140383359166e-02
         - -8.0831267479952327e-04
         - -1.7817913679103660e-02
         - -3.5237966504848249e-02
         - -6.5289205545576096e-03
         - -1.7595456303025989e-02
         - -1.1366857774614138e-02
         - -9.2150349623192993e-03
         - -2.9498463722772180e-04
         - -5.2494920026859869e-02
         - -7.1001048764374949e-02
         - 6.6480696693944118e-03
         - 7.2107124285030952e-03
         - 7.5716109464831084e-03
         - 3.4355325585638222e-04
         - -5.7909852666942953e-03
         - 1.4593077252517508e-03
         - 6.2884149195568248e-03
         - 8.4205087036738208e-03
         - 3.0891291772112646e-02
         - 2.4818248963052666e-02
         - -7.2994335654526067e-03
         - -8.9056808140360062e-03
         - -1.6560095543685972e-02
         - -2.6531481168863167e-03
         - -1.8096315317238779e-02
         - 1.0322960631290290e-04
         - -1.1154123131985308e-02
         - -4.5269328157454226e-03
         - -1.7918280533837545e-02
         - -2.8464004533705494e-02
         - 1.1581742802717558e-02
         - 1.9077817061131996e-02
         - 3.4038801140025027e-02
         - -7.1875551513006005e-03
         - -3.0828194496397392e-02
         - 1.0598848032476415e-02
         - 1.1824873466076133e-03
         - 9.6272872676515051e-03
         - 3.3853872053088020e-02
         - 3.7936612851246020e-02
         - -6.7304471286611933e-03
         - -1.6960716263125484e-02
         - -2.2701883120298819e-02
         - -7.9892188264947246e-04
         - -5.1917147937359780e-03
         - -5.4207439113470712e-03
         - -4.6560794688499767e-03
         - -5.4316227095691175e-03
         - -2.7817222299825240e-02
         - -3.1801506135920060e-02
         - 9.9301747793892059e-03
         - 9.3460896973288736e-03
         - 1.2275490401855523e-02
         - 5.8220616515181475e-03
         - 2.8338146337125645e-02
         - 7.4583194288511013e-04
         - -2.6679341604832674e-04
         - -7.2217039310364713e-03
         - 9.0039649226602621e-03
         - 2.8314843291921802e-02
         - -7.6968652933257489e-03
         - 1.7017711544924014e-02
         - 2.5457643084174576e-02
         - -3.4354696961789127e-03
         - -3.1469854721422039e-02
         - 5.1781976031502128e-03
         - 5.3479554045458913e-03
         - 1.3915685497704949e-02
         - 4.0467630237620844e-02
         - 1.7497697241649374e-02
         - -3.5178390194260103e-03
         - -2.7214998761755670e-02
         - -2.9228760630453880e-02
         - 4.9628209573237460e-03
         - 2.3973639227493897e-02
         - -1.5165853104284132e-02
         - -6.3357940428970822e-03
         - -9.9333400472728667e-03
         - -4.7727488545199551e-02
         - -3.3620679880399462e-02
         - 7.8788794548294103e-03
         - 4.1567995086390645e-04
         - -5.5150628110723901e-03
         - -5.0542706970389635e-03
         - -2.2533783588220634e-02
         - -6.3053531117777300e-03
         - -4.6038564614796851e-03
         - 3.4667508421743704e-03
         - -1.7457068762572331e-02
         - -1.8062916919744224e-02
         - 6.8095844495327925e-03
         - 5.9203231770713887e-03
         - 2.5473130357887581e-03
         - 1.5261735700365690e-03
         - -3.7009094423765362e-02
         - 2.4620580448245509e-04
         - 9.7711077814744869e-03
         - 7.4930392427497074e-03
         - 5.6564119790296101e-03
         - -1.7234706368235243e-02
         - 3.5513069228722591e-04
         - 1.5720115921529221e-02
         - 2.1878801823699730e-02
         - -3.7081118768709774e-03
         - -3.1453933287015283e-02
         - 7.4746489784553892e-03
         - 3.7368846362056500e-03
         - 1.3290440315756514e-02
         - 3.5307903189065959e-02
         - 1.9041314292824237e-03
         - -8.7673221789714099e-03
         - 3.7184888578759619e-03
         - -5.2419160462145523e-03
         - 5.1062746073286015e-03
         - 7.5639588821881289e-03
         - -2.8463905440196864e-03
         - 4.4413842085569716e-03
         - -5.1158783903616422e-03
         - -7.4232923844585481e-03
         - -2.3177030124734445e-03
         - -6.1934800223254604e-03
         - 8.9812757526154582e-03
         - 1.2351742596982853e-02
         - -3.9037963997286826e-03
         - -3.7706873177266807e-02
         - 5.1167734671907781e-03
         - 5.0325033171124810e-03
         - 1.0482875815593404e-02
         - 9.3692472678688424e-03
         - -1.5080964172962657e-02
         - 8.8870117176138349e-03
         - -2.0140908437882615e-02
         - -2.6731619131398831e-02
         - 4.3447325350471728e-03
         - 7.1468188032011454e-04
         - -6.8659987875834601e-03
         - -5.6932921075530107e-03
         - -8.6261330225925071e-03
         - -3.2525753467300030e-02
         - -2.2750599829118600e-02
         - 5.2332739606013113e-03
         - 1.7144818601865061e-03
         - 9.4655935063232832e-03
         - -1.3517856821834923e-07
         - -2.9545526091113477e-02
         - 4.4802041745348135e-03
         - 1.8250329224718588e-03
         - 4.6485510154100629e-03
         - 7.9478625655122325e-03
         - -9.4751506391720641e-03
         - 1.0256108120352298e-03
         - -2.5889741129547124e-03
         - -6.8209672603102714e-03
         - -1.4774765926505246e-02
         - -4.0427189447023754e-02
         - -2.4518283900578273e-03
         - 3.6275993659643105e-03
         - 1.5901654660614752e-02
         - -5.7704894405253325e-03
         - -2.8281679206016715e-02
         - 1.9833545350101970e-04
         - -2.7701412120684232e-02
         - -4.0960603205907171e-02
         - 1.0691758279038946e-02
         - 1.7096281076202775e-02
         - -5.9219827871868393e-03
         - -8.3703128905534413e-03
         - -9.0105560583825361e-03
         - -5.1549925225734171e-02
         - -4.5064302093523939e-02
         - 3.9554668557940775e-03
         - 4.3141421445342214e-02
         - 6.5612332888026453e-02
         - -6.5876325335424511e-03
         - -9.8449112923500153e-03
         - 1.7775687844720146e-02
         - 1.3723385137513240e-02
         - 9.3289238323028875e-03
         - 8.8678942000750008e-02
         - 6.9211505930091552e-02
         - -1.0871753338542864e-02
         - -9.6368847056221094e-03
         - -1.4214243182496875e-02
         - 4.3328429262789467e-03
         - -5.6093270077233930e-03
         - -3.0353866978032355e-03
         - 3.5002037671089102e-03
         - -2.6848348524608980e-03
         - -2.5151700514891212e-02
         - -2.6123449767093077e-02
         - -1.9740192913846430e-03
         - -1.7686561374320658e-02
         - -3.1068078410640295e-02
         - 1.1217732834449370e-03
         - 9.4128655383352664e-03
         - 2.3487036423822268e-04
         - -6.1889945123774180e-03
         - -8.1449232858540003e-03
         - -5.0116035867440276e-02
         - -4.5491448347575396e-02
         - 5.4912380272466310e-03
         - -3.8576557847565794e-03
         - -8.6884284259518413e-03
         - -6.5098715332481145e-03
         - -1.5414163905071013e-02
         - -5.7237363389966529e-03
         - 1.2552079944481097e-03
         - 6.0690628501191895e-03
         - -8.9370608872217875e-03
         - -4.1230527620313852e-02
         - 2.9820441085576057e-03
         - 3.3761386439608770e-02
         - 4.5515320492167922e-02
         - 2.1142354800456759e-03
         - -3.5546749826152746e-03
         - 1.5974014577967240e-03
         - 1.7483676803423972e-03
         - 7.3628881783640611e-03
         - 6.2331999588911328e-02
         - 4.9786316087255270e-02
         - -3.3605391369745381e-03
         - 3.9372249058946115e-03
         - 8.9838513527827468e-03
         - -9.6294063170574012e-03
         - -1.1688173261216283e-02
         - -3.4883048101557517e-03
         - -2.8181360163062824e-03
         - 1.7852743809339900e-03
         - 7.3993148660044545e-03
         - 1.0463316224688891e-02
         - -5.6623315247504406e-03
         - -1.4409922795754688e-02
         - -1.4883745469441384e-02
         - 5.3599479070804467e-03
         - -3.1714612989139903e-03
         - -2.5996423442211790e-04
         - -7.7486374272025464e-05
         - 3.3736683311208350e-03
         - -1.6368830768783045e-02
         - -2.3989812994406126e-02
         - 3.9571234742594866e-03
         - 2.8237518337143920e-02
         - 3.1221481490292274e-02
         - -2.5842289499494026e-04
         - -1.5711298475915993e-02
         - 3.2166720733025804e-03
         - 8.9110008163159355e-03
         - 2.7304553951209708e-03
         - 4.7306653395362573e-02
         - 2.9529445462675736e-02
         - -3.5244185541583781e-03
         - -2.4817447321432394e-03
         - 2.9878138602435198e-03
         - 1.6747158611647023e-03
         - -2.4606832672380528e-02
         - 1.3490932243686107e-03
         - 3.5119229342060339e-03
         - 3.6393166080675252e-03
         - -1.8068438061756265e-03
         - -1.6398931524160970e-02
         - 2.7927443678389557e-03
         - 1.6788519767796809e-03
         - -1.1921578678320534e-02
         - 2.3257578909661718e-03
         - 2.0223857978696771e-02
         - -5.6149021333735836e-03
         - -1.0689947808063800e-02
         - -6.6421238074656046e-03
         - -1.9498988502740303e-02
         - -3.9199507842219627e-03
         - -6.8638465573140463e-03
         - 4.4858890681174273e-03
         - -4.7410438126238123e-03
         - -2.9643440468612335e-03
         - -1.9790607997254243e-02
         - -3.2055320521138984e-03
         - 1.7625554354457290e-03
         - -6.5274551823003206e-04
         - -2.7868358336971865e-03
         - -1.1484175916952373e-02
         - 8.3280488744489518e-03
         - 3.2698660745294327e-03
         - 7.1203509476193728e-03
         - -9.1299533689082092e-03
         - -1.9005160622369052e-02
         - 7.3447254837139819e-03
         - 1.8993925653572788e-03
         - 7.4547750417845405e-03
         - 1.3350095569095874e-02
         - 1.9913047625581787e-03
         - 7.3457637025754509e-03
         - 2.1856864249938726e-02
         - 3.9425596036466372e-02
         - 6.0775473558467765e-04
         - -2.0276404219542195e-02
         - 7.8134805423084493e-03
         - 4.3900316977901303e-03
         - 4.8574321321693372e-03
         - 5.2742475553518735e-02
         - 4.3166486743339200e-02
         - -1.7826891093398966e-03
         - 1.8339335397086126e-02
         - 2.3056306477162121e-02
         - -4.9988990726406390e-04
         - -4.9870780337605787e-02
         - 3.4754398646428858e-03
         - 1.0972196113606435e-02
         - 1.0112530430804062e-02
         - 4.7181814909480028e-02
         - 1.1470322844621151e-02
         - -1.0310254928566577e-03
         - 1.0090408314528922e-02
         - 2.4103005281528849e-02
         - -1.0252989273121753e-02
         - -3.9693897291196066e-02
         - 8.9578477966060308e-03
         - 3.9736489452190250e-04
         - 1.3493835011980161e-02
         - 3.5046327538332311e-02
         - -5.4818557918086645e-03
         - 9.5108548500113660e-03
         - 1.0081520098669163e-02
         - 1.0107851343713789e-02
         - -1.0144336448446610e-02
         - -4.5220663541777742e-02
         - -2.4246484269884218e-03
         - 2.7005836421718651e-03
         - 1.3060670632024565e-02
         - 2.1492160076422250e-02
         - -2.3153963585484910e-02
         - 1.1606524505474415e-03
         - -2.1376525413837714e-02
         - -3.4690250707657792e-02
         - 6.3223829176997986e-03
         - 5.4486626345034359e-03
         - -1.1821588924143653e-02
         - -5.4267166206815216e-03
         - -9.7113758502220936e-03
         - -3.6813249677682333e-02
         - -4.2313634739131106e-02
         - 3.4349280310359480e-03
         - -1.8878159535210468e-02
         - -2.3964188795527933e-02
         - -7.8295534855191331e-03
         - -2.3980362248519432e-02
         - -8.0064007173084994e-03
         - -3.0653617862617449e-03
         - 1.2165187834039979e-03
         - -3.0939772954957791e-02
         - -5.0652286103251162e-02
         - 1.2015050152838221e-02
         - 8.6393739770642512e-03
         - 1.3169577070314853e-02
         - -5.1906025040602804e-03
         - -7.5977917279721066e-03
         - 2.7604830215945098e-03
         - 9.1472401231724905e-03
         - 8.9083744631177487e-04
         - 3.2919055904375071e-02
         - 2.2364003648247782e-02
         - 5.3879372763458912e-03
         - -2.0113287861803445e-02
         - -4.2517225572615336e-02
         - 3.1106697241348566e-03
         - 1.1836375829032417e-03
         - -8.2321922422245938e-03
         - -6.4176043303396674e-03
         - -2.7687851242536245e-03
         - -5.1192860725266909e-02
         - -4.5257080424876389e-02
         - 3.1231073508997337e-03
         - 5.2022625708781304e-03
         - 1.3217408945562378e-02
         - 1.3197734901406394e-03
         - -1.5449788091242301e-02
         - 9.8608144866879997e-03
         - 3.1976603775108569e-03
         - -1.1467158976103677e-03
         - 9.2982367091813418e-03
         - 7.5278446470379273e-03
         - -1.4991975844274330e-03
         - 8.9132853006369216e-03
         - 7.2652770528530385e-03
         - 4.8471995300913917e-03
         - -1.3087615941932305e-02
         - -5.0959104541388933e-04
         - 8.3694943388161816e-03
         - 2.6748378409681118e-03
         - 1.3696787625710262e-02
         - 1.4853320076149711e-02
         - 6.5077313584183171e-04
         - 2.5114339008647971e-02
         - 3.7273404991632751e-02
         - -7.8807035503188228e-03
         - -1.3846397593199588e-02
         - 3.6798883011250399e-03
         - 7.0584268855594205e-03
         - 2.9819969628930294e-03
         - 4.9565027619696361e-02
         - 4.9467025475736004e-02
         - -6.8577401970044711e-03
         - 1.8268047640746098e-02
         - 2.6593244031598358e-02
         - -1.0167343264893211e-03
         - 2.1786057857191327e-03
         - 8.1766583438943712e-03
         - 3.0363659585588023e-03
         - -3.7534791364711249e-03
         - 3.5127032445377779e-02
         - 5.0169992261767243e-02
         - 6.8033111617926672e-03
         - 2.2622715334003500e-02
         - 3.7162527750421115e-02
         - -2.8222494727611919e-03
         - -1.3835319187245862e-02
         - 5.9905922809124958e-03
         - 8.4117252162769132e-03
         - 6.3751767217672247e-03
         - 5.6768558547653995e-02
         - 4.0364386577895081e-02
         - -6.8446898793885951e-03
         - 3.2089663641199889e-02
         - 4.7772576758343642e-02
         - 3.5958507754899542e-03
         - -2.9496026484595295e-03
         - 7.4755984689781870e-03
         - 1.5295127020391536e-02
         - 9.7265374693964266e-03
         - 7.1925082558519135e-02
         - 5.6577139126087340e-02
         - -1.0730078269137177e-02
         - 6.9289009017385553e-03
         - 3.8383622729346281e-03
         - -2.0488797473816297e-03
         - -9.1586250752044556e-03
         - 2.3749511617799789e-03
         - 2.0182029050187550e-03
         - 7.1076995253092235e-03
         - 1.5194191032559012e-02
         - -5.5347529504786858e-03
         - -1.0728212838672711e-03
         - 2.3012679493609255e-02
         - 3.7384226751016283e-02
         - -1.0647161885687963e-02
         - -5.1204663106984939e-02
         - 1.1777887475429807e-02
         - 9.8037499103500441e-03
         - 1.8567935712616442e-02
         - 4.6895351646923794e-02
         - 1.7165004035480515e-02
         - -5.5112514565197560e-03
         - 1.4039246138427620e-02
         - 2.9397823112082350e-02
         - -1.6094615825221407e-04
         - -1.1963444786105254e-02
         - 6.6683351195060093e-03
         - -1.8635490109492733e-03
         - 7.0556277715698333e-03
         - 4.4941735382277526e-02
         - 3.0701596135707370e-02
         - -5.9653015778265558e-03
         - 3.0623783653881225e-02
         - 4.8192616208484466e-02
         - -4.1788165750657460e-03
         - -2.3914431029735461e-02
         - 1.4141848872785693e-02
         - 1.1721530418528024e-02
         - 1.6214769052738335e-02
         - 7.4807204567679197e-02
         - 7.5415996882917280e-02
         - -6.1045076019657623e-03
         - 5.8208304357810041e-02
         - 7.7018010567750567e-02
         - -1.1835099901531006e-02
         - -5.8464137247205367e-02
         - 2.7416272666410037e-02
         - 1.6640475805065336e-02
         - 2.7709288906900890e-02
         - 1.2216896572035812e-01
         - 7.2275948353950251e-02
         - -8.8673657972775585e-03
         - 2.1687883376746941e-02
         - 3.9775971142258587e-02
         - 2.4083616902419009e-03
         - -2.5133351683353573e-02
         - 4.2300100888372442e-03
         - 1.1875490778277318e-02
         - 8.0488532090164586e-03
         - 5.6807944548770785e-02
         - 4.5900593907981041e-02
         - -1.5620587955482168e-03
         - 5.2606769205189186e-03
         - 8.8858267648874879e-03
         - -5.5453541584471822e-03
         - 2.9883098376570907e-02
         - 9.4186332193794704e-03
         - 5.6072378325794743e-03
         - 3.4426038310033546e-04
         - 1.6519758996501412e-02
         - 3.4814298846451451e-02
         - -7.9537745308526035e-03
         - 1.5822415545766567e-02
         - 1.8817752152556752e-02
         - -2.0016365241392210e-03
         - -2.3011428614169173e-03
         - -3.6960739913474466e-03
         - 7.7743871203003962e-03
         - 3.0146843539469483e-03
         - 2.4669979974256160e-02
         - 2.4991181051023399e-02
         - -9.9394822676946108e-03
         - 3.2508952326262670e-02
         - 5.8253052963297761e-02
         - -1.3130958038821747e-04
         - -3.3662260649931282e-02
         - 1.9083344537372468e-02
         - 9.8402147594135354e-03
         - 1.6040131669830305e-02
         - 9.0479533351156244e-02
         - 7.6618580879402987e-02
         - -1.1341532431134943e-02
         - -4.1609410855352662e-04
         - -8.5634899928762795e-04
         - 2.7122269109717996e-03
         - 2.2258280135939348e-02
         - -4.9944340167213091e-03
         - -2.1084666853700976e-04
         - 4.7924328814161183e-04
         - 2.9433039481150088e-03
         - 1.1493071508702034e-02
         - -2.1716193878081659e-03
         - -5.9442067951678192e-03
         - -1.2410868843932709e-02
         - 4.8173817726261219e-03
         - 1.8798323128281239e-02
         - -8.8770938243537423e-03
         - 2.5105750059497222e-03
         - -5.9268694693165565e-03
         - -1.5435633255153479e-02
         - -5.5469803477588798e-03
         - -1.1482678154265348e-03
         - 3.0100535567913710e-02
         - 5.6970845091858950e-02
         - -5.1460686132539712e-03
         - -3.0655243324309141e-02
         - 1.6142441269474065e-02
         - 6.3996161107528751e-03
         - 9.9649493450544337e-03
         - 6.7213793509908110e-02
         - 5.2904361909493457e-02
         - -5.2680949036024117e-03
         - 2.0066255540533297e-02
         - 2.9217754531606757e-02
         - -2.7900149604330386e-03
         - -4.4737310201044163e-02
         - 1.2175716381160440e-02
         - 7.3225240510780294e-03
         - 9.4237419628273415e-03
         - 5.3201289905826177e-02
         - 2.3914496286394318e-02
         - -4.3327597217106151e-03
         - 5.5868838202260676e-03
         - 3.0618120321765402e-03
         - 8.2432756526735936e-03
         - 4.3187705966406677e-02
         - 1.3811398589746529e-04
         - -7.3158152864408804e-03
         - -1.0248190908723821e-02
         - -4.3049447916920095e-03
         - 2.4207223472529869e-02
         - -7.8172486736081005e-03
         - 3.4385688816044244e-02
         - 4.8440530065322771e-02
         - 3.3289220480171682e-04
         - -4.1190648434974164e-02
         - 1.5140715968308672e-02
         - 1.2601953134605701e-02
         - 1.9113929167863093e-02
         - 6.7098816075430737e-02
         - 5.4992927721765408e-02
         - -4.2415610742767337e-03
         - 3.0101446016499098e-02
         - 4.9343976708617870e-02
         - -9.1312034284751140e-03
         - -8.5151984439273271e-02
         - 1.0433780606124208e-02
         - 1.6114520443212807e-02
         - 2.4352716857536517e-02
         - 7.6611273519664597e-02
         - 9.8064863198881851e-03
         - -8.4550068011577122e-04
         - 3.0941802375919848e-02
         - 4.5307683878848648e-02
         - -3.3644109363936961e-03
         - -3.0940247305816494e-02
         - 1.0957252581415463e-02
         - 9.9940817463512292e-03
         - 2.3636584317634695e-02
         - 7.2896330561974115e-02
         - 4.1111293470771922e-02
         - 5.8280958810265171e-06
         - 4.1303821457498661e-02
         - 5.3953449805713288e-02
         - 4.0740815966765105e-03
         - -3.1688991579141915e-02
         - 1.6731330783791614e-02
         - 1.4676399168721458e-02
         - 9.2973882482055049e-03
         - 7.4849735802682990e-02
         - 7.0979806706579371e-02
         - -8.7954200278840388e-03
         - 2.0645192538120142e-02
         - 3.8173984937020969e-02
         - 5.3043375175317151e-04
         - -2.9246537671835927e-02
         - 1.1272127131112379e-02
         - 9.9787020093426524e-03
         - 1.7175061788050401e-02
         - 4.9442639577628740e-02
         - 3.2883868277408468e-02
         - 3.3195671273055895e-03
         - 8.1357193101109660e-03
         - 1.3344035250689225e-02
         - -4.0144763852308927e-03
         - -1.0235689219111829e-02
         - 1.0500341447007691e-02
         - 2.2984400122110379e-03
         - -2.3295403610653510e-03
         - 1.6520425698021455e-02
         - 1.4852921649414767e-02
         - -8.3111333029674810e-03
         - -5.3184018696601420e-03
         - 1.6455351669733948e-03
         - 5.7984655280078614e-03
         - 3.6662252275725705e-02
         - 1.4994289610014593e-04
         - 4.1114708579493798e-03
         - -8.4893134379700249e-03
         - -4.9234504686600528e-03
         - 3.0801190632427953e-02
         - -2.1508017054175446e-03
         - 1.5842571219090409e-02
         - 1.3400936095881309e-02
         - 2.0349371923867828e-03
         - -1.4695346357627927e-02
         - -1.7628679453770348e-04
         - 5.8535095389085823e-04
         - 8.0963661641758194e-03
         - 2.2863015759135720e-02
         - 2.4497191420326768e-02
         - -1.4456570151157762e-03
         - -2.2619437523896405e-02
         - -3.4612498789369228e-02
         - 1.0782664840990721e-02
         - 5.2353969881061405e-02
         - -1.4850881143737809e-03
         - -1.0543392339823005e-02
         - -1.2420175352096614e-02
         - -4.4440200864427487e-02
         - -7.4158118233479823e-03
         - 1.0838334208956406e-02
         - -3.3506967016836853e-03
         - 6.5002398480193159e-03
         - 5.9507723806224008e-03
         - 4.4064550346417167e-02
         - 1.6807007807341156e-03
         - -1.1997722476193501e-04
         - -1.2460664986853802e-02
         - -1.0941757491861990e-02
         - 3.2363340346234587e-02
         - -5.5538160475268857e-03
         - 1.8561838321116384e-02
         - 2.9055156910554540e-02
         - 2.1328446861750244e-04
         - 1.3572499092811316e-02
         - 7.1071781168675942e-03
         - 7.4919384774667303e-03
         - 8.5467228019498777e-04
         - 3.7815398869992731e-02
         - 4.3356191959405592e-02
         - -4.7470736088726061e-03
         - 3.7287463914856912e-02
         - 5.0962052191564813e-02
         - 2.8810059229635965e-03
         - -7.5807062636283739e-03
         - 1.4067088327791227e-02
         - 1.5119894194591843e-02
         - 1.2155578019992723e-02
         - 6.6474896579684736e-02
         - 6.3368101004862010e-02
         - -6.9929989372377738e-03
         - -2.9327860717149590e-02
         - -4.6836986064695413e-02
         - -8.2450044265437034e-03
         - 1.4543846337034306e-02
         - -1.2161710163840132e-02
         - -3.7037300078391743e-03
         - -9.2051561768057323e-03
         - -6.7159957776361842e-02
         - -6.0861325915725357e-02
         - 1.1290172475274207e-02
         - -1.6785823904829994e-02
         - -2.2826523441684368e-02
         - -1.0278001849997919e-03
         - -2.0450037347274255e-02
         - -1.0333671340375902e-02
         - -5.5017585076331168e-03
         - -4.6150983031628022e-04
         - -2.8683080326166673e-02
         - -3.8241651708601998e-02
         - 1.0653791569983783e-02
         - -2.1738926366884993e-02
         - -3.5987011879943832e-02
         - 7.6179260666866665e-04
         - 1.8309891591124852e-02
         - -1.0517775343016232e-02
         - -1.0415888587997583e-02
         - -1.3220606227099571e-02
         - -4.8651919238218731e-02
         - -3.2441592863618016e-02
         - 2.2573118804455703e-03
         - -4.5037894154434143e-03
         - -1.6705188325903241e-02
         - 3.2304416779006567e-03
         - -2.3117108469464655e-02
         - -7.0738940393205111e-03
         - -2.8326870146274052e-03
         - 7.8178190999602659e-03
         - -1.9962690899836748e-02
         - -2.3718970536020005e-02
         - 4.9686425881650190e-03
         - -4.5359030851547331e-03
         - -5.0951864938766399e-03
         - 3.9622912849928918e-04
         - 1.2335678452590284e-02
         - -1.4023398802832858e-03
         - 1.2093280932375053e-04
         - -1.4547374786333302e-03
         - 1.3253853464687858e-03
         - -5.9448150808567614e-03
         - -7.7280256267531677e-04
         - 1.0351340092831698e-02
         - 1.6754122474278325e-02
         - -1.0280832027415886e-02
         - -3.8665814457189959e-02
         - -2.6728134548351058e-03
         - 5.5637464192627327e-03
         - 2.0016140595216187e-02
         - 2.9295112605750174e-02
         - -2.1225424025113626e-02
         - 9.7266747275374533e-03
         - -2.6482082775057935e-03
         - 2.6988767177364287e-03
         - -7.2513222719291955e-03
         - -4.3601933186578873e-02
         - -7.1319342563665178e-03
         - 3.7789844013567681e-04
         - 8.8683682514409060e-03
         - 1.5317588543540411e-02
         - -2.9176046512727188e-02
         - 9.0945273145528922e-03
         - -9.0438048181136366e-03
         - -1.7589889402336516e-02
         - 6.0429392380966845e-03
         - 8.2521903852730647e-03
         - -5.7774644508120825e-03
         - -8.6716152571515558e-03
         - -4.5246752212756902e-03
         - -2.1316623976878050e-02
         - -3.5771329056030386e-02
         - 2.7246037929220296e-03
         - -2.5599965434093968e-02
         - -2.7828456283002498e-02
         - 1.9868689503668609e-03
         - 7.4526860660937269e-03
         - -1.0973932633710470e-02
         - -4.9340974450377290e-03
         - -2.5932359268144569e-03
         - -4.6177940250229067e-02
         - -4.3958848064007558e-02
         - 7.5636237690050543e-03
         - 4.0824783025035756e-03
         - 3.8107924417390164e-03
         - 2.0775107854628322e-03
         - 1.2006076881757394e-02
         - -4.6075176869666266e-04
         - 2.1047994063755769e-03
         - -3.8728934629174028e-03
         - -1.8043520842635798e-03
         - -4.0813801925848972e-04
         - -8.7310907828465536e-03
         - 1.0465920901219124e-02
         - 1.0291601889777296e-02
         - 3.4325792381985801e-03
         - 6.9937255115141350e-03
         - 1.0661331143375589e-03
         - 5.7636350136390695e-03
         - -1.8877529139487131e-03
         - 1.3099706927992992e-02
         - 2.2241503256253230e-02
         - -1.0926137296388603e-03
         - 2.8956591530408970e-02
         - 4.4936987614774583e-02
         - -9.3167922289943115e-04
         - -2.7622028668344758e-02
         - 1.0231092907174943e-02
         - 4.0362883899996262e-03
         - 1.2655755559059961e-02
         - 6.5150246351194513e-02
         - 5.3960106778644504e-02
         - -1.1110833789073439e-02
         - -7.7885702422764956e-03
         - 2.5396909075697447e-04
         - 6.1691191859784807e-03
         - 4.3537672819022752e-02
         - -1.9875389674594087e-03
         - 4.0547870911409028e-03
         - -1.3434000172820020e-02
         - -1.0315968818763354e-02
         - 2.0868377017385187e-02
         - -4.9749690529099604e-03
         - -2.2594370670705844e-02
         - -2.4975398751512508e-02
         - 1.5908546499617444e-02
         - 7.1516015407521991e-02
         - -7.7058889289976021e-03
         - 3.1317052105272520e-04
         - -2.4333136290894841e-02
         - -4.1388583816125230e-02
         - 1.3592069051872659e-02
         - -4.6544237155929785e-03
         - 1.0466910234776743e-02
         - -1.9904931565080664e-03
         - 2.8282814266189626e-03
         - 4.1799868415815011e-02
         - 1.5216723298628974e-03
         - -2.3486405329060343e-03
         - -8.9264455432479448e-03
         - 2.8518192319011712e-03
         - 4.9582124119255437e-02
         - -7.3189478195651268e-03
         - 2.2808934815313296e-02
         - 2.8925421482778196e-02
         - -7.1892707128797034e-03
         - -4.2906704088150324e-02
         - 2.4631678859309584e-03
         - 6.8507911278032491e-03
         - 9.7170216916389798e-03
         - 4.7011352848521169e-02
         - 2.1974700532404089e-02
         - -2.2210727719793244e-03
         - 8.2948464580473499e-03
         - 1.0913000267491571e-02
         - -3.4914886891036123e-03
         - -3.3763629915497945e-02
         - -1.5638347786337428e-03
         - -2.1218891131836175e-03
         - 1.0623123900814555e-02
         - 1.4195215814745402e-02
         - -1.6107682378194592e-02
         - 1.5731186100038923e-03
         - -1.8696702078974312e-02
         - -3.3361376133761035e-02
         - 8.4865308845823292e-04
         - -1.0340828087958390e-02
         - -5.7582304156924505e-03
         - -9.9227581160809836e-03
         - -8.7155392326817519e-03
         - -5.1296330915315082e-02
         - -4.1416999521236071e-02
         - 9.3772811016175905e-03
         - -4.9209538289469558e-03
         - -4.4448065133778523e-03
         - -4.6989822533064114e-03
         - -4.4511515546416330e-02
         - -5.8635179828398680e-04
         - 5.7135042749300539e-03
         - 2.7548247079789570e-03
         - -2.8258338310762233e-03
         - -3.9220910303302478e-02
         - 1.0086837739476552e-02
         - 6.0821959625188679e-03
         - 7.6844559156595002e-03
         - -7.5252682535741459e-03
         - -1.6867184077603431e-02
         - 7.7138121657547123e-04
         - 5.2990691437247782e-04
         - 7.3798447388527862e-03
         - -2.8415272203365259e-03
         - -1.2016972369902646e-02
         - 3.2190449882746097e-04
         - 1.9363380722681661e-02
         - 2.2638147491044570e-02
         - -1.0539936284592424e-02
         - -6.2358026487584463e-02
         - 1.7450995338658007e-03
         - 8.1594581136750274e-03
         - 2.2199212516252485e-02
         - 3.1328009187557966e-02
         - -1.1672289483542608e-02
         - 4.4030163906277706e-03
         - -8.1608080294847223e-03
         - -1.1051346308053364e-02
         - -1.2556896061662421e-02
         - -5.9840901315567165e-02
         - -5.7133100471879273e-03
         - -3.1681917421007076e-03
         - 1.3314250996056466e-02
         - -9.6194596633940885e-04
         - -6.4845864265175537e-02
         - 1.4333447404416990e-02
         - -2.3796469511740438e-04
         - -9.1077986719929945e-03
         - -1.7271973599373017e-03
         - -5.0031331525742323e-02
         - -3.2679220087382839e-03
         - -5.1962554514456156e-04
         - 7.2353191914702897e-03
         - -2.9701124512437273e-03
         - -2.7003420457067891e-02
         - 8.6702316458909003e-03
         - -8.6028654921036316e-03
         - -7.2232283658023796e-03
         - -1.0187643899604819e-02
         - -1.9882113643487860e-02
         - 2.5007757539302570e-03
         - 3.9582870443403582e-03
         - 1.5779495022401736e-03
         - -9.6445814536713966e-03
         - -3.6273057912072255e-02
         - 2.6805193034129633e-03
         - 1.9925706138234696e-02
         - 3.1048979590628457e-02
         - -8.7777224265436007e-03
         - -6.0142963043052340e-02
         - 8.4435689505847119e-03
         - -3.2923368857676731e-03
         - 3.5560718467957529e-03
         - 4.0963090493794055e-02
         - 5.8312058140829797e-03
         - 7.8672706789594000e-03
         - 1.8622694292850961e-02
         - 2.7266167920225272e-02
         - -3.1104776991968796e-03
         - -4.5128682730388878e-02
         - 6.4225764796188101e-03
         - 7.2524302440863629e-03
         - 1.6064237049023270e-02
         - 4.7824062892965730e-02
         - 1.9551340676890950e-02
         - -7.7047542276468140e-03
         - -1.9199841515782887e-02
         - -1.6826212937025502e-02
         - -9.3243984467680102e-04
         - -3.8891175957656643e-03
         - -3.3473287899702968e-03
         - 7.0291454211253543e-04
         - -3.9002640159600623e-03
         - -2.2894616072021950e-02
         - -3.6647328288847175e-02
         - 1.5143006025268612e-02
         - 1.3472252595608026e-03
         - 8.4103226650831229e-04
         - -2.6537443269391107e-03
         - -1.0978773173960208e-02
         - -8.0014408828489386e-04
         - -2.7681124570749826e-03
         - -2.3878153481635897e-03
         - 5.6220937262976721e-03
         - -9.8787449337108674e-03
         - 1.7313231083203279e-03
         - 1.6495189696957818e-02
         - 2.3569088707072364e-02
         - 6.0591155459649611e-03
         - 4.6064033894376147e-02
         - 4.6706804611056319e-03
         - 5.7672670904158627e-03
         - -5.5592507443244232e-03
         - 2.0065957727490015e-02
         - 6.6213301075595185e-02
         - -1.3922525379130083e-02
         - -1.8486280663610268e-02
         - -2.6593577309242888e-02
         - 2.6744738324930321e-03
         - 5.6311003715656401e-02
         - -2.7974932498213288e-03
         - -6.9723966754340026e-03
         - -1.5643249873941681e-02
         - -5.0074887331980594e-02
         - -5.9348011802727654e-03
         - 4.3890734350570046e-03
         - -4.6965824905597859e-03
         - 8.5737126259030291e-04
         - -1.8298271984968342e-03
         - 2.4022394145433681e-02
         - 3.5039773091282323e-03
         - -2.1836585272651215e-03
         - -1.0651560004003279e-02
         - -1.4608345951696651e-03
         - 9.4982952833850796e-03
         - 1.7270880812189234e-03
         - 6.4225929646444828e-03
         - 1.0971368905030402e-02
         - -1.0825060238276527e-03
         - 1.5683158438594958e-02
         - 4.0689421471304830e-03
         - 9.6660080430213801e-03
         - 3.5591493775064629e-03
         - 2.4389562799084212e-02
         - 2.2328074668201390e-02
         - -2.6680073634043907e-04
         - -6.4315160489896023e-03
         - -1.7077112578920351e-02
         - -8.0786648585543679e-04
         - 1.0040526979260660e-02
         - -8.7562221663640060e-04
         - -6.8807416208876288e-03
         - -9.0379524521386149e-03
         - -1.8923653798921289e-02
         - -8.4189163407495382e-03
         - 9.6444466064855919e-03
         - -2.6603052040250864e-02
         - -4.1850950827583576e-02
         - -6.0978321189671635e-03
         - -2.0295125561441228e-03
         - -8.5436466093234149e-03
         - -2.3434609605210988e-03
         - -4.3468528008365186e-03
         - -5.0146642101734841e-02
         - -7.1537580204108692e-02
         - 1.2007206947382224e-02
         - -1.7944253194104767e-02
         - -1.5948897906479891e-02
         - -1.7417479244903724e-03
         - -3.7151150250743933e-02
         - 8.9408352509665263e-04
         - -3.6717187510258097e-03
         - -1.2936777588603570e-03
         - -2.4721546905028147e-02
         - -4.9663180111327955e-02
         - 2.4774565202147106e-03
         - -3.8969888076788993e-02
         - -6.0548626413945685e-02
         - -6.0035103861632967e-03
         - -1.8505263815859534e-02
         - -1.6678212657514398e-02
         - -6.9075170035749955e-03
         - -3.2474851300392567e-03
         - -6.8402910585789400e-02
         - -9.8277807499697861e-02
         - 1.5848579999884121e-02
         - -1.0827020827823951e-02
         - -1.9041910604315454e-02
         - 4.2712019043222634e-03
         - -2.6078886014337596e-02
         - -7.6746645048867447e-03
         - 2.9867353444209084e-03
         - 5.1708532180847790e-03
         - -1.5481624317447108e-02
         - -3.8515669244003098e-02
         - 1.1869117816945465e-02
         - 6.5462805453299598e-03
         - 2.0270097415493207e-02
         - -1.2287547172435364e-02
         - -3.5349835997059480e-02
         - 7.2000678729200619e-03
         - 4.8846444096342758e-03
         - 8.1871915301270897e-03
         - 3.1232783510432193e-02
         - 4.2872257067282536e-03
         - -3.0947859575687457e-03
         - 5.0414586318173272e-03
         - 4.3417295852956608e-03
         - -7.7806428407494058e-03
         - -4.4606631026161428e-02
         - 6.6131854599503796e-04
         - -1.8514531598343017e-03
         - 7.4201287482258075e-03
         - 4.3613195921046099e-03
         - -1.2150829954474583e-02
         - 8.0727881992274202e-03
         - 1.1976909092137514e-02
         - 1.7515159693355833e-02
         - -3.0698032160014575e-03
         - -5.5103316122333268e-02
         - -2.3238877617306585e-04
         - 8.1549366833594053e-03
         - 9.9588016995117313e-03
         - 2.2226559996029099e-02
         - -2.2797962270058397e-05
         - 4.8544873660385124e-04
         - 1.9426711763539283e-02
         - 2.3222456039983685e-02
         - 7.3429090337624975e-04
         - -6.7978703023741354e-03
         - 9.1535499747075269e-03
         - 1.3829697695062945e-02
         - 7.0287048634600701e-03
         - 3.7229993830944115e-02
         - 3.1545889098315016e-02
         - -8.7242712199341547e-03
         - 8.6757637837450337e-03
         - 1.4104413592369289e-02
         - -2.3764892444459798e-03
         - 2.4556699648228507e-03
         - 7.4924755090363454e-04
         - -5.8895339142689875e-03
         - 2.8518940804257860e-03
         - 1.1312591928161066e-02
         - 1.0878439671968915e-02
         - -4.7953201145856869e-03
         - -2.3110711448886316e-02
         - -3.0199363678246671e-02
         - 6.2929194271279850e-03
         - 4.1466857922815452e-02
         - -5.3210736197688560e-03
         - -1.0826933345017915e-03
         - -1.4680318494601774e-02
         - -4.4118614752137214e-02
         - -1.6988255442367581e-02
         - -7.8724566413236412e-04
         - -6.1090946221099866e-03
         - -1.7419730074652952e-02
         - 1.1251756614049967e-02
         - 5.1060193528097354e-02
         - -5.0033310461092299e-03
         - -8.2001301736126814e-03
         - -1.1426822546097457e-02
         - -2.2494402752571811e-02
         - 1.9795897860135619e-02
         - -1.5100509202515633e-03
         - 1.8088394621724256e-02
         - 1.5943360488291342e-02
         - -2.1509641852425460e-04
         - -8.6984591877775734e-03
         - -8.2246041025684641e-04
         - -3.8766945964106314e-03
         - -1.0999571930917010e-03
         - 2.9501570138687334e-02
         - 3.1205693930036357e-02
         - -1.8250416461070536e-03
         - -3.0114149182073318e-03
         - -9.3876182837089091e-03
         - 9.0186385410870578e-03
         - 3.6339477965863988e-02
         - -1.0244532608949308e-02
         - -6.0997823577927457e-03
         - -3.0058448254692530e-03
         - -1.8131985000446910e-02
         - 1.7912274481152479e-03
         - -1.2242154152817987e-02
         - 2.4818555621969329e-02
         - 3.4852513786372108e-02
         - 3.7733603947592934e-04
         - -6.4430486246584160e-03
         - 5.3273794864024228e-03
         - 6.4297347542762312e-03
         - 9.3380830983685742e-03
         - 5.9359178555301366e-02
         - 5.3127238988053424e-02
         - -2.1227470741265611e-03
         - 8.1574612274622066e-03
         - 1.5076663769573400e-02
         - 2.9190249970920199e-04
         - -2.0475461151454950e-03
         - 4.0032922864838083e-03
         - 7.8770507617145552e-04
         - 1.0862195795600172e-03
         - 2.0136680949840221e-02
         - 2.4058275188022924e-02
         - -7.3447459075176808e-04
         - -7.6621204016281792e-03
         - -9.9227031559555069e-03
         - -3.7082868730590056e-03
         - -1.4113109504921006e-02
         - 1.8091014338424488e-03
         - 2.0059065332191342e-03
         - 3.3863718451294378e-03
         - -1.7224562126441040e-02
         - -2.8093135807249394e-02
         - 5.8631595155966935e-03
         - 1.0263552596631044e-02
