%YAML:1.0
---
opencv_ml_ann_mlp:
   format: 3
   layer_sizes: [ 256, 100, 100, 26 ]
   activation_function: SIGMOID_SYM
   f_param1: 2.
   f_param2: 1.
   min_val: -9.4999999999999996e-01
   max_val: 9.4999999999999996e-01
   min_val1: -9.7999999999999998e-01
   max_val1: 9.7999999999999998e-01
   training_params:
      train_method: BACKPROP
      dw_scale: 1.0000000000000000e-03
      moment_scale: 0.
      term_criteria:
         iterations: 20
   input_scale:
      - 1.
      - 0.
      - 1.9658380635931165e+00
      - -2.6473386774051203e-02
      - 1.9798777660384134e-01
      - -2.3158247051776749e-02
      - 1.1309094329963454e-01
      - -3.8639768237812802e-02
      - 5.2431964560536275e-02
      - -9.1125503624448767e-02
      - 2.6816107762667799e-02
      - -1.7430985938534427e-01
      - 2.3061647263332485e-02
      - -2.1027004817206232e-01
      - 1.8163644538131504e-02
      - -2.6694057975316310e-01
      - 1.5607580954946432e-02
      - -3.0415866401965447e-01
      - 1.4676431831723272e-02
      - -3.1228216880574405e-01
      - 1.3562120583621098e-02
      - -3.7861224358030487e-01
      - 1.4537890625105930e-02
      - -3.3621738815053565e-01
      - 2.5021028140015961e-02
      - -1.7659127324829271e-01
      - 4.3218967277422388e-02
      - -1.0009040555706247e-01
      - 5.0990198910295199e+01
      - -1.9619160796573758e-02
      - 1.
      - 0.
      - 1.
      - 0.
      - 2.0003828006448190e+00
      - -2.7708265033941318e-02
      - 1.9405812895932156e-02
      - -2.3036842834867058e-01
      - 2.0724277826160230e-02
      - -2.1992932155572348e-01
      - 2.0003168173264405e-02
      - -2.3778294756175600e-01
      - 1.6794026028683941e-02
      - -3.0030225688997975e-01
      - 1.4600384801271552e-02
      - -3.3940417412020907e-01
      - 1.1690265025298976e-02
      - -4.4194059620265502e-01
      - 1.1331472097837079e-02
      - -4.7003591532267025e-01
      - 1.1091897692119693e-02
      - -4.7639679248874378e-01
      - 1.1011911316323168e-02
      - -5.0296343537440968e-01
      - 1.4138982617585873e-02
      - -3.6291868772672997e-01
      - 2.5379147668540585e-02
      - -1.9990839210094763e-01
      - 5.2294005490817183e-02
      - -9.2817332562193031e-02
      - 2.1035495249625478e-02
      - -2.0114433549199398e-01
      - 6.6251213788605851e-02
      - -7.6880977601552616e-02
      - 1.
      - 0.
      - 5.2071778115734491e-02
      - -8.5691033090033258e-02
      - 1.6389005078603070e-02
      - -2.7262249194430421e-01
      - 1.6133177371276900e-02
      - -2.8150190866103736e-01
      - 1.4203413007272844e-02
      - -3.4224815043996504e-01
      - 1.1726848189280872e-02
      - -4.4564279150084801e-01
      - 9.8287679859974855e-03
      - -5.7975738642761010e-01
      - 8.9973788562447629e-03
      - -7.0529203121987616e-01
      - 9.1878227318925466e-03
      - -7.0102132957176755e-01
      - 8.9646992275502265e-03
      - -7.0881831364520542e-01
      - 8.9292789365347288e-03
      - -7.2358423887017287e-01
      - 1.1100441770531549e-02
      - -4.8105188805569021e-01
      - 1.6355289763835119e-02
      - -2.8645984814911057e-01
      - 2.4704370524839342e-02
      - -1.8908966635268526e-01
      - 2.4918145265009392e-02
      - -1.7952761450069291e-01
      - 2.5495099455147603e+00
      - -1.9619160796573762e-02
      - 1.
      - 0.
      - 1.0552054910515649e-01
      - -5.0791153109099950e-02
      - 2.0178908486486725e-02
      - -2.3147902178380733e-01
      - 1.4376798156932906e-02
      - -3.5163690082335936e-01
      - 1.0385471293605071e-02
      - -5.3144522514978842e-01
      - 9.3107075141824307e-03
      - -6.4462409419372868e-01
      - 8.5186560712102559e-03
      - -9.1181741096808477e-01
      - 8.4087105152695178e-03
      - -1.0618366929511003e+00
      - 8.3327390693700779e-03
      - -1.0926051621755872e+00
      - 8.3049990173574180e-03
      - -9.3340647670880006e-01
      - 8.4331806489612894e-03
      - -9.8114329815710621e-01
      - 8.8122993348847458e-03
      - -7.2599241415474502e-01
      - 1.0969004869086372e-02
      - -4.7296289405513470e-01
      - 1.3640773181013244e-02
      - -3.3407560389297997e-01
      - 3.2347471558785819e-02
      - -1.4797194665733152e-01
      - 1.
      - 0.
      - 1.7582827210446621e+00
      - -1.9619160796573758e-02
      - 5.2865840288219862e-02
      - -8.0549722024375006e-02
      - 2.3254869129298771e-02
      - -1.9835088066883230e-01
      - 1.3137396916356242e-02
      - -3.7456998318423634e-01
      - 9.0376792120223821e-03
      - -7.2645693119799759e-01
      - 8.4928197881924180e-03
      - -1.0129035534380839e+00
      - 9.0646387630734602e-03
      - -1.5615871878505037e+00
      - 9.7946876287489867e-03
      - -1.8278907104691169e+00
      - 9.4075463509124529e-03
      - -1.6880156966025073e+00
      - 8.5345300481455173e-03
      - -1.2277507628013999e+00
      - 8.6102043160662528e-03
      - -1.2624235850317316e+00
      - 8.5276296147902050e-03
      - -8.3799792366964920e-01
      - 9.3466561653580173e-03
      - -5.9716825556990960e-01
      - 1.3966579328529634e-02
      - -3.6522148168713331e-01
      - 5.1214841000726562e-02
      - -8.8556943230960056e-02
      - 1.4142139811016971e-01
      - -2.7751024638778973e-02
      - 2.1328066270688343e-02
      - -1.9518586235025864e-01
      - 2.2324446273257449e-02
      - -1.9202975024430302e-01
      - 1.6489545604471672e-02
      - -2.8711096854142232e-01
      - 9.6429743980689566e-03
      - -6.4141919392649749e-01
      - 8.8527813631601171e-03
      - -1.4260778252218238e+00
      - 1.0325209136393166e-02
      - -2.0156802560898353e+00
      - 1.0659941273083272e-02
      - -2.1534229807009688e+00
      - 1.5031980048269828e-02
      - -3.4203335933687109e+00
      - 1.0891691445204197e-02
      - -2.2370042330737037e+00
      - 9.3860981955471972e-03
      - -1.6993640931554925e+00
      - 8.5271482807500621e-03
      - -1.3344084802437639e+00
      - 8.3230065325117890e-03
      - -1.1143381708829010e+00
      - 9.3967253385944718e-03
      - -6.6054025873792055e-01
      - 1.4024782665997973e-02
      - -3.3263935278188267e-01
      - 2.1255380542571339e-02
      - -2.0087520465049527e-01
      - 6.5762760550173480e-02
      - -8.2488110578516960e-02
      - 2.8415160607951191e-02
      - -1.6481667801649258e-01
      - 1.7466553020205861e-02
      - -2.6976046103542256e-01
      - 1.5665293792962012e-02
      - -3.3206926930960218e-01
      - 8.6233820443719807e-03
      - -8.8243841545097468e-01
      - 1.0538593489394526e-02
      - -2.0806443659325073e+00
      - 1.1262649106799716e-02
      - -2.3329760768499894e+00
      - 1.2019061760965996e-02
      - -2.5661043696765931e+00
      - 1.2019618684071474e-02
      - -2.5724851303491301e+00
      - 1.0498738816297070e-02
      - -2.1252937518220394e+00
      - 1.0589774582669520e-02
      - -2.1821047476341535e+00
      - 9.3608768729367669e-03
      - -1.7513015662550111e+00
      - 8.7648491900972295e-03
      - -1.3941674660566894e+00
      - 9.0562548954459705e-03
      - -6.9350214479078065e-01
      - 1.3396544760075034e-02
      - -3.5395949544992406e-01
      - 7.8207451656958638e-02
      - -8.6211754135123692e-02
      - 1.
      - 0.
      - 7.5963022055258816e-02
      - -9.9637530660399126e-02
      - 1.5396471172521778e-02
      - -3.1183926222452729e-01
      - 1.0847519182698974e-02
      - -5.3240074911315172e-01
      - 9.2254138829508843e-03
      - -1.5016091525155870e+00
      - 1.1598785765009107e-02
      - -2.4173360105439237e+00
      - 1.2697119093959527e-02
      - -2.7520211760877258e+00
      - 1.2364804875507956e-02
      - -2.6646891922939617e+00
      - 1.0978849141913376e-02
      - -2.2655081202194767e+00
      - 1.1351825153920610e-02
      - -2.3798081561714977e+00
      - 1.0724097415893684e-02
      - -2.1970411749430889e+00
      - 9.6190128533985043e-03
      - -1.8325089231018705e+00
      - 8.8936355583564830e-03
      - -1.4268176898991449e+00
      - 9.1296151642417528e-03
      - -7.4168375351795612e-01
      - 1.3332971360800139e-02
      - -3.6710559083449712e-01
      - 2.2871327031611367e-02
      - -1.9118106185523545e-01
      - 3.1909390867397212e-02
      - -1.3375179073082927e-01
      - 4.8933773799136805e-02
      - -1.2705082939460374e-01
      - 1.9452934693833315e-02
      - -2.6419016386619260e-01
      - 9.5606966009337407e-03
      - -6.6275234413644735e-01
      - 1.0446811208789413e-02
      - -2.0142690032035913e+00
      - 1.1520615850934774e-02
      - -2.3930344871311831e+00
      - 1.3429310991138038e-02
      - -2.9730603373231959e+00
      - 1.2876725608413809e-02
      - -2.7858813194526486e+00
      - 1.1745246871428378e-02
      - -2.4870413378174439e+00
      - 1.2935819362172387e-02
      - -2.8384243699493625e+00
      - 1.1852176593833509e-02
      - -2.5145129129589203e+00
      - 9.8003447850036670e-03
      - -1.8419180515953775e+00
      - 8.8313097416005282e-03
      - -1.3945178358343109e+00
      - 9.2081199688544002e-03
      - -6.8650980766640224e-01
      - 1.1207583350256033e-02
      - -4.5187389153775653e-01
      - 2.5122365668140283e-02
      - -1.7259906170462214e-01
      - 6.3181104840384000e-02
      - -7.5117204292722797e-02
      - 3.4610023918766525e-02
      - -1.5957365010333949e-01
      - 1.9404036609988438e-02
      - -2.6557175307960706e-01
      - 9.1775281856095736e-03
      - -7.8696862794517364e-01
      - 1.0117058303278617e-02
      - -1.8826253398959398e+00
      - 1.1649506451127681e-02
      - -2.4234290322837242e+00
      - 1.2058811653372510e-02
      - -2.5440566348963607e+00
      - 1.1863437271895965e-02
      - -2.4856936554335709e+00
      - 1.3104785097999285e-02
      - -2.8713295105737529e+00
      - 1.3851053275624199e-02
      - -3.0998859747208818e+00
      - 1.3917795812251799e-02
      - -3.1303152348746539e+00
      - 1.0030971364291484e-02
      - -1.9509718264249443e+00
      - 9.2079211859060570e-03
      - -1.5668204358531010e+00
      - 9.8644047513870639e-03
      - -6.1842492550269546e-01
      - 1.8554713964950696e-02
      - -2.6967516941594755e-01
      - 5.4198289635770239e-02
      - -8.1662370994103978e-02
      - 2.1415545148719878e-01
      - -3.3783661065698918e-02
      - 4.2051929663221452e-02
      - -1.5749653072019917e-01
      - 1.8813031129989721e-02
      - -2.8622010923852387e-01
      - 9.2923471009307475e-03
      - -7.7477938313647288e-01
      - 9.8344819149869395e-03
      - -1.7670206601372724e+00
      - 1.0678734558840395e-02
      - -2.0874152632049241e+00
      - 1.1048207194148809e-02
      - -2.2333149539756696e+00
      - 1.1684215302176696e-02
      - -2.4249219931787969e+00
      - 1.1703275226961031e-02
      - -2.4577238215947967e+00
      - 1.2563314795647838e-02
      - -2.7149279768264867e+00
      - 1.1055780151428773e-02
      - -2.2429961666587612e+00
      - 8.8261591934273211e-03
      - -1.4324798639225620e+00
      - 8.5540509781097639e-03
      - -1.0959684452680833e+00
      - 1.2216837712396107e-02
      - -4.4712497885372454e-01
      - 2.4190800763450412e-02
      - -2.0428614665494790e-01
      - 5.0365510673111152e-02
      - -1.2148572004991681e-01
      - 7.4895502628009647e-02
      - -6.3772122861017841e-02
      - 5.0492094253724119e-02
      - -1.3814901201932750e-01
      - 1.8477365578702377e-02
      - -2.9720902963357171e-01
      - 9.1615201703334464e-03
      - -7.7913459147703024e-01
      - 9.3894893837943600e-03
      - -1.5846632923747102e+00
      - 1.0262820586851244e-02
      - -1.9748170321318823e+00
      - 1.0452629402097105e-02
      - -2.0325920110322686e+00
      - 1.0988647483129910e-02
      - -2.1984778577666182e+00
      - 1.0514894722094343e-02
      - -2.0444248577267290e+00
      - 9.9495935426835193e-03
      - -1.8767406463989988e+00
      - 8.8235417853315713e-03
      - -1.4150801819141070e+00
      - 8.4991186086310587e-03
      - -1.0644271292313168e+00
      - 9.4706863351081780e-03
      - -6.9497856784602985e-01
      - 1.8750751500823944e-02
      - -2.5114752231442183e-01
      - 2.2567945364505227e-02
      - -1.9140639464016496e-01
      - 2.3883190113482378e-02
      - -1.8856601043811405e-01
      - 6.2703919725974985e-02
      - -7.0134780547675746e-02
      - 3.3177446134112692e-02
      - -1.8421843984662573e-01
      - 1.6374681273142244e-02
      - -3.2459545178618249e-01
      - 9.6173622971486676e-03
      - -6.8809470431592612e-01
      - 9.1482228719988387e-03
      - -1.4626244901891794e+00
      - 9.9501669836972884e-03
      - -1.8340542881400752e+00
      - 9.9301297904181574e-03
      - -1.8241866207760009e+00
      - 9.8988852027429158e-03
      - -1.8179289344287843e+00
      - 9.4739567919747397e-03
      - -1.6554527454486312e+00
      - 8.6180323255612718e-03
      - -1.2992272303595385e+00
      - 8.4602143469618089e-03
      - -1.1037471025324082e+00
      - 9.0712152586365016e-03
      - -7.7878773831274384e-01
      - 1.7819416355180986e-02
      - -3.0647476378475957e-01
      - 3.0642726481982893e-02
      - -1.4537315025888770e-01
      - 2.5700097419431699e-02
      - -1.6920137242935585e-01
      - 2.2139217258612301e-02
      - -1.9145013770192823e-01
      - 8.7157162302326063e-02
      - -5.9859767106445562e-02
      - 3.3760743085435793e-02
      - -1.7266171492559160e-01
      - 1.7925978028006696e-02
      - -3.1397705724929620e-01
      - 1.0547023886744956e-02
      - -5.9286935541900898e-01
      - 8.8807790293461870e-03
      - -1.0434112364840793e+00
      - 8.8819213417953412e-03
      - -1.3710487829771283e+00
      - 8.9379284629032014e-03
      - -1.3935052391674030e+00
      - 8.8368197160699161e-03
      - -1.3483953261022930e+00
      - 8.5429006159477936e-03
      - -1.1997269648387907e+00
      - 8.4238249918693487e-03
      - -1.0061106713547996e+00
      - 8.8730830720477587e-03
      - -8.2216847457119713e-01
      - 1.1265886131441843e-02
      - -5.1150764185014685e-01
      - 3.0315628035829455e-02
      - -1.7786956980314095e-01
      - 5.0578520060323255e-02
      - -8.9169210818161274e-02
      - 3.3792647167574637e-02
      - -1.3831711449352022e-01
      - 2.6004260754063247e-02
      - -1.7332505157469705e-01
      - 1.1733533029370002e-01
      - -4.5868678560369081e-02
      - 3.6960689780166901e-02
      - -1.6550538963508366e-01
      - 1.9410160855949429e-02
      - -2.9481935742572513e-01
      - 1.1616579577548207e-02
      - -5.2764033056158743e-01
      - 9.4665246542837388e-03
      - -7.9566522168307807e-01
      - 8.7771738546104892e-03
      - -1.0502079325168725e+00
      - 8.6300813058044299e-03
      - -9.8902259212537491e-01
      - 8.6397225987796741e-03
      - -9.2226296236723315e-01
      - 8.7523653642731878e-03
      - -8.0866939285071693e-01
      - 9.1947451478454571e-03
      - -7.1038339214970059e-01
      - 1.0153810861807569e-02
      - -5.9903577270173769e-01
      - 1.2561017489834285e-02
      - -4.1591031977883003e-01
      - 3.0021371039161155e-02
      - -1.7188072376403155e-01
      - 5.8542360648885558e-02
      - -8.1067316650765345e-02
      - 4.6869832094901379e-02
      - -1.0344184567000936e-01
      - 3.3142525165231203e-02
      - -1.4423820782759914e-01
      - 9.3153702893872856e-02
      - -5.9677150949710774e-02
      - 4.5631647825316403e-02
      - -1.7011351896094293e-01
      - 1.9857318769250388e-02
      - -3.1022189841780434e-01
      - 1.3727432649925443e-02
      - -4.7309729506982368e-01
      - 1.1061714096251205e-02
      - -6.5022364279591593e-01
      - 9.6792421548855968e-03
      - -7.8098710122750448e-01
      - 9.2474958754378781e-03
      - -7.5610643171149494e-01
      - 9.8800407423723074e-03
      - -6.7096462911483445e-01
      - 1.0064048494441190e-02
      - -6.0368027402323687e-01
      - 1.0784872005513169e-02
      - -5.3482425103138309e-01
      - 1.1896463264680019e-02
      - -4.6268041679766103e-01
      - 1.4025502908702973e-02
      - -3.5544045751509090e-01
      - 2.1616943023043601e-02
      - -2.2179199794247043e-01
      - 3.5639643522714891e-02
      - -1.3368637349093784e-01
      - 4.1951297666852141e-02
      - -1.2097921354869441e-01
      - 3.3581435424571565e-02
      - -1.3596669679598561e-01
      - 1.0767591302819303e-01
      - -4.1512606715755837e-02
   output_scale:
      - 5.2631578947368418e-01
      - 4.9999999999999994e-01
      - 5.2631578947368418e-01
      - 4.9999999999999994e-01
      - 5.2631578947368418e-01
      - 4.9999999999999994e-01
      - 5.2631578947368418e-01
      - 4.9999999999999994e-01
      - 5.2631578947368418e-01
      - 4.9999999999999994e-01
      - 5.2631578947368418e-01
      - 4.9999999999999994e-01
      - 5.2631578947368418e-01
      - 4.9999999999999994e-01
      - 5.2631578947368418e-01
      - 4.9999999999999994e-01
      - 5.2631578947368418e-01
      - 4.9999999999999994e-01
      - 5.2631578947368418e-01
      - 4.9999999999999994e-01
      - 5.2631578947368418e-01
      - 4.9999999999999994e-01
      - 5.2631578947368418e-01
      - 4.9999999999999994e-01
      - 5.2631578947368418e-01
      - 4.9999999999999994e-01
      - 5.2631578947368418e-01
      - 4.9999999999999994e-01
      - 5.2631578947368418e-01
      - 4.9999999999999994e-01
      - 5.2631578947368418e-01
      - 4.9999999999999994e-01
      - 5.2631578947368418e-01
      - 4.9999999999999994e-01
      - 5.2631578947368418e-01
      - 4.9999999999999994e-01
      - 5.2631578947368418e-01
      - 4.9999999999999994e-01
      - 5.2631578947368418e-01
      - 4.9999999999999994e-01
      - 5.2631578947368418e-01
      - 4.9999999999999994e-01
      - 5.2631578947368418e-01
      - 4.9999999999999994e-01
      - 5.2631578947368418e-01
      - 4.9999999999999994e-01
      - 5.2631578947368418e-01
      - 4.9999999999999994e-01
      - 5.2631578947368418e-01
      - 4.9999999999999994e-01
      - 5.2631578947368418e-01
      - 4.9999999999999994e-01
   inv_output_scale:
      - 1.8999999999999999e+00
      - -9.4999999999999996e-01
      - 1.8999999999999999e+00
      - -9.4999999999999996e-01
      - 1.8999999999999999e+00
      - -9.4999999999999996e-01
      - 1.8999999999999999e+00
      - -9.4999999999999996e-01
      - 1.8999999999999999e+00
      - -9.4999999999999996e-01
      - 1.8999999999999999e+00
      - -9.4999999999999996e-01
      - 1.8999999999999999e+00
      - -9.4999999999999996e-01
      - 1.8999999999999999e+00
      - -9.4999999999999996e-01
      - 1.8999999999999999e+00
      - -9.4999999999999996e-01
      - 1.8999999999999999e+00
      - -9.4999999999999996e-01
      - 1.8999999999999999e+00
      - -9.4999999999999996e-01
      - 1.8999999999999999e+00
      - -9.4999999999999996e-01
      - 1.8999999999999999e+00
      - -9.4999999999999996e-01
      - 1.8999999999999999e+00
      - -9.4999999999999996e-01
      - 1.8999999999999999e+00
      - -9.4999999999999996e-01
      - 1.8999999999999999e+00
      - -9.4999999999999996e-01
      - 1.8999999999999999e+00
      - -9.4999999999999996e-01
      - 1.8999999999999999e+00
      - -9.4999999999999996e-01
      - 1.8999999999999999e+00
      - -9.4999999999999996e-01
      - 1.8999999999999999e+00
      - -9.4999999999999996e-01
      - 1.8999999999999999e+00
      - -9.4999999999999996e-01
      - 1.8999999999999999e+00
      - -9.4999999999999996e-01
      - 1.8999999999999999e+00
      - -9.4999999999999996e-01
      - 1.8999999999999999e+00
      - -9.4999999999999996e-01
      - 1.8999999999999999e+00
      - -9.4999999999999996e-01
      - 1.8999999999999999e+00
      - -9.4999999999999996e-01
   weights:
      -
         - -7.1430755931613651e-03
         - 1.2808902925460130e-03
         - -3.4326694224786390e-03
         - 7.5649274084866915e-03
         - 5.5224201968136887e-03
         - -4.8119139778270267e-04
         - 3.3389165437350916e-03
         - -5.1048836605689044e-03
         - -6.4370760544782126e-03
         - -5.6009122409467617e-04
         - -5.4901627100325248e-03
         - -1.5970990410325285e-03
         - -2.9362142176175580e-03
         - -2.0023021034376877e-03
         - -7.1010474942952376e-03
         - -4.7406588123831556e-03
         - -1.1172556087401717e-03
         - -2.6851919724095023e-03
         - 4.9723496023428631e-03
         - 8.2876482644899079e-04
         - -2.8121325962755291e-03
         - -3.7351944473301047e-03
         - 4.2884299837111046e-03
         - -6.1132738364704110e-03
         - 3.7000529234943804e-05
         - -5.1597791914988035e-03
         - -6.5988549144013363e-03
         - 2.4168703561826296e-03
         - -1.4629211681989013e-03
         - 2.0157653592435258e-04
         - 5.2036340941392280e-03
         - 1.4993043828971104e-03
         - 1.1435101167041643e-03
         - -3.7028744429382799e-03
         - 6.4589040896360275e-03
         - -2.8758338937235721e-03
         - 5.4047009019236479e-03
         - 3.7330517272784491e-03
         - 4.3267653889866396e-03
         - -1.6193901523132654e-03
         - 5.2120792902080417e-04
         - 4.6459477522935340e-04
         - 1.0392175759386054e-04
         - -3.9725113429483539e-04
         - -2.7679401061414147e-03
         - -5.6837549484591845e-03
         - 1.4680813604084936e-03
         - -3.1754711115389521e-03
         - 7.6665253133677558e-03
         - 6.4171072420838148e-03
         - -4.9041227310957841e-03
         - -3.9300356675484793e-03
         - -2.9920914988666061e-03
         - -3.6747007287741990e-05
         - -2.4299375481407442e-03
         - -1.2559888057817584e-03
         - -6.6477393688821875e-03
         - 6.9389259124327815e-03
         - 4.1007244755581748e-04
         - -7.3477811365449406e-03
         - -7.6723862040217218e-04
         - -5.0600039858511815e-03
         - 6.6046767353494388e-03
         - 5.8008504378908015e-03
         - -2.8700715478293605e-03
         - -6.6788499800670810e-03
         - 3.5265442899857845e-03
         - -5.8567956481253725e-03
         - -4.6685607909807223e-03
         - -9.2746641719027446e-04
         - -7.1586406935396632e-03
         - -6.2177401088329143e-03
         - -2.1445156881932537e-03
         - -1.0382667408086008e-03
         - 9.0985384666674276e-04
         - -5.2692110484286996e-03
         - -2.9869102241273575e-04
         - 2.8291649461209233e-03
         - 5.0320121537821240e-03
         - 1.2407015645522605e-03
         - -4.1908288227559248e-03
         - -5.3413901938081853e-03
         - -2.0807581812217874e-03
         - -4.2585673440552405e-03
         - -3.4783702516311501e-03
         - 4.9836214280167123e-04
         - -5.9882821273331780e-03
         - -6.5046740105860635e-03
         - -5.0723069997134010e-03
         - -6.8283754190132983e-03
         - 2.4581667032877569e-03
         - -4.1373610178169944e-03
         - 7.0474090115814850e-03
         - -4.0669011536790421e-03
         - -6.0953348826399151e-03
         - 8.6803438655700361e-05
         - -3.4409204058792856e-03
         - 6.1069429110215149e-03
         - -3.9851044993607508e-04
         - 4.8721756342888856e-03
         - 2.6267359564903169e-03
         - -1.9865642296523827e-03
         - 3.2106355259137742e-03
         - -2.2266146075166364e-03
         - -5.5848605367886661e-03
         - 3.3197852795456805e-03
         - 6.4087643227364243e-03
         - 5.2391225636358287e-03
         - -5.6115446121882779e-03
         - 2.1174490048824421e-03
         - -6.0378676138289379e-03
         - -2.1129517759407987e-03
         - 6.6529731168001353e-04
         - -6.1974966277496043e-03
         - 3.2055735361405753e-03
         - -3.3382434534266975e-03
         - -5.6523937623136839e-03
         - -4.5475826656326077e-03
         - -2.3786937326906103e-03
         - 3.8927201550288204e-04
         - -8.3169244069982841e-05
         - 4.8563215169451336e-03
         - 1.7952600953415310e-03
         - 2.3195053939586308e-03
         - 3.3798204013074989e-03
         - -7.0306078536957108e-03
         - 4.2048341598890221e-04
         - 6.9173555114275549e-03
         - 2.5697882543668994e-03
         - -4.8673193728938123e-03
         - -6.9031719716318189e-03
         - 6.2333565843749666e-03
         - -6.6992271300012887e-03
         - 5.1408368740250053e-03
         - -2.8821258011890853e-03
         - -1.3199048906626953e-03
         - 8.2159792653033296e-03
         - -5.3891853618178729e-03
         - 6.0631933186900827e-03
         - 1.3038278029801943e-03
         - 7.5271446188574448e-03
         - -1.5540928569154043e-03
         - 2.3086228784555568e-03
         - -8.8513957479387038e-03
         - -7.4570916380280071e-03
         - -2.7638610356006512e-03
         - 4.5538525215440724e-03
         - -9.1153836539303139e-03
         - -7.1767869809902032e-03
         - -7.4642638524663940e-03
         - 5.3778396646062977e-03
         - 2.9755034912008252e-03
         - 4.1868609150644259e-03
         - -7.5051434859934986e-03
         - -2.2311562036565250e-03
         - 9.8808085649459004e-03
         - 3.4143929587813230e-03
         - 4.3455044646731429e-03
         - 4.8893604284343294e-03
         - -3.1050354757493283e-03
         - -2.0468074446382610e-03
         - -1.0178818992461914e-03
         - -5.4368692796473083e-03
         - -8.1258867971636447e-03
         - -6.2555337891195559e-03
         - -2.5135245199449673e-03
         - -3.2725124309147887e-03
         - 4.0729765106956922e-03
         - 2.4078196055352815e-03
         - 3.8449116132777674e-03
         - -2.4863119774200773e-03
         - -8.9668566462252353e-03
         - -3.9129392014863864e-03
         - -5.7510495491554662e-03
         - 1.9308824325470291e-03
         - -8.9710300171074453e-03
         - -2.9290880620001848e-03
         - -7.6361101294846459e-03
         - 8.0361527511431871e-03
         - -5.0660584910070363e-03
         - -6.1691108852906067e-03
         - -6.6011133944581550e-03
         - -9.0485466996937207e-03
         - 5.1145876984592699e-03
         - -4.9681705163019587e-03
         - -1.2156374387697162e-03
         - 4.8850635866990366e-04
         - -2.9819755795355632e-03
         - -1.0344407477961734e-02
         - -4.8861329892564715e-03
         - 3.7177447774953631e-03
         - -5.3561501373728107e-03
         - 6.9642634996043484e-03
         - -1.4417313695027072e-03
         - 5.4893853344815712e-03
         - -5.2756908890313266e-04
         - -5.8583685034198077e-03
         - 1.3306956236581124e-03
         - 7.1537247316906982e-04
         - -1.2347592257228493e-03
         - -5.0252130232595112e-03
         - 7.1111350399665849e-03
         - -5.6645411757139429e-03
         - 6.5430461010013118e-03
         - -7.7156735113324219e-03
         - 9.6630972161080263e-03
         - 3.2137996829835775e-03
         - 2.1136193938140540e-03
         - -2.6730000958908448e-03
         - 3.4664142627667477e-03
         - -1.0639973010182846e-03
         - -1.3050727271706340e-02
         - -6.3371285374625060e-03
         - -1.2641232874137114e-02
         - -5.5758540712696368e-03
         - 8.0345422587970816e-04
         - 9.5861724465823403e-04
         - -1.2939531179606588e-03
         - -8.8982504658834897e-03
         - -1.1460954955895974e-02
         - -1.4278004718672414e-03
         - 7.5394643680037690e-03
         - 5.5448930802992789e-03
         - -6.2463945115131614e-03
         - 4.5127105973875810e-04
         - 1.8331983066497944e-03
         - -2.3154377691992616e-03
         - 2.9283562492389923e-03
         - 1.1357655642586693e-02
         - 2.7972192599802371e-03
         - -3.9049015593566228e-03
         - 1.9190170197422832e-03
         - 8.3585892369204037e-04
         - 2.0795704128293620e-03
         - -2.2671274544254576e-03
         - -6.5957305722104675e-03
         - 3.9552906117938545e-03
         - 1.4461056977426970e-03
         - 3.3840286231971331e-03
         - 6.3318452433169265e-03
         - -3.9063801499723844e-03
         - 5.1624237992065856e-03
         - -9.8634822839261237e-03
         - -5.1764727707209416e-03
         - -2.9520940209197726e-03
         - 2.3169388528697394e-03
         - 3.8497253303059970e-03
         - -1.5638791607373154e-02
         - 4.4837849802738788e-03
         - -5.0581852786798652e-04
         - -8.7186378689984960e-04
         - -1.0435221711663754e-03
         - 1.4473209426581922e-03
         - 2.1400250838003116e-03
         - 1.5034789466263638e-04
         - -3.1139701743253386e-03
         - 8.2829086495639498e-03
         - -2.6006583764820990e-03
         - -9.0461840062405260e-03
         - -2.8959005150984408e-03
         - -7.6181807498722888e-03
         - 6.9851707898335056e-03
         - 1.8685622185016105e-03
         - -2.3089242940715214e-03
         - 1.7513101298560203e-03
         - 4.5733525239642055e-03
         - 8.2376898010829459e-03
         - -5.7754351183411292e-03
         - 7.5042849376757339e-03
         - -4.2646039466839860e-03
         - 3.7146906726009321e-03
         - 1.6772966130871225e-03
         - 1.9668641627721092e-03
         - 3.8475723727276985e-04
         - 4.0247092813238353e-03
         - 2.5578907136446761e-03
         - -7.5901540187115818e-03
         - 1.7778560147449162e-03
         - 5.1909584804681122e-03
         - 7.2275988365207407e-03
         - -5.1272075879971206e-03
         - -5.6814457764045832e-03
         - 5.9048074761604190e-03
         - 3.4192448932170521e-03
         - -7.4365648864225895e-03
         - 6.3446874192454959e-03
         - 5.5537259647848759e-03
         - 8.6786961132345932e-03
         - -5.3892733076962096e-03
         - 7.6177623750763703e-03
         - 7.3669388268795396e-03
         - -3.3709806892932704e-03
         - 2.4981599256169969e-03
         - -3.7306173640442495e-03
         - -8.7920213166856498e-04
         - -4.8896057983092902e-04
         - -4.7358496049732038e-03
         - -8.1743563456126711e-03
         - -7.4738508349164396e-03
         - -7.4478055730310628e-03
         - -5.4829109931563477e-03
         - 8.1880788222063426e-03
         - 9.1941509614993961e-04
         - -1.1870379189395034e-03
         - 9.4741665548926969e-03
         - 7.2488114491997659e-03
         - 1.6477524129907460e-02
         - -1.0074923873293116e-02
         - -1.5799410652715982e-02
         - 1.7414213959602791e-02
         - -5.6555847148047405e-03
         - -6.7228121808351549e-03
         - -1.2881036877909867e-02
         - -2.0560323766289006e-02
         - 6.8983324578567463e-04
         - -3.4676171534199318e-03
         - 2.9382432720867985e-03
         - -4.1680719727756749e-03
         - -1.4674767857541918e-02
         - -8.9073363602669847e-03
         - -2.0398749961169551e-03
         - 3.8809158328807947e-03
         - -4.8728227395664955e-03
         - -5.6065881486984702e-03
         - 1.7709066943310892e-03
         - -2.0498215019301588e-02
         - 8.9675691723470449e-04
         - 7.6034379066693969e-03
         - 1.8968465894456759e-02
         - 5.8931515207261004e-03
         - -4.7871749485857637e-03
         - -3.0463067023483665e-03
         - 3.0903045479115853e-03
         - 3.3395264548402559e-03
         - 7.5465740581836041e-03
         - -3.6283263119564727e-03
         - 3.4830210416240794e-03
         - 1.1547990811639361e-02
         - -1.0236131716018409e-02
         - -1.2099086086186759e-02
         - 1.0302009067567604e-03
         - 2.8535252386413714e-03
         - -1.5459920489455327e-02
         - 4.0244436057531230e-04
         - -7.3972654057546192e-03
         - 6.7345296312956177e-03
         - 1.6424902166547729e-02
         - -1.2381311865802295e-02
         - -2.7175806015943785e-04
         - -6.0845369278760466e-03
         - 5.9006918982122169e-03
         - 3.5281819791713217e-03
         - 6.3775325191826179e-03
         - -9.4260582134483091e-04
         - -4.4405050067042283e-03
         - -6.6620668830347316e-03
         - 1.2658672424608632e-03
         - 2.0984182821058572e-03
         - -7.4252515422729348e-03
         - -2.6482400661560078e-03
         - 5.6763142235839647e-03
         - 9.0443922981881669e-03
         - 8.1042460974176077e-03
         - 1.4840309198099406e-02
         - 5.0828980429122464e-03
         - -1.1541667081487053e-03
         - 5.4072958755840977e-03
         - -1.0534608115882076e-02
         - -1.1990959973894166e-02
         - -5.7610665309657727e-03
         - 3.8061330473554635e-03
         - 8.5328568620999384e-03
         - -1.1237172939706020e-02
         - -1.1062179788590904e-02
         - 8.6204785463497996e-03
         - -1.0011969967438699e-02
         - -8.4633400825879449e-03
         - -1.2265008441597756e-02
         - 6.7363976579890676e-03
         - 7.8931631550208207e-03
         - -1.0973698433701299e-02
         - -9.2147139306219556e-03
         - -9.1119987730654151e-03
         - -7.9961924588882443e-03
         - 1.1485700363665942e-03
         - 5.4303023965115039e-03
         - 5.6339466526664772e-03
         - 8.4469914569469911e-04
         - -1.4249698670401332e-02
         - 6.5544322068798793e-03
         - 6.6805805083549781e-03
         - -4.4406585664339797e-03
         - 1.2821299032573095e-02
         - -1.2735606063054826e-03
         - -2.2390016954356249e-03
         - -7.0432765748925834e-03
         - 7.0551779650989861e-03
         - -3.3165900316415044e-03
         - 5.0430353337064223e-03
         - -1.1173474132391946e-02
         - -6.1595344078849840e-03
         - 1.0013427950803879e-03
         - -1.8254015127369561e-03
         - 1.9551398164431200e-03
         - -1.4474917073396406e-02
         - -4.1666622966004454e-03
         - 1.0959215623994720e-02
         - -3.2661904085086119e-03
         - 1.2858335225346379e-03
         - -2.5529427362251350e-03
         - -6.6146748469281692e-03
         - -2.1001816180520423e-03
         - -2.5725445056736154e-03
         - -3.2456380822052933e-03
         - 5.4645768893647195e-03
         - 9.1509891890827408e-03
         - 2.4364426903425034e-04
         - -1.5098598673842148e-02
         - 2.4038163108949261e-03
         - -1.1610428683788988e-02
         - 4.3718817183856767e-03
         - -8.4931876303608843e-03
         - 9.3073042557980570e-03
         - -7.5181536961194567e-05
         - -2.2653894918016003e-03
         - 1.1981603166057755e-02
         - -5.7487087119392603e-04
         - 4.8258692840066758e-03
         - 4.2742824744306162e-03
         - -1.1808198569607208e-02
         - 2.0276372110758644e-03
         - 4.6529564819481565e-03
         - -2.7205093717092466e-03
         - 4.5202292074885157e-03
         - -2.8887471748198930e-03
         - 2.5871872284698046e-03
         - 7.7325264615278593e-03
         - 1.4463456807661875e-03
         - -6.5579308097642973e-03
         - 7.8203929588204577e-03
         - 5.9740057656810152e-03
         - 9.8824123068613628e-03
         - -6.6991246678218680e-03
         - -3.3487362769134854e-03
         - 8.8100239291329595e-04
         - 3.5060119887125596e-03
         - 1.1017010623859890e-03
         - 1.9518485771774202e-03
         - 1.4459756234119218e-02
         - -1.3413936357515282e-03
         - -2.8352507872569746e-03
         - 6.9883387652256357e-03
         - -2.6596876184070510e-04
         - 5.8130277715525998e-05
         - 5.4386834966975786e-03
         - 3.6671278325195304e-03
         - -1.7817499960870115e-03
         - 4.2826282133355646e-03
         - -4.6775209029413269e-03
         - 7.5453189542771778e-03
         - 3.1690798970771617e-03
         - 1.4688628772501209e-03
         - 1.0172641620185108e-04
         - -4.0136952376244872e-03
         - 3.2716437809338652e-03
         - 1.2829493143308383e-03
         - -1.0855721719631274e-04
         - 7.9476465696011554e-03
         - 8.4225412903270094e-03
         - -1.0511167222948593e-03
         - 7.6557516091978637e-03
         - -3.5845949696050373e-03
         - 2.0026486835678621e-03
         - -6.4463452900222293e-03
         - 4.6967695586850383e-03
         - 4.2398384441104942e-03
         - 1.8021069740690567e-03
         - 4.8177116076432609e-03
         - -7.5354612960744560e-03
         - -6.9294514711379998e-03
         - -4.1296746664647816e-03
         - 3.3699765654438721e-03
         - -4.1939726562383040e-03
         - 1.6355551560851375e-02
         - -2.6167966833080631e-03
         - -8.0372828967987739e-03
         - 5.2501815044082838e-03
         - 3.3709773138139230e-03
         - -9.1104502989094102e-03
         - -5.6900659728340167e-03
         - -4.4569741847273296e-03
         - -1.2202623059008565e-03
         - -2.1844561483981392e-03
         - 8.3821769583762064e-03
         - 6.6151591699145744e-03
         - 9.3628126942042565e-03
         - -5.3924378846906696e-03
         - 5.6046000888498992e-03
         - -1.0485657882334470e-02
         - 8.6079061107927294e-03
         - 8.3691737293820258e-03
         - -2.1629276040492165e-02
         - -2.4009585755047098e-02
         - 3.0590472211205260e-03
         - -4.3079819515243242e-02
         - -5.2063896556413967e-03
         - 1.3581915338963392e-02
         - 2.0946323079597599e-02
         - -1.1067918157854009e-02
         - -7.3862318301526585e-03
         - 1.1917469902180195e-02
         - 3.1254456640414624e-02
         - 1.0736940932184462e-03
         - 2.9516611327854774e-03
         - -1.7428135066312769e-02
         - 2.2223573162100909e-02
         - -6.8650683778410573e-03
         - -1.5936678419819970e-02
         - -3.4295005360430088e-03
         - -1.7273616045401174e-02
         - 4.6459404263847438e-04
         - -2.8106087815257183e-02
         - -1.6665046626262799e-03
         - -2.5998284906520196e-02
         - -2.6703097716681223e-02
         - 2.9144119845893122e-02
         - 1.4677612079270199e-02
         - 3.7250569864404918e-03
         - 2.0005259835719708e-03
         - -1.2544867637131781e-02
         - 6.7508699809085192e-04
         - 1.3390689522774049e-02
         - -1.0247366388978985e-02
         - -1.6704455397855787e-02
         - -1.7062295615030993e-02
         - -7.0161901917350459e-04
         - -5.2291975892231543e-03
         - -8.4353337894101776e-03
         - -1.4996254088908640e-02
         - -1.0568188702770917e-02
         - 3.3340870888135293e-03
         - 1.7641766261281857e-02
         - -3.5206138750947273e-03
         - -2.8397733245764299e-02
         - -3.4084804915424587e-02
         - 1.6393818147107133e-02
         - 3.0764677646941765e-02
         - 7.0370356019710460e-04
         - 1.5382853717517127e-02
         - -4.4791745157215434e-03
         - -9.1902045308331435e-03
         - 2.5356360803856889e-02
         - 2.7306049366861450e-02
         - -2.8122795689550121e-02
         - 1.0829908048125069e-02
         - -1.1081371435901740e-02
         - 6.9173908574493787e-03
         - -1.5779212397544779e-02
         - -1.1918236256500113e-02
         - 1.4435548086667534e-02
         - 1.7336241658057638e-02
         - -4.7366021623716182e-03
         - 3.5333878079710514e-03
         - -8.7920229721328170e-03
         - -3.5568515516394339e-02
         - 1.0580222996213534e-02
         - 1.8693260762245180e-02
         - 9.1045731464660194e-03
         - -2.6755399738899103e-03
         - 1.4259217992382799e-03
         - -6.6469951170419943e-03
         - -1.4199340252748787e-02
         - -1.4615365036324745e-02
         - -1.3190662385741432e-02
         - -2.6384096942330864e-03
         - 3.8400834383306632e-03
         - 2.5937444181147518e-02
         - -2.5413730328803081e-02
         - -1.0504254939937395e-02
         - -2.2764828958141983e-02
         - 7.1850605959900991e-04
         - -1.2055792123871001e-02
         - 1.4723065135615492e-02
         - 2.7734535966778905e-02
         - 7.7298483962606685e-03
         - -2.0363244073924817e-02
         - 2.0451037136101032e-02
         - 4.0887863150689617e-02
         - -1.9230020446398758e-03
         - -1.1951850480023700e-02
         - -1.2392724701063794e-03
         - 3.4290043450826689e-03
         - 2.8629093700635192e-03
         - 1.8528763152913592e-02
         - -1.4021322127151051e-02
         - 1.9003674036816996e-02
         - -2.0786970434764794e-06
         - 1.3877744453237749e-02
         - -2.3726852021411738e-03
         - -2.0353797964355849e-03
         - 1.1790231519561711e-02
         - -4.7590625212632440e-03
         - -8.3771066112687011e-03
         - 7.1953828119586463e-03
         - -5.3453788831488965e-03
         - -9.6907122494894928e-04
         - 5.7404106127551431e-03
         - 1.1205532094918204e-02
         - -8.2457906861765386e-03
         - -3.4409041561050619e-03
         - 9.5066750566970780e-04
         - 6.6537673657127037e-03
         - -1.3105871997300532e-03
         - 1.1008020918870695e-02
         - -1.4946246073855959e-02
         - -6.3609047125228546e-03
         - -2.1524358678648458e-03
         - -5.4843813089403889e-03
         - -2.3084425179076412e-03
         - 7.1250709215876021e-03
         - 2.0789865102463566e-03
         - -2.2224820705171629e-02
         - -1.8675176825266098e-03
         - -2.7137079763456322e-04
         - -2.0793450133719662e-02
         - 2.4546397401130987e-02
         - 1.3494958210045285e-02
         - -2.4529746961659542e-02
         - -1.8351014654951349e-02
         - -1.0905376752132951e-02
         - 3.9949442303588208e-03
         - 1.6939294565688264e-02
         - -7.1823312389237498e-03
         - -1.3107818177923124e-02
         - -6.9396495419276312e-03
         - 5.2355294391214884e-03
         - 1.7752109841323908e-03
         - -1.3165839929662745e-02
         - -9.0299207443677743e-03
         - -4.7303686741626706e-03
         - -3.1652902804662035e-03
         - 2.0719481262198684e-03
         - 2.4487048867080060e-03
         - -1.5642652392559315e-02
         - -1.5408507968699988e-02
         - 4.0001356340791661e-03
         - 1.0774888667666191e-02
         - 2.2231389085035028e-02
         - 2.5468113056882056e-03
         - 1.1415295210838465e-03
         - -5.8670698990597207e-04
         - 1.3827556191110431e-02
         - -1.7251254858814890e-03
         - -2.3857963708914871e-02
         - -4.2538175795219721e-03
         - -6.7571726004045018e-03
         - -2.3962475171563120e-04
         - -7.4136835761124597e-03
         - 3.2525039057229540e-03
         - 8.0978229953262270e-03
         - 1.2390715420590536e-02
         - -7.8265813865555957e-03
         - 8.6206909238408565e-03
         - 9.1433931401562109e-03
         - -1.4256546797939872e-02
         - 4.8697139547861567e-03
         - 1.6112887947664602e-02
         - 2.2154533349851659e-02
         - -1.0208860123155063e-02
         - -8.0395910039426140e-03
         - -3.1358479984538510e-03
         - 2.0889611058192509e-02
         - -1.2372727099136916e-02
         - 8.0994382458715770e-03
         - 2.4563736465649365e-03
         - -1.1554419440439920e-02
         - 5.7448278203117119e-03
         - -6.2315273008604335e-03
         - -1.7366389752586017e-02
         - -1.6444996324740380e-02
         - -1.6333510515016324e-02
         - 1.1654813988836779e-03
         - 6.1648289596044686e-03
         - 1.0540181069299930e-03
         - -1.3229152241787107e-02
         - -1.3449257288282392e-02
         - 1.9396328360014446e-02
         - 2.6986462687013029e-02
         - 3.9908508919826325e-03
         - -5.0580918076960947e-03
         - -2.1219551458771507e-02
         - 1.3864407585669009e-02
         - 2.7668820344072548e-03
         - -8.0698493357059438e-04
         - 1.3788641832453493e-03
         - 1.8435871100811840e-04
         - -1.8670454954461891e-02
         - 1.2434664760879665e-02
         - 7.0266325038642668e-03
         - -1.0414602846136031e-02
         - -1.2832385873151301e-02
         - -1.2280126813179365e-02
         - -1.3889086419630969e-02
         - 1.2372409099151455e-02
         - -3.3507815743620815e-03
         - 4.1478632153676620e-03
         - 9.7061353448437294e-03
         - 1.2274277556324428e-02
         - -1.3944337796434818e-02
         - 1.6540828177111219e-02
         - 1.4708477252653106e-02
         - -4.4362806094803784e-03
         - -1.3361021862350128e-02
         - 7.1520456840740718e-03
         - 2.9393628074649036e-03
         - 1.3804225758866194e-02
         - -2.8695060069837404e-03
         - 8.2404996142559968e-03
         - -2.7155323608867941e-03
         - 6.2605203620478989e-03
         - 1.7878749795100801e-02
         - -6.4966271362838718e-03
         - 7.2101879879676008e-03
         - 9.3532423867292123e-03
         - -8.0697320220307952e-03
         - 2.3840845446879221e-02
         - 8.3908059478995291e-03
         - 3.2314869911045947e-03
         - 4.0734628855974972e-03
         - -2.9978413982145544e-03
         - 1.3328789647376479e-02
         - -2.4084958805686632e-02
         - -5.4789353964808992e-04
         - 7.4554800929005731e-03
         - 1.3776576787132322e-02
         - 2.2233498306190457e-03
         - -2.9646074004907874e-03
         - -2.5636369655911293e-02
         - -4.0425559783966586e-02
         - 4.4787715313582693e-03
         - 9.9550216959515634e-03
         - 6.3668820431432430e-04
         - -1.7957582691923012e-03
         - -1.4961561304336580e-02
         - -8.6223802190441255e-03
         - 1.3279483847703978e-02
         - 3.2207206439653753e-02
         - 1.1289465654077943e-02
         - -1.0400113103413247e-02
         - 2.6730739544351997e-02
         - -7.8995027643009152e-03
         - 3.9060864525603308e-03
         - -5.4823939388626433e-03
         - 9.8147144638082301e-03
         - -1.1713364278847976e-02
         - -1.1281603931611180e-02
         - 1.6196857990200385e-03
         - 2.1435646299245617e-02
         - -8.7910134215211481e-03
         - -4.4003808232519152e-03
         - 1.5406660792814696e-03
         - 1.6310603079848530e-03
         - 1.1925601173404254e-02
         - 3.9297619786351289e-02
         - -2.4930859608725702e-03
         - 4.8326620215434057e-03
         - 6.6863674127285513e-03
         - 7.0802403872099427e-03
         - -4.0619211380440836e-03
         - -1.3858027821386542e-02
         - -1.0294344722214308e-02
         - 3.1246172413527860e-02
         - -8.3704362369165768e-03
         - 6.7122344491762128e-04
         - 3.5579827270868247e-03
         - -2.0353646027065308e-02
         - -2.2306625911687080e-02
         - -1.7704655983631731e-02
         - -1.2598120054286153e-02
         - -1.3399930724764988e-02
         - -1.3681182246205664e-02
         - -1.3171641283299425e-02
         - -7.0366831861266551e-04
         - -2.5153756821075630e-03
         - -2.3456258205897536e-02
         - -2.5833055778139352e-02
         - 3.5946937933415690e-02
         - 7.3759006051339433e-03
         - 1.6474021813059115e-02
         - -1.1778712482896341e-02
         - -2.2038551182214424e-02
         - 1.2296202310319962e-02
         - -3.3749674772215688e-02
         - -4.6643965217877774e-03
         - -1.9968224033891948e-02
         - 6.0128765185388242e-03
         - -2.3417984364830675e-03
         - 9.3824694276630656e-03
         - -4.2512973231456147e-03
         - 4.1535043364828112e-04
         - 1.0864492038585914e-02
         - -1.3987927838029017e-02
         - 3.1521975893718298e-03
         - 5.9799004238538459e-03
         - -1.1186029135127479e-02
         - 6.7445731382278678e-03
         - -2.4175694008426053e-02
         - -2.3626510903366531e-02
         - -1.8652485414793901e-02
         - 1.5559450155578615e-02
         - 5.7585831378449536e-03
         - 5.1166929946414808e-02
         - -2.0932662806108549e-02
         - 3.2033835919320866e-02
         - -7.3604202672498129e-03
         - -1.0509124205535824e-03
         - -1.0905150187334163e-02
         - 7.3510826689068215e-03
         - -9.8156744922752309e-03
         - 4.7567565491396478e-03
         - 8.8153995125826740e-03
         - 9.4261331861632078e-03
         - 2.0551012720219881e-02
         - -1.1480801292773757e-02
         - 3.0592868213104780e-03
         - -1.4074427209420830e-02
         - -6.7744620126911391e-03
         - -1.3654127582135205e-03
         - 1.7411961168540612e-02
         - -2.9503685658353097e-03
         - -1.6824397995887322e-03
         - -2.2691331398710629e-02
         - 3.6426983980508416e-03
         - 4.1711316512949972e-02
         - -1.3250828911761051e-02
         - -1.6857237379424937e-02
         - -1.4381006517028623e-02
         - -1.0569515464459566e-02
         - -6.5944509596105845e-03
         - 1.5476696050288620e-02
         - -3.5625202886471279e-03
         - 1.2564060054479661e-02
         - -2.2783810419238274e-02
         - 1.0816908347607741e-02
         - 1.9612015371250420e-03
         - 1.4366650308348541e-02
         - -5.1932455157479730e-03
         - 1.0706285776193546e-02
         - -2.1915566156455114e-02
         - 1.1316408024234412e-03
         - -6.4613087485775470e-03
         - -1.5542431236795686e-02
         - -3.4364342254780526e-04
         - 1.8643960338475898e-02
         - -9.9050103060785762e-03
         - -1.8860477975715974e-02
         - 1.0787094164033728e-02
         - 4.3185208333887237e-03
         - -2.2955429600484941e-03
         - 5.7162398728719454e-03
         - 1.9984871556697637e-02
         - -1.3174716335014450e-02
         - -2.8676501394894038e-03
         - 1.0118858184742610e-02
         - 1.8777885409270674e-02
         - 1.2198214012101812e-03
         - -1.7560521006194325e-02
         - -9.6119960972247346e-03
         - -1.2637222096987089e-02
         - -1.1332449371171033e-02
         - 1.9994980687838729e-02
         - 7.5643224124932729e-04
         - -7.4781785331274608e-03
         - 2.0101311119199609e-02
         - 1.2132783988876620e-03
         - -3.6897878435399142e-02
         - -2.5332645489658204e-02
         - 9.6892678710609800e-03
         - -2.5868114277542691e-02
         - -1.2477099280839409e-03
         - -5.2322510304630768e-03
         - -1.1121136031399912e-02
         - -1.7176641850478961e-02
         - -1.2529099440045348e-02
         - -4.1600099231777722e-03
         - 1.1024366366642406e-02
         - -4.2716210058288719e-03
         - -2.0847144847525114e-02
         - 1.4071296783767300e-03
         - -2.6607567499537122e-02
         - 1.0038571298716667e-02
         - 1.4359946101487917e-02
         - -2.1551625909287910e-02
         - -1.8751150041308564e-03
         - -2.3065168191286945e-02
         - 1.3753208846364693e-03
         - 3.0950145314531594e-02
         - 3.3809281516849483e-02
         - 4.0392191948172784e-02
         - -5.2691595023337708e-03
         - 3.4505646570797362e-02
         - -9.6119796446092354e-03
         - 4.2233358004614332e-03
         - -1.6268388273086242e-03
         - -6.2538140824042003e-04
         - 1.8539138340651453e-03
         - -2.6968950389235368e-02
         - 7.2337135769058401e-03
         - -2.4275936570533365e-02
         - 1.4787806849420129e-02
         - -6.9449606016931910e-03
         - 4.0367368434650830e-02
         - -1.1521943504633744e-02
         - 3.0460584862547980e-02
         - -1.3561125870333267e-03
         - -1.4396016158745381e-02
         - -5.1117042029737011e-03
         - 1.5942063931704085e-02
         - -1.8370211510887358e-02
         - 8.8673162409839048e-03
         - -1.3954567118059652e-02
         - 1.0799069792017809e-02
         - 1.6650891993780545e-02
         - -1.6802406512318398e-02
         - 1.2586180356735021e-02
         - -1.9107605606201679e-02
         - 6.2422016487158761e-04
         - -4.2880393768681161e-03
         - 7.6177370862338910e-03
         - -1.5112775407417406e-02
         - 6.7433843001404670e-03
         - -2.2886317721496682e-02
         - 9.7304195463067383e-03
         - 2.5236064853876257e-02
         - -3.3310322452989524e-02
         - -3.8646519255630860e-03
         - -2.0168903319209338e-02
         - -3.5107787139127605e-03
         - -2.1582090800171001e-03
         - -5.3820112662607252e-03
         - -4.1150352765340070e-03
         - 4.7125873582221775e-03
         - -6.9098882321140366e-03
         - 1.7398348386929625e-02
         - 1.3554208353765715e-03
         - 2.6520860699403660e-02
         - 5.6148849309480562e-03
         - 1.6129788142760473e-02
         - -7.6905864050132748e-03
         - -3.4177881218255719e-03
         - -4.6719982133386819e-03
         - -2.3749898457196300e-02
         - -2.1045235564976080e-03
         - 1.6952962913420744e-02
         - 1.2726565907333925e-02
         - -1.9368011135169325e-02
         - -8.8364617270581831e-03
         - -1.8617362442752281e-02
         - 3.0270542594080115e-03
         - 2.7232076579638213e-02
         - 1.1942815486592904e-02
         - 5.4264816548482593e-03
         - -1.0023228841026688e-02
         - 8.2542124026379320e-03
         - -2.7851267225164466e-03
         - -3.4759585690071607e-03
         - -2.1135950547809378e-02
         - 9.5375028371054282e-03
         - 7.8227475002284864e-04
         - -2.9463057560926913e-03
         - 2.1525807618048586e-02
         - 1.4601130766395741e-03
         - 6.2207542216998106e-03
         - 3.3476088174890568e-02
         - 4.9716791975032357e-03
         - -4.9168145147330269e-02
         - -7.1399698577656809e-03
         - -1.3652122527339102e-02
         - -1.7518920155265832e-02
         - -2.5711153163006577e-02
         - -5.2657128838757110e-03
         - -1.2956754827817853e-02
         - -1.0441146621607444e-02
         - -4.9781287028300876e-03
         - 6.2394408118964248e-03
         - 2.3274801137976735e-02
         - -1.5620618193286924e-02
         - -1.0647532317922700e-02
         - -8.1157834890147953e-03
         - -1.6863426632905743e-02
         - 2.2377374815371699e-02
         - 1.5652881203202695e-02
         - -6.8595128146185366e-03
         - 8.6129266924020818e-03
         - -1.5429808775402166e-02
         - -3.1378922623412527e-03
         - 3.6424683399907433e-02
         - 4.4969618385976594e-02
         - 6.2783413623380288e-02
         - 8.0264524864187281e-03
         - 2.5214588360494301e-03
         - -1.7832563413739764e-02
         - 1.9212623947886465e-02
         - 5.9199234851433956e-03
         - 9.9981088490610302e-03
         - 2.9452193153944690e-03
         - 2.3735663939655791e-02
         - -2.5531176624037761e-03
         - 5.7644100556878373e-03
         - 1.1838759976551667e-02
         - -1.2341669394294447e-03
         - -1.6501832570639093e-02
         - 9.3298998998100598e-04
         - -1.1883673144339841e-02
         - 6.8305084478084898e-03
         - 7.3519203444785998e-03
         - -7.0902418128057881e-04
         - 2.1676649146519959e-02
         - -3.5299135041995354e-03
         - -2.0533243397332247e-02
         - -2.0086082561403578e-02
         - 1.5773869830466424e-03
         - -3.5002038359148390e-03
         - 1.7519118778845302e-04
         - 6.0751137328249761e-03
         - -1.4992543880721697e-02
         - -4.7104219556265477e-03
         - 8.6347387211976132e-03
         - 1.2697165617333439e-02
         - 3.6878123352430225e-03
         - 1.3523988431952606e-02
         - -8.7974363216292185e-03
         - 3.0998709945143952e-02
         - -1.0280695288395909e-02
         - 2.6739280338073557e-03
         - 1.5601730294518477e-02
         - -6.0334989898572118e-03
         - 8.8926823583280953e-03
         - -5.3513095422981685e-03
         - -2.4241767251506108e-02
         - -3.8786248111496676e-03
         - -5.8765639393517711e-04
         - 6.3816622584181911e-03
         - -2.1274954646673143e-03
         - -5.8770988512783714e-03
         - 4.2426221239369438e-03
         - -1.4100515566034026e-02
         - -8.4842948303181093e-03
         - 3.2276271603013357e-02
         - -6.6767326565847097e-03
         - 2.2703982090063097e-02
         - -7.6732348763587184e-03
         - -2.1966054764475402e-02
         - -1.2581509073660811e-02
         - -9.6578590942506919e-03
         - -1.6566431552992113e-02
         - -5.3178879184854581e-03
         - -3.5458170165158114e-03
         - 2.4995051754253712e-02
         - -1.7203837813670717e-02
         - -5.8596622178251050e-03
         - -1.6357823148258248e-03
         - 1.0147597499668619e-02
         - -1.3119126387511483e-02
         - -7.3578786878499549e-03
         - 4.7857311933226736e-04
         - -6.5374557275145115e-04
         - 2.0417771025814831e-02
         - 5.6770834769327089e-03
         - 3.3723991459732121e-03
         - -7.8838263679002919e-03
         - 3.5249864839466262e-03
         - -3.2751028955792108e-05
         - 2.0853256784474947e-02
         - -4.8739034585311243e-03
         - 3.6307122855687335e-03
         - -7.9709708029112117e-04
         - -1.0154864908672448e-02
         - -1.3280725131151134e-02
         - 6.2976052805382675e-03
         - -2.7414030133205360e-03
         - 2.1905086590371008e-03
         - -1.1085244751226738e-02
         - 5.6562586065664255e-03
         - -1.5581456171117492e-02
         - 1.3247106236594614e-02
         - -2.4302340199500443e-02
         - 1.0154669060348826e-03
         - 1.4205645067947297e-03
         - -5.7519034238920491e-03
         - -2.0882768893456939e-03
         - 6.8445576292628452e-03
         - -7.7817816228145480e-04
         - 7.0891563469777643e-03
         - 9.0356753285779495e-03
         - 3.6193627422516388e-04
         - 3.8955199538751395e-03
         - 2.9745945466527427e-03
         - -6.5547296889115350e-03
         - -1.1773105189376829e-02
         - 3.9426314282891482e-04
         - 1.0551263523119726e-02
         - -1.3613925646572859e-03
         - 1.9602531150395082e-04
         - -2.3672569054299198e-02
         - -1.1119133066444407e-02
         - 1.4468916616533966e-02
         - -1.8598689794100301e-02
         - 9.5877907118701693e-03
         - 6.2045863296881047e-03
         - -2.0185473405510124e-02
         - -2.6392483887492966e-04
         - 1.5744586816570007e-03
         - 7.9180086828213626e-03
         - 1.0140500939464652e-02
         - 2.3713611986001460e-02
         - 1.4186968151214015e-02
         - 1.1109823864010816e-04
         - -7.9061700934616886e-03
         - -8.4107866440253189e-05
         - -1.2224118189184631e-03
         - -3.3247707001330888e-02
         - -5.9208460103319241e-03
         - 9.5810231849342772e-03
         - 5.1865921660390196e-03
         - 2.1486098927017264e-02
         - 9.9550878833139927e-03
         - 7.7292940813908848e-03
         - -8.8312312194778284e-03
         - 9.8061803759313493e-04
         - -6.9622281984754114e-03
         - 8.7396729959417167e-03
         - -6.9886122310232777e-03
         - -8.1055507641894925e-03
         - -2.9695323128814059e-02
         - 2.2576058081905714e-02
         - -2.4303927778307642e-03
         - -1.2020157635055410e-03
         - -8.7157881597405788e-03
         - -1.7595425159661716e-02
         - 1.7001825024980190e-02
         - 2.3998037466334256e-02
         - -2.1485514091404489e-02
         - -2.6007861064160772e-03
         - -1.1873504954619160e-02
         - 2.0037129532116744e-02
         - -7.5762789691485467e-03
         - 1.0116848856715425e-03
         - 1.9195255054308216e-02
         - -8.7832260603412059e-03
         - 2.1294382514210645e-03
         - -3.9690570971225294e-03
         - 7.3472420060454241e-03
         - -2.4958753318303734e-02
         - -1.2334507565923299e-03
         - 2.0704934874915610e-02
         - -8.5847618834451449e-03
         - 1.1424130164809664e-02
         - -3.7041707121411530e-03
         - 1.8686849159434811e-02
         - 1.9091430786305669e-02
         - -1.3841071375622004e-02
         - -1.4417819809764519e-02
         - -2.4474870349483997e-02
         - 2.2098465435100589e-02
         - -7.3375348184611631e-03
         - 1.3485504327708070e-02
         - 1.0706600226064542e-02
         - 2.7198915552912588e-02
         - -1.1764931800592397e-02
         - 7.5326730442122937e-03
         - -9.7625263744477997e-03
         - 1.0637998584236326e-03
         - 1.5836732191503517e-02
         - -6.2954700304602811e-04
         - -2.3842584125442537e-03
         - 1.2688969495363599e-02
         - 7.1061203770905550e-04
         - 1.7518908280793638e-02
         - -9.7727461421094983e-03
         - -1.3696166437831564e-02
         - -4.4177930668878890e-03
         - 1.1242233272959609e-02
         - -5.7188413211507862e-03
         - 6.6438023180376412e-03
         - -3.0598993141268678e-04
         - -2.7945155969026909e-03
         - 2.5192953227504266e-02
         - -8.4136269678201075e-03
         - 1.0355243977559325e-02
         - 1.5042092597188000e-02
         - 1.8175614204649030e-02
         - -5.1814618548137801e-04
         - 3.1180583968533421e-02
         - 4.2324036863154967e-02
         - 5.3931811939546366e-03
         - 1.5066950098503925e-02
         - 1.0342914629461693e-02
         - -6.1406671599579781e-03
         - -1.6437694752615755e-03
         - 2.3695589081430221e-03
         - -3.7552295936378843e-04
         - -5.1435038782974346e-03
         - 6.9984474196059859e-03
         - -3.6296583902287001e-03
         - -1.0430732453023167e-02
         - -7.5535958640075818e-04
         - -4.9538155877629419e-03
         - -4.3010394460091944e-03
         - -2.4740035559062457e-03
         - -1.7782396451859048e-04
         - -1.7600106264745320e-02
         - -3.4255383106350599e-03
         - 3.1703758204899395e-03
         - 1.3636694061307145e-02
         - -5.3189331378656821e-03
         - 4.4529052565240911e-03
         - -4.0036447452516605e-03
         - -1.9997846081588858e-03
         - 7.3223862802795983e-03
         - -2.3150429114817652e-02
         - 8.0899424584657247e-03
         - -1.3772763779571658e-02
         - -3.7494381439607542e-03
         - 5.3005104697435067e-03
         - 1.9907119414086685e-03
         - 5.7172549371946853e-03
         - -1.0682178568340697e-05
         - -6.7888705455247137e-03
         - -1.8741133587996943e-02
         - 5.9328325046226508e-03
         - 1.4361588494401598e-02
         - 2.4143718502799448e-03
         - 5.1874579969796381e-03
         - -5.9989417996720489e-03
         - 1.9433458538726158e-02
         - 9.6554839985945207e-03
         - 2.0631111266450420e-03
         - -9.9653223211144757e-03
         - -1.0113801138745054e-02
         - 5.7199458524144018e-03
         - -5.7552257929070171e-03
         - -1.0343270843271244e-02
         - 5.2365791293387896e-03
         - 2.5079776934203959e-02
         - 2.1651075283085970e-02
         - -9.5477837299187841e-03
         - -9.4537570296931973e-04
         - -9.4624717268389797e-03
         - 3.5389643563514253e-03
         - 9.5949046778880821e-03
         - -2.2784448144835610e-03
         - -1.0188135982796763e-02
         - -8.3355973639051024e-03
         - 1.0227721119048808e-02
         - 5.2821558200370046e-03
         - -2.0309523874823331e-02
         - 7.3732307182954098e-03
         - 9.5211350041116988e-03
         - -9.8805682718805803e-04
         - 3.5192623241086592e-03
         - -2.1270866880707888e-02
         - 1.6920804019183385e-02
         - -1.1723679084329537e-02
         - 8.0205134494548899e-03
         - -2.1297489152449422e-03
         - 9.6666206343607279e-03
         - 6.1056725690602980e-05
         - 1.0633534993506291e-02
         - 1.1457556687333165e-02
         - 8.5608223911331040e-04
         - 1.4334278555085747e-02
         - -2.0953521475736312e-03
         - -2.7356075900176881e-03
         - 4.8945896685392122e-03
         - -3.5346488629959603e-03
         - 6.6071462458180330e-03
         - -6.0685053665794119e-03
         - 8.4544012557312091e-03
         - -1.1017815563872003e-02
         - -1.8650486489123083e-02
         - -9.4166110841649477e-03
         - -3.7315028070912413e-03
         - -3.6580053276950067e-03
         - -8.1497600183746827e-03
         - -1.0625683241837379e-02
         - 3.5339095641097940e-03
         - 5.0691986057139274e-03
         - 1.2623649391066407e-02
         - 1.4314009964474107e-03
         - -9.9204532531669606e-03
         - 1.9087351572584153e-02
         - -2.5188628817885686e-03
         - -8.2527658999782001e-03
         - 7.8924341062356906e-03
         - -3.0502035519687489e-03
         - 3.5020893857416417e-03
         - -5.2945256401265642e-03
         - -2.0870276817479168e-03
         - -6.5387372168318461e-03
         - 1.9292403249949977e-03
         - -1.1015424590468167e-02
         - 1.6208330695237879e-03
         - 1.6047233725472051e-03
         - -2.4061062197265897e-03
         - -8.4107520463171728e-03
         - 1.3478653914247634e-03
         - 8.6643458189017697e-03
         - 2.0168192507933713e-03
         - -2.6856963380624066e-03
         - 1.5689719562898357e-03
         - 1.7291673407400269e-03
         - 1.2258012167643093e-02
         - 2.3891475286782624e-02
         - 3.1865191171635892e-03
         - 6.3780376932418784e-04
         - -1.0441306595978146e-02
         - -4.9345614469496679e-03
         - 2.1498520086447790e-02
         - 1.0653900892926943e-02
         - -4.3495158582373857e-03
         - 7.4186842204604954e-03
         - 6.5564543261654166e-05
         - 4.5484283190975741e-03
         - 1.2234081706902251e-02
         - 2.9907245681249930e-03
         - 8.7285753351472664e-03
         - 2.0181043986417751e-03
         - -1.4206611615082139e-02
         - -1.5502441643081150e-02
         - 3.6026477923981931e-03
         - -6.9459664563634380e-03
         - 9.3289764263259310e-04
         - 4.1461501183577580e-03
         - -6.8823428176606480e-03
         - 4.8640048647086648e-03
         - -7.7893126007725936e-03
         - -3.7943269440895481e-03
         - -1.0354333108414026e-02
         - 9.6084040889808011e-03
         - 2.0480602336125013e-03
         - 3.2959068324885598e-03
         - -2.7784746554284107e-03
         - 4.9838315521497905e-03
         - 1.8838826754926943e-02
         - 2.4979529931467039e-02
         - -6.9064880219907266e-03
         - 6.7419907860232775e-03
         - 7.2114634305780268e-03
         - 1.6638642315172502e-03
         - 5.8071501998449128e-03
         - -6.2606396057375713e-03
         - -2.1904911431228274e-02
         - 5.9859402103451392e-03
         - -8.1384028438381793e-03
         - 1.5976792380428145e-03
         - -9.4485108341365968e-03
         - 9.4077503857710482e-03
         - -7.7795641834525048e-04
         - 4.8198785155260252e-03
         - -8.1934105993977432e-03
         - -2.0361452895245949e-02
         - 1.3611421306883932e-05
         - -1.9679306402139926e-02
         - 6.5930821606456618e-03
         - -1.5845161969502603e-02
         - -1.1483054618845540e-02
         - 8.7492436081300570e-03
         - 2.1127524881139483e-02
         - 7.1867227139393013e-03
         - 2.1100435264859740e-03
         - -3.2200492787591698e-03
         - 4.7564358828663580e-03
         - 9.1248842375704902e-04
         - 1.3057931756175487e-02
         - -4.4074384280143406e-03
         - 8.7180538061189198e-03
         - 5.7746860122377648e-03
         - 1.7901436956758172e-02
         - -3.5155323909836392e-03
         - -2.7883658240085854e-03
         - -2.9927816783047391e-03
         - -2.6535614465557755e-03
         - 1.0264361741721913e-02
         - -2.2306044859398406e-03
         - -1.5156608013504994e-02
         - -1.2063814604047424e-02
         - -6.6387801068896937e-03
         - 9.5050534518960981e-03
         - -8.9106107939100777e-03
         - 8.0617483809662001e-03
         - 9.1572933350111217e-03
         - 8.8467738090492222e-03
         - 1.9578328982222839e-03
         - 2.2938250794088021e-02
         - -4.2285706426384755e-03
         - 1.6474244733265763e-02
         - 1.0719580639113121e-02
         - -1.6129221209323801e-03
         - 1.3894764513013053e-02
         - -4.8398889730138141e-03
         - 3.1554160147372144e-03
         - 2.6912201757096454e-03
         - 4.6646672809177283e-03
         - 1.8803967014554258e-03
         - 5.1741259728770575e-03
         - -2.9538247447084338e-04
         - -4.2599446035917424e-04
         - -1.8993000753311769e-03
         - -4.7814916706137708e-03
         - -2.4432555808449278e-03
         - -5.0276324132440472e-03
         - -4.7933923933862459e-03
         - 5.4711858602690139e-03
         - 2.9961176661707166e-03
         - -6.4115179108950836e-03
         - 2.0169703036625247e-03
         - -5.2330145136550727e-03
         - 2.9425684210008657e-03
         - 1.9437207246101726e-03
         - 1.5492475458317460e-03
         - -5.5873782344156133e-03
         - -6.2857055542234553e-03
         - 2.1783069190681554e-03
         - -5.1959351513538058e-03
         - 2.0281898764482487e-03
         - 3.8850817581361084e-03
         - 5.1394344108656054e-03
         - 6.4138446739710232e-03
         - 4.8300592873076744e-03
         - 7.8626893620259118e-03
         - 7.7978177384765172e-03
         - 1.5916116389490067e-03
         - 4.1762814777555292e-03
         - 5.8466867440024987e-03
         - -2.5429272776831672e-03
         - 4.1658232602352838e-03
         - 6.7812902187688092e-03
         - -1.2221736984432518e-03
         - 4.8723968882161319e-03
         - -4.9810051974086896e-04
         - 6.8104889450348628e-03
         - -6.7742407547409103e-03
         - -1.1760393148784209e-03
         - -8.7989268423670555e-07
         - 2.2797027191592358e-03
         - 3.5692573990232308e-03
         - -6.1296163062506195e-03
         - -2.9631787082377288e-03
         - 5.8858767165758021e-03
         - -5.3178619978811017e-03
         - 6.8803881852034230e-04
         - -1.4096116934829285e-03
         - 1.1975357946660281e-03
         - -8.2011337571488499e-03
         - 5.5829529390089517e-03
         - 6.5045953638543852e-03
         - 6.5359883787011784e-03
         - 6.0073003242228111e-03
         - -4.7870181258918149e-03
         - 9.0345778832774722e-03
         - 3.0549733230997465e-03
         - -6.0686978452895854e-03
         - -1.7148746881061893e-03
         - -9.0278388486928693e-03
         - -4.5653637795320034e-03
         - 8.1120238389047073e-03
         - 3.0267202974247330e-03
         - -2.1682263155158956e-03
         - -6.2622474168092905e-03
         - -7.7650984512972682e-04
         - -3.3796484663311246e-03
         - 3.0081029240199811e-03
         - 5.3946497528340699e-03
         - -2.9675902697946905e-03
         - 3.2493843595314386e-03
         - -5.5731287823646732e-03
         - -7.4471739712635597e-03
         - -1.6960578349800063e-03
         - 2.9693278015289245e-04
         - -1.1758386060820394e-03
         - 6.7720575244749988e-03
         - -2.0598746880399602e-03
         - -3.5256898139494793e-03
         - -2.0279694631009923e-04
         - -3.3828885529729540e-03
         - 4.5545889004504898e-05
         - 7.7946426993580125e-04
         - 6.8300317657312686e-03
         - 6.4703048524261926e-03
         - 4.7269400684105258e-04
         - -6.2376755805879751e-03
         - -5.0013250511949823e-03
         - -2.4134856113176063e-03
         - 7.4011579503537863e-03
         - -3.8608238588331498e-03
         - -6.2916623766598695e-04
         - 3.1488435432500315e-03
         - -6.4809506084454625e-03
         - 1.6813033407689242e-03
         - -5.2872809382236317e-03
         - 7.0906957335955005e-04
         - -1.9347536494115499e-03
         - -3.5197515463542585e-03
         - 4.2720576595109833e-03
         - -9.4957023909992655e-04
         - 6.4273066079063969e-03
         - -3.4620856407010302e-03
         - -6.4673839266858081e-03
         - -4.6510031677496093e-03
         - 2.8592858832323905e-03
         - -1.3696248417470556e-03
         - -4.7080430739319711e-03
         - -3.5593107747748597e-03
         - 2.0662384088514290e-03
         - -1.5664672163454329e-03
         - -2.7284517179356183e-03
         - 8.0863572227816219e-03
         - -1.6380192921283468e-03
         - -6.2193060590990338e-03
         - 2.1842550494345108e-04
         - 7.5205488219696436e-03
         - 4.6913016658802192e-03
         - 2.6043686918994771e-03
         - 6.5096096414127107e-03
         - -1.0693018103380178e-03
         - 5.2217203376748256e-03
         - 5.8361683961359948e-03
         - -3.8104231114291140e-04
         - -7.5669387665668669e-03
         - -3.8136641525988481e-03
         - -4.7641491975365371e-03
         - -6.4338193465204941e-03
         - 4.9861938222494065e-03
         - 1.0996935083403732e-03
         - -4.9001688007356929e-03
         - 4.7793692129261111e-03
         - -6.9922297011958930e-03
         - -3.1165203514044886e-03
         - 5.5085354063792186e-03
         - -3.2461556514151763e-03
         - -4.6110480883923069e-03
         - 4.2919872757014926e-03
         - -1.3316731915543989e-03
         - 3.3973541118554559e-03
         - -5.9517168577276226e-03
         - 5.8729094203082135e-03
         - 2.2183915545682812e-03
         - 7.8049462440179396e-03
         - 4.4671752566870183e-03
         - -5.7186264169001152e-03
         - 4.9788595924727111e-03
         - 6.5250967237758114e-04
         - 2.0098918546265793e-03
         - 2.4405193126241405e-03
         - 7.3095861458308709e-04
         - 4.2299320447324457e-03
         - -4.8219808353658816e-04
         - 1.9633314470756569e-03
         - 7.1860566528797222e-03
         - 6.5265094372802699e-03
         - 2.7380989601330269e-03
         - -2.0580708605419710e-03
         - 5.2203111165150537e-03
         - -3.8341911899759892e-03
         - 6.3610508253807612e-03
         - -4.2561492815422356e-03
         - -6.4276454268753710e-03
         - 7.2383115302728732e-03
         - 1.3094917855582524e-03
         - -5.1991859049806202e-03
         - 4.4977346498048928e-03
         - 5.5696138960577160e-03
         - 5.3528554221078991e-03
         - -5.6355825534874504e-03
         - -6.3007925199120424e-04
         - -1.0615116906961656e-03
         - -6.9831688411456450e-03
         - 1.1052813273841429e-03
         - -7.0589602811861434e-03
         - -7.5481874306908342e-03
         - -1.3702692308157263e-03
         - -8.8833461710171354e-04
         - 5.5447685351915398e-03
         - 3.2344891394579509e-03
         - -4.7475965016759948e-03
         - 3.3458914884048532e-03
         - -2.4271896205552172e-03
         - -5.2107867221298516e-04
         - 5.7459200524022178e-03
         - 2.2794736764398514e-03
         - 3.0474755104783705e-03
         - 2.1709235579503621e-03
         - 4.3564376114907030e-03
         - -5.9379821646578547e-03
         - 3.6251955843033218e-03
         - 3.3797524077477125e-03
         - -2.4876139158184563e-03
         - -2.8785666175254266e-03
         - -6.6768295332465749e-03
         - -4.2055550167909312e-03
         - -5.8870873219157840e-03
         - -6.6203044760171125e-03
         - 2.0732670794502406e-04
         - -5.5839917993157047e-03
         - -7.4908081007027750e-03
         - 5.2382129872800805e-03
         - 4.5396199569506784e-03
         - -8.0054108946367424e-03
         - -3.7430492097050689e-03
         - 4.7858488012620165e-03
         - -7.6783409745462142e-03
         - -1.1929512938835330e-03
         - 8.1706745311606824e-03
         - 3.1573973505783304e-03
         - 3.9457356800494383e-03
         - -1.9910275117700992e-03
         - -5.6728891507860056e-03
         - -2.8399674350813673e-03
         - -5.8828276165342292e-03
         - 4.9303724811669124e-04
         - -2.3610704432215305e-03
         - -6.8114907572187390e-03
         - -6.5348274698531295e-03
         - 3.1641720412434065e-03
         - 1.2813182754300044e-03
         - 2.3184469534310846e-03
         - 7.9737702521711121e-04
         - -7.6424884454063646e-04
         - 1.5411897659865469e-03
         - 5.2735196290621903e-03
         - 6.5506639729985472e-03
         - 5.9631159170289699e-03
         - -5.0054100027513860e-03
         - 4.4619435422304822e-03
         - -3.8813601000994374e-03
         - 2.9562575833872941e-03
         - 1.7035796583040819e-04
         - -6.5522627836643492e-03
         - -6.7448722655539242e-03
         - -3.4645971872884537e-03
         - -4.7369294968445022e-04
         - 3.9943029967782614e-03
         - -1.5450042640302337e-03
         - -3.5212660093303437e-04
         - -5.0999394530999650e-03
         - 3.2449423820070170e-03
         - 5.7407093071162839e-03
         - 1.8023612892836937e-03
         - 3.7174616169618597e-03
         - 4.6223944256646981e-03
         - 5.2430409485054088e-03
         - -7.1856093496807253e-03
         - -1.6786597837926899e-03
         - 1.9292982673135249e-03
         - -6.8679622015411961e-03
         - -2.3728125122163064e-03
         - -2.1388037484601787e-03
         - -3.1638704139115236e-03
         - -3.8246493268318895e-03
         - 3.0229426201667233e-03
         - 7.5556622786747808e-04
         - -5.0584548395208482e-03
         - -6.6617595009089226e-03
         - 4.0063845531669315e-03
         - 4.7012695263790984e-03
         - 5.2283843499299799e-03
         - -3.9993925109685956e-03
         - -4.4570197154378292e-03
         - -8.7178387150836385e-04
         - 1.8947850771774831e-03
         - 5.6715630173263584e-03
         - -2.0921371538765855e-03
         - -3.5795487191331156e-03
         - 3.4427654050284221e-04
         - -2.5699424933044957e-03
         - -7.0031399162599171e-03
         - 4.0670722937219449e-05
         - -7.4543164858957350e-03
         - 4.4857228141171922e-03
         - -6.1276296814959082e-03
         - -5.3701692039377332e-03
         - -1.2041354964854891e-03
         - 4.8370367369107107e-04
         - -5.1797220065264880e-03
         - -2.7078633679516358e-03
         - 1.8669546932140316e-03
         - -1.0665218109774091e-03
         - -3.6590314057331438e-03
         - -6.7508537522802826e-03
         - -1.0170797172966268e-03
         - -5.3362152316618469e-03
         - -7.3553311595559226e-04
         - -4.3143428862309928e-03
         - 4.5562192553018060e-03
         - -4.3822909313211761e-03
         - -5.7870561204775711e-03
         - -7.1956120027470427e-03
         - -3.3462011677149873e-03
         - 6.1813128023806051e-03
         - -6.9980790049644349e-05
         - 3.4749677380890511e-03
         - -8.6467129142210099e-04
         - -4.5099246983294180e-03
         - 1.7307357629816355e-03
         - -3.0755848531965955e-03
         - -3.7057832689662206e-04
         - -2.0693319076057356e-03
         - -5.4051882667294875e-03
         - 4.3624061710778065e-03
         - 1.1002436711316354e-03
         - -3.1784001364845546e-03
         - -7.4280173095080297e-03
         - -5.1976341530583390e-03
         - 1.1854600272260631e-03
         - -4.9915919634610402e-03
         - -1.0601242921781215e-03
         - 1.3526582270751715e-03
         - -4.0847803581986128e-03
         - -3.7064177568119842e-03
         - 3.2647637756359447e-03
         - 3.5092019635713230e-03
         - 4.1953772749237428e-03
         - -9.5576305236344250e-03
         - -2.0125600950383652e-03
         - 7.0474760468829958e-04
         - -9.1284640525345745e-04
         - 1.3397334668033894e-02
         - 9.7945425277164207e-03
         - 9.7067293335014182e-03
         - -3.8928806806516150e-03
         - 1.8143800508348738e-03
         - 4.1663335136183297e-03
         - 2.7916836646506580e-03
         - 1.2669047280057619e-03
         - -1.4377363378282383e-03
         - 5.2583399560495684e-03
         - -4.9325793660584009e-03
         - -7.7955305314758158e-03
         - 4.5436902810495408e-03
         - 2.6096793677152148e-03
         - 5.0098206961506700e-03
         - -3.2882600316353513e-03
         - 3.2296935439092727e-03
         - -2.3693298316031213e-03
         - 7.9649793559685503e-03
         - -2.7956485057202226e-03
         - -3.4107758384747640e-03
         - -2.9781987586374771e-03
         - -3.0374882014861720e-03
         - -2.9663317914657514e-03
         - 7.8396495507650488e-03
         - -4.0206001761187136e-04
         - -2.0295992166175403e-03
         - 5.6881152271789281e-03
         - 8.7759463164500864e-03
         - 6.7493092095991768e-03
         - -8.2449295369062562e-04
         - -9.6773647009982535e-04
         - 3.7057049427416514e-03
         - 1.4009899848515433e-03
         - 1.1117697705914824e-02
         - -1.8905979041703405e-03
         - -2.9447899685190863e-03
         - 5.3589924197681152e-03
         - -2.6054409387597688e-03
         - 1.2695280631377858e-03
         - 2.8172502874472113e-03
         - -2.7409845708542130e-03
         - -9.0229585155011064e-03
         - 3.0335991661178206e-03
         - -4.8186946970804881e-03
         - -7.4976875274640354e-03
         - -2.6808278254504860e-03
         - -7.2537152326469286e-03
         - -2.5909257102693377e-03
         - 3.8753540154139540e-04
         - -8.4053975138694993e-03
         - 5.2348019874843719e-04
         - 3.1733922377280318e-03
         - -7.3818509430682707e-03
         - 6.7734708346223454e-03
         - -7.7152779868126659e-03
         - 2.5643151177798694e-03
         - 1.1009328992851069e-03
         - 5.3335646275859379e-03
         - 8.6705394237856809e-04
         - 3.4994632493072363e-03
         - -1.1722266020616308e-02
         - 1.7119472705566785e-03
         - 8.8273805804382488e-03
         - -1.1564687934809029e-02
         - -1.2174331186248664e-03
         - 2.4650897019888795e-03
         - -2.2184982726097466e-03
         - 8.2977568223332951e-03
         - -6.4143494381135426e-03
         - 3.1058877835102713e-03
         - 2.2056053752248805e-03
         - 1.7868340240480523e-03
         - -5.1087879579052881e-03
         - 1.2601318772020469e-03
         - -3.1481002543277395e-04
         - 8.7219899845924296e-03
         - 1.1831048067283747e-02
         - 1.1379663063397346e-02
         - 2.1105147143751748e-02
         - -3.0123838936184011e-03
         - 2.9133857736066554e-03
         - -1.1210310102908374e-03
         - -1.3807937873153479e-02
         - -2.3094412795986435e-02
         - -1.6999867066819833e-02
         - -2.0864796778553279e-02
         - 3.1607289399589633e-03
         - 3.0560714152463213e-03
         - 1.0686369750815642e-02
         - -1.0485399721941470e-03
         - -1.0314546830987497e-02
         - -1.4407953985128029e-02
         - -4.0796901993049948e-03
         - 1.2838515188884557e-02
         - 9.8579145194389109e-03
         - 2.0480664675115771e-04
         - 8.8078138924353230e-03
         - -8.7945993480946592e-03
         - 2.2038334580416642e-03
         - 6.1551812005375735e-03
         - 5.8315554735629428e-03
         - 1.2014114880029169e-02
         - -7.4760893717081963e-03
         - -1.3103363363024955e-02
         - 4.8978205755680401e-03
         - 4.4945043388748196e-03
         - 2.2946794929094842e-02
         - -5.1378879361269354e-03
         - 1.4726393080141018e-02
         - -2.1816517366074536e-03
         - -8.5002667511923976e-03
         - -1.4030538112613277e-02
         - 3.1036198097063716e-03
         - 3.3302316242145922e-03
         - 6.2160963447653779e-04
         - -1.3189370346658671e-02
         - 5.9219350869287443e-03
         - -7.9824813074575883e-04
         - 2.9311827129957363e-03
         - -2.0437899366186060e-02
         - -1.8457900770127642e-02
         - 4.5435198194448663e-03
         - 5.2722299683819179e-03
         - 1.3338929067796811e-02
         - 3.2987810670019693e-03
         - 7.2461120192754951e-03
         - -5.4998701020228160e-03
         - -1.0168808848581774e-02
         - 7.2971634011561072e-03
         - -1.0063753969812376e-02
         - 6.0986877810769542e-03
         - -8.8697842354407488e-03
         - -1.0415374542892070e-02
         - 1.0520658474997646e-02
         - -6.7658651268259512e-04
         - 1.7878649197247184e-02
         - -2.3898417123664464e-03
         - 3.2121638062721858e-03
         - 4.6427270661972596e-03
         - 3.1294358564191490e-05
         - 3.2441813306101738e-03
         - -7.6084818617935587e-03
         - -3.2414485168783830e-03
         - 9.7583641512333213e-03
         - -5.7164620015863312e-03
         - -1.9196203112398516e-02
         - -9.5535227589734417e-04
         - -2.4428794543991023e-02
         - -1.2791674862150998e-02
         - -1.2439271731515151e-02
         - 3.7895629764828930e-03
         - 4.9639717796067188e-03
         - -1.3997878993788069e-02
         - 1.3739074710148898e-03
         - -7.9324178708747358e-03
         - 2.1622105743520238e-03
         - -8.3385347734422979e-03
         - 5.2836866302059188e-03
         - 9.9010078052022554e-03
         - 8.5469204453264488e-03
         - -2.0031040761770993e-02
         - 5.6762235922386212e-03
         - -1.1896503092389548e-03
         - -8.1949803849303334e-03
         - 1.0123107257636094e-02
         - -9.3830883988049625e-03
         - -1.0189678601393396e-02
         - -1.4265401175295879e-02
         - -4.2036527275487769e-03
         - -1.0385421728009592e-02
         - 3.5774010776633788e-03
         - -9.4487290740306751e-03
         - -5.8291366087572403e-03
         - -3.7238516905930708e-03
         - -3.2045174132480500e-03
         - -3.4087345171240446e-03
         - 1.3302608365477068e-02
         - -9.5598540324397987e-03
         - 5.1209810478315635e-03
         - 1.1534784033469010e-02
         - 1.6521114496992371e-02
         - 2.3784899219707759e-03
         - 6.5378179607041243e-03
         - -6.1897725763064397e-03
         - 6.5109897620957329e-03
         - 2.7229388713452957e-03
         - -1.7756963135232770e-03
         - -1.0729855667398787e-02
         - 1.8906584145081781e-03
         - -7.5896159791091972e-04
         - 9.8531113527109623e-03
         - 7.0420637947104219e-03
         - -3.4296927418283256e-03
         - -5.0950179278283414e-03
         - -6.0232056689774943e-03
         - 9.5265422444891553e-03
         - 5.9115345364780351e-03
         - 5.3062151517421254e-03
         - -1.1007966292070480e-02
         - -4.3155770561408978e-04
         - -1.2530473307011996e-02
         - -1.1056981395628001e-02
         - -3.7872687794838594e-04
         - -4.1332922218229630e-03
         - 7.6830172200296823e-03
         - 9.0011039852044596e-03
         - 4.4273520167841867e-03
         - 4.5180734927734176e-03
         - 7.9683589347892183e-03
         - -8.2596353836117270e-03
         - -7.0344835125122169e-03
         - -2.0383624072867019e-03
         - -2.1945046288365005e-02
         - -2.3437434954924865e-02
         - -1.5827515847181308e-03
         - -1.9284787499078439e-02
         - 1.6609859687266942e-02
         - 5.8104973745685580e-03
         - -1.3193827285511796e-02
         - -1.3090999038235606e-02
         - 8.4457343556142359e-03
         - 1.9623827196533616e-02
         - 1.1664629771483798e-02
         - -6.4380707821350388e-03
         - -2.4528841491782784e-02
         - 1.5084547008550447e-02
         - -6.4128075465070514e-04
         - 6.6521062694446997e-03
         - 1.5092562621154052e-03
         - 1.2197899694070884e-02
         - -6.6870100712010010e-03
         - -5.3446035890789209e-03
         - -1.8033769627782748e-02
         - -8.6290473816727376e-03
         - 5.4532860751618905e-03
         - 1.1666020128339141e-02
         - 4.0213128177466672e-03
         - -3.4307855365565826e-03
         - -2.5049722122077730e-02
         - 1.0476755328897757e-02
         - 2.5446593201398139e-03
         - 7.8116625319492915e-03
         - -2.5555550575756612e-02
         - 1.1798119802077593e-02
         - 2.5825910257437487e-03
         - -1.5531971080019507e-02
         - 8.5439277798517749e-03
         - -5.4911251481087262e-03
         - -8.0489688070669169e-03
         - 1.0241310427449048e-02
         - 1.5391989213323050e-02
         - -3.8024198094774252e-03
         - 5.3110727256841690e-03
         - 1.9873412650269545e-03
         - -8.2198711091640515e-05
         - -4.3639607360679289e-03
         - -4.8671022578848549e-03
         - -1.2475431450162283e-02
         - -3.9967665086332706e-03
         - 2.4341861312614584e-03
         - 8.5091903032411265e-03
         - 9.1775110854482901e-04
         - -1.3570030559447922e-02
         - 9.8805343523743743e-03
         - 1.2737537908593362e-03
         - -7.3209272398143607e-03
         - 1.7302398721609784e-04
         - 2.2193475267094764e-03
         - -8.2985310821042223e-03
         - -2.7452583485124676e-02
         - -1.0096080478080499e-02
         - -1.1221972140224461e-02
         - 3.3636079697051610e-03
         - 2.6974268809611089e-03
         - -7.5095662317368993e-03
         - -1.7075185412344023e-02
         - -1.8716491488271168e-02
         - -2.0436522754266998e-02
         - -1.4843241798765344e-02
         - -3.8304503202055218e-03
         - 1.9729100547125459e-02
         - -1.4316498241644342e-02
         - -4.0715591351021384e-03
         - 2.7888288464452814e-02
         - 1.4204986777501625e-02
         - -6.2793709715524160e-03
         - -2.2385370271735135e-03
         - -1.6135982900572835e-02
         - -2.4647163724319360e-03
         - -1.3461064251570010e-02
         - 1.3503022273448561e-02
         - 7.4772857641586254e-03
         - 1.7911085615263261e-02
         - -3.0598055098992184e-03
         - 9.4419633153001500e-03
         - 1.4713954319362010e-02
         - -7.7585304867722974e-03
         - 2.7186565707279568e-02
         - -4.9365227498609598e-04
         - 6.2744461535825654e-03
         - -1.2539994873395032e-02
         - 9.3515241418735834e-05
         - -6.2193151485829355e-03
         - 1.9405610838302598e-02
         - 1.7926973635480890e-03
         - 9.9591125825373040e-03
         - -7.9002302468171876e-03
         - -3.6542397178147596e-03
         - 1.2383014224276260e-02
         - -1.1214015278709496e-02
         - -1.1865680087082506e-02
         - 5.9560299626729750e-03
         - -1.2484207943598388e-02
         - -7.1839773924998705e-03
         - 4.0003441151985810e-03
         - -3.2450684976116626e-02
         - 4.1527715187780270e-03
         - -7.6078178723673392e-05
         - -7.0795294758842966e-03
         - 1.1129026078843082e-02
         - 2.4051829690296917e-02
         - 2.4233844498458838e-02
         - -1.5528318226815795e-02
         - 2.4088103282877509e-02
         - 1.5501725377494410e-02
         - 1.5777345360255296e-02
         - 9.6561659320403247e-03
         - 1.0415587626582208e-02
         - 1.8367631728480741e-03
         - 5.0925159296408614e-03
         - -2.6650730584514681e-03
         - 3.3460219896065931e-03
         - -4.6745100967609619e-03
         - -6.4519556901840606e-03
         - -1.2466161521783117e-02
         - -5.3812108919394797e-03
         - 6.9913389768201119e-05
         - -7.5780530638932374e-03
         - -1.4025927130424323e-02
         - -6.7423917973436888e-03
         - -5.4470554711630592e-03
         - 7.8201145500057384e-03
         - 7.1916297301221300e-03
         - -1.6305354947506224e-02
         - 1.7158516756411130e-02
         - -1.0298696583533527e-02
         - 5.6554079981499094e-03
         - -6.0330316650811233e-04
         - 6.3711753276343716e-03
         - 1.9802008204322225e-02
         - 1.9286522452813433e-03
         - -2.7781970992691151e-03
         - 2.2434202453080192e-02
         - -1.3443289452837340e-03
         - -9.7147238908802391e-03
         - 1.9312761777204892e-02
         - -7.8315193485523210e-03
         - -5.4778104775603086e-03
         - -1.0028946920369576e-02
         - 5.2552897645295514e-03
         - 4.3766859609178808e-03
         - 1.0189255269290112e-02
         - 2.1134596270814422e-02
         - 1.3158568314487848e-02
         - -3.4400864298479729e-03
         - -7.2996581168969545e-03
         - -3.2496982156347337e-03
         - 7.0760839942257377e-03
         - 2.4759516456482893e-03
         - -1.2524862021689948e-02
         - -1.4707371423820514e-02
         - -5.9177866358528187e-03
         - -6.5573907765046468e-03
         - -2.2874986961340122e-02
         - -1.3757368724106865e-02
         - -1.6607341580065993e-02
         - -1.6602679084776254e-02
         - -8.7572849152369060e-03
         - -1.9843750816934073e-03
         - 2.8352398314816060e-02
         - 8.0543845378453563e-03
         - 5.9462718296000505e-03
         - 1.4109400630358128e-02
         - 3.3811525417087656e-03
         - 8.9324055583840344e-03
         - -2.7393259127245519e-02
         - -1.7665489544072554e-02
         - 7.4178492133997675e-04
         - 6.7920685637421719e-03
         - -1.0676372892221087e-02
         - 2.0104275938597873e-03
         - 1.1595028526966651e-02
         - 4.6329289088783412e-03
         - -9.0088787489057132e-03
         - -3.1093184310357629e-03
         - 9.9244330521335734e-03
         - 2.0309705004085455e-04
         - 1.3066156490417882e-02
         - 1.8347640161393841e-02
         - 1.0434853991263133e-02
         - -8.7009414567800492e-05
         - -8.0502363709238564e-03
         - 5.8329141463579629e-03
         - 3.5681865974347068e-02
         - 3.2066155191709842e-04
         - -4.3238982940605814e-04
         - -7.7763118425216438e-03
         - -1.4296408119454073e-02
         - 2.6954440230876212e-03
         - -1.5027531104101197e-02
         - -2.2108057358359190e-02
         - 7.6300288873551768e-03
         - -6.6541047769893191e-04
         - 5.4775406175059538e-03
         - 1.6833353499478652e-02
         - -1.8424508890523598e-02
         - -6.5362372573950795e-03
         - 1.1541623064029571e-02
         - 1.5480818894526167e-02
         - 3.0574250559214918e-02
         - 1.3679236088951814e-02
         - 6.6128097169060422e-03
         - -2.4225334895348991e-02
         - 1.2300002870549885e-02
         - 3.2815087596504512e-02
         - -3.2479115469887247e-03
         - 1.8599410198696403e-02
         - -8.4749565959311522e-03
         - -2.3134132944741013e-02
         - 7.4111939314955091e-03
         - -2.4176482272453868e-02
         - 3.8289738601155724e-03
         - -7.0114668731761825e-03
         - -7.8467706155050405e-03
         - -1.2809955552337505e-02
         - 4.7732081701995889e-03
         - -1.0694341050700759e-02
         - -3.2511226824482112e-03
         - 1.8785121217859281e-02
         - 3.9833266479557738e-03
         - -1.1959285898516903e-02
         - 1.7489207943524546e-02
         - 1.7386899904946032e-02
         - 4.8857627309146076e-03
         - 1.4840426485210568e-03
         - -1.2750086628582135e-02
         - -7.4822886726196147e-03
         - 1.4109189374880966e-02
         - 8.1740864310963935e-03
         - 2.7088272329497314e-04
         - -4.7277392871943923e-03
         - -1.1568159742709272e-03
         - 8.9785114291846707e-04
         - -6.1357290198640144e-03
         - -9.1187075301413043e-03
         - 3.2163369924486901e-02
         - -3.7300924972364473e-03
         - 9.5139420887957078e-03
         - -1.7193102145825229e-02
         - 1.1674162628667537e-02
         - 1.8232034715487299e-02
         - 7.5248255533548105e-03
         - 6.3780315513164293e-03
         - -1.6930052946404917e-02
         - 1.0460348592191958e-02
         - -3.3553842528378365e-03
         - -2.1941941303473548e-02
         - 2.7169928385921624e-02
         - -1.4191499139074354e-02
         - 1.3893699913760747e-02
         - -2.1917638233937699e-02
         - 1.6331253012544188e-02
         - 5.3740039232815159e-03
         - 1.0964936124969822e-03
         - -1.5364082386414102e-03
         - -5.2291860927654431e-03
         - 7.5846956254390441e-03
         - -6.3284612639591953e-03
         - -1.8514187770000190e-02
         - 6.9121396529757909e-03
         - -2.0914029852337389e-02
         - 3.0395722227672486e-03
         - -1.8268144458145202e-03
         - 1.4785721440791126e-02
         - -1.7869211091451464e-02
         - 1.0038074395715857e-02
         - -9.7547804990370610e-03
         - 1.5666225204811883e-03
         - 1.4607942369596683e-03
         - -1.3350241357093855e-03
         - -6.1166318076757492e-03
         - 6.7895821545530480e-03
         - 2.0169625124609788e-03
         - -2.2852903788856783e-02
         - -1.9850832166100432e-03
         - 3.4826226928577082e-03
         - -6.2049315580837289e-03
         - 5.4243404350369836e-03
         - -1.0899242307633464e-02
         - 1.2262074778762780e-03
         - -2.3159510401238162e-02
         - -1.1099401472425064e-02
         - 3.7939436599294897e-03
         - 7.2632627173519664e-03
         - -1.2413533463800095e-02
         - -8.0567843047625199e-03
         - -1.3114607061711256e-02
         - 1.6005200542113775e-02
         - -3.5679926290162643e-03
         - -2.0864768197293021e-02
         - -3.4461133702397531e-03
         - 1.0349646615743491e-02
         - -4.4843961983366655e-03
         - -3.8238836250297009e-03
         - -4.5691437591525528e-03
         - 1.1584505375805102e-02
         - 1.0967682115411416e-02
